{
    "condamp": {
        "linWeight": [
            0.11679007112979889,
            -0.07057372480630875,
            -0.23013505339622498,
            -0.05772782489657402,
            0.06200786679983139,
            -6.71833913656883e-05,
            -0.42119500041007996,
            -0.2414252907037735,
            -0.20226381719112396,
            0.17773687839508057,
            -0.02159591019153595,
            0.14037951827049255,
            -0.08241903781890869,
            -0.05019250512123108,
            -0.060478325933218,
            0.021616872400045395,
            -0.060074687004089355,
            -0.1376456916332245,
            0.013760792091488838,
            -0.06993041187524796,
            -0.33310216665267944,
            -0.011061464436352253,
            -0.0600179061293602,
            0.04408702999353409,
            0.17322246730327606,
            0.021682295948266983,
            0.11156866699457169,
            0.1783331334590912,
            0.17042653262615204,
            0.13500890135765076,
            0.3975309431552887,
            0.03779839351773262,
            -0.06959889829158783,
            -0.03358755633234978,
            -0.016595512628555298,
            0.41944438219070435,
            0.005811525974422693,
            0.6412412524223328,
            0.12842753529548645,
            0.22613482177257538,
            0.07600712031126022,
            -0.4868648052215576,
            -0.08974581956863403,
            0.06445308029651642,
            0.07604052871465683,
            0.018449721857905388,
            0.596264660358429,
            0.17123258113861084
        ],
        "linBias": [
            0.009213488548994064
        ],
        "recWeightInput": [
            0.5658482313156128,
            0.43773964047431946,
            0.4206193685531616,
            -0.1798921376466751,
            0.16180266439914703,
            -0.015712963417172432,
            -0.9023380279541016,
            -0.6800011396408081,
            -0.12200291454792023,
            0.16354160010814667,
            -0.16245032846927643,
            -0.48319801688194275,
            -0.1329624354839325,
            -0.07905711978673935,
            0.8526819348335266,
            -0.3225056231021881,
            -0.7334316372871399,
            0.44546231627464294,
            0.0716281533241272,
            0.07095402479171753,
            0.2444237768650055,
            -0.09408623725175858,
            -0.2949540913105011,
            -0.26007649302482605,
            0.04408096894621849,
            -1.392452597618103,
            -1.9499109983444214,
            1.2519233226776123,
            -0.07354176044464111,
            0.008298859931528568,
            0.17922140657901764,
            0.2922300696372986,
            -0.8822773098945618,
            -0.6171280145645142,
            -0.6885178685188293,
            -0.5319570899009705,
            0.2990763485431671,
            -1.3369566202163696,
            -0.3839753270149231,
            0.11944714188575745,
            0.01957353949546814,
            0.22537171840667725,
            0.4756717085838318,
            0.4996337294578552,
            -0.06620609760284424,
            0.1704452484846115,
            -0.6804521083831787,
            -1.6087502241134644,
            0.5897322297096252,
            0.7077741026878357,
            0.45423904061317444,
            -0.37933439016342163,
            0.263080358505249,
            0.47977888584136963,
            -0.8137958645820618,
            0.44666919112205505,
            0.11890489608049393,
            -0.005553999915719032,
            -0.36130058765411377,
            -0.4425552487373352,
            -0.32404395937919617,
            -0.9863982796669006,
            1.4261627197265625,
            -1.2580147981643677,
            -0.4815596044063568,
            0.7121202945709229,
            0.14726747572422028,
            0.17488770186901093,
            0.21645276248455048,
            -0.398969441652298,
            -0.5863937139511108,
            -0.3493005037307739,
            0.2046101689338684,
            -1.6001733541488647,
            -4.7527031898498535,
            1.3668625354766846,
            0.01337425410747528,
            -0.7908898591995239,
            0.46042829751968384,
            0.3227383494377136,
            -0.9152058362960815,
            -1.0315426588058472,
            -0.849492609500885,
            0.6662908792495728,
            0.03465549647808075,
            -0.20977553725242615,
            -0.1015491634607315,
            0.3532954156398773,
            0.19059662520885468,
            0.6144982576370239,
            0.5342088341712952,
            0.8385322093963623,
            -1.1910736560821533,
            0.1051955372095108,
            0.3066678047180176,
            -1.5610809326171875,
            -0.8929237127304077,
            0.10821334272623062,
            0.7885436415672302,
            0.03128046169877052,
            -0.7441002726554871,
            -0.10808105766773224,
            0.21880245208740234,
            0.6853472590446472,
            0.923096239566803,
            -0.18034230172634125,
            0.8793822526931763,
            -0.5392451286315918,
            -0.22568947076797485,
            0.5156972408294678,
            -1.5913227796554565,
            1.3411463499069214,
            1.3639411926269531,
            0.6549961566925049,
            -2.3618056774139404,
            0.3389192819595337,
            0.32939836382865906,
            -0.4282930791378021,
            0.3397183418273926,
            -0.24401764571666718,
            1.2050623893737793,
            3.819343090057373,
            -5.067677974700928,
            -0.7946590185165405,
            0.2764735519886017,
            0.6083201169967651,
            -0.2961471974849701,
            -0.6394850611686707,
            1.0579583644866943,
            0.21246643364429474,
            -0.306694895029068,
            -0.9532572031021118,
            -0.02505595050752163,
            -0.44123587012290955,
            -1.1187736988067627,
            -1.121942162513733,
            0.4145507216453552,
            0.3246072232723236,
            0.543429970741272,
            -0.5728068351745605,
            2.422635078430176,
            -0.03546052426099777,
            -0.33402252197265625,
            -1.7313324213027954,
            0.7223929166793823,
            1.1158729791641235,
            0.9239083528518677,
            -0.3587007522583008,
            0.4504513740539551,
            0.2026549130678177,
            -0.8546437621116638,
            0.11705776304006577,
            0.1534361094236374,
            -0.61882084608078,
            -0.8225781917572021,
            -0.5231208205223083,
            0.3440498411655426,
            -0.15967100858688354,
            1.9209777116775513,
            -0.3154396712779999,
            -0.3016004264354706,
            0.8518822193145752,
            -0.5557466149330139,
            -0.25491568446159363,
            0.595337986946106,
            -0.6703583002090454,
            -0.4794478416442871,
            -0.6466093063354492,
            -0.11092475056648254,
            -2.8599750995635986,
            -1.8724812269210815,
            2.0115277767181396,
            0.05454858019948006,
            -0.12360617518424988,
            0.3028229773044586,
            0.47417134046554565,
            -0.5143036842346191,
            -1.8238223791122437,
            -1.3995704650878906,
            1.4067919254302979,
            1.8595521450042725,
            0.9510972499847412,
            -0.41748514771461487,
            -0.10547979921102524,
            0.17324134707450867,
            0.11650098860263824,
            0.4659586250782013,
            1.1804304122924805,
            -0.743296205997467,
            0.20551785826683044,
            -0.534216046333313,
            -2.49015474319458
        ],
        "recWeightBass": [
            -0.1998145431280136,
            -0.14647027850151062,
            0.017853867262601852,
            -0.04934898763895035,
            -0.20916011929512024,
            -0.2240372896194458,
            -0.459376722574234,
            -1.3513095378875732,
            -0.11212071031332016,
            0.0611882247030735,
            -0.23989713191986084,
            -0.003570370376110077,
            -0.34821510314941406,
            -0.3784193694591522,
            -0.1479448825120926,
            0.28228968381881714,
            -0.289507657289505,
            -0.08394663780927658,
            0.141725555062294,
            -0.1625080555677414,
            -0.15875014662742615,
            -0.4126201272010803,
            -0.2978534996509552,
            -0.07057073712348938,
            -0.08541756123304367,
            0.5303924083709717,
            0.4155440926551819,
            -0.23058901727199554,
            -0.1850983202457428,
            -0.46375152468681335,
            -0.17308902740478516,
            -0.18632842600345612,
            0.027214309200644493,
            0.04628389701247215,
            -0.24154162406921387,
            -0.08416970074176788,
            -0.19578465819358826,
            0.05419336259365082,
            -0.08958189934492111,
            -0.045258454978466034,
            0.17410477995872498,
            -0.5119928121566772,
            -0.18962451815605164,
            -0.2885119616985321,
            0.3270449936389923,
            -0.28870129585266113,
            0.04035715013742447,
            0.16192887723445892,
            -0.13872361183166504,
            0.2740704417228699,
            -0.05949937552213669,
            -0.12349323183298111,
            0.25163373351097107,
            0.21481209993362427,
            0.5737444162368774,
            -0.0364154577255249,
            -0.058175262063741684,
            -0.213250070810318,
            0.18157035112380981,
            -0.2588129937648773,
            0.24854731559753418,
            0.5563575029373169,
            0.15136918425559998,
            -0.17541301250457764,
            -0.040566351264715195,
            -0.0287544634193182,
            0.112448550760746,
            0.2777710258960724,
            0.2577386498451233,
            0.13629883527755737,
            0.2464841604232788,
            0.2397814393043518,
            0.010647454299032688,
            0.2779949903488159,
            0.2024621218442917,
            -0.24586831033229828,
            0.22072827816009521,
            0.46298956871032715,
            0.8189999461174011,
            0.05165721848607063,
            0.06320402026176453,
            0.3045713007450104,
            0.26887649297714233,
            0.5290443301200867,
            0.20451566576957703,
            -0.22266408801078796,
            -0.01171689573675394,
            0.0861896425485611,
            0.2830083966255188,
            0.6030101180076599,
            0.28108125925064087,
            0.21453849971294403,
            -0.18585263192653656,
            -0.0884687751531601,
            0.025669662281870842,
            0.013526372611522675,
            -0.6235095262527466,
            0.03601675480604172,
            0.055978767573833466,
            -0.1221010610461235,
            -0.04306523874402046,
            -0.11279798299074173,
            0.05943180248141289,
            0.5690087676048279,
            -0.009944728575646877,
            0.05613470822572708,
            -0.1566033810377121,
            0.02080860175192356,
            -0.03311525657773018,
            -0.01688828505575657,
            0.0037987767718732357,
            -0.2103859782218933,
            -0.1388162225484848,
            -0.0017440052470192313,
            -0.023076914250850677,
            0.07854998111724854,
            0.17572639882564545,
            -0.19632801413536072,
            -0.04865128546953201,
            -0.026173215359449387,
            -0.0569937601685524,
            -0.09307458996772766,
            0.24849970638751984,
            0.20438766479492188,
            0.9841324687004089,
            -0.05763372778892517,
            -0.009803635999560356,
            0.1459568589925766,
            -0.17491266131401062,
            -0.11058501154184341,
            0.030430542305111885,
            -0.21133635938167572,
            -0.00369736785069108,
            -0.14312447607517242,
            0.08910788595676422,
            0.054729219526052475,
            0.23205098509788513,
            0.045088838785886765,
            0.0496925488114357,
            -0.1998758763074875,
            0.06893860548734665,
            0.09377109259366989,
            0.2051846981048584,
            0.08067525923252106,
            -0.253714919090271,
            -0.047579120844602585,
            0.5601634979248047,
            -0.22270631790161133,
            -0.027976157143712044,
            -0.19207824766635895,
            0.07927808910608292,
            -0.2319323718547821,
            -0.015187804587185383,
            -0.24770371615886688,
            -0.1529916673898697,
            0.07196465134620667,
            0.09117978066205978,
            0.2588799297809601,
            -0.015092100016772747,
            0.6494794487953186,
            -0.055575571954250336,
            -0.15713433921337128,
            0.7571208477020264,
            0.02049063891172409,
            0.15775345265865326,
            0.03879046440124512,
            -0.1303526908159256,
            0.03868613764643669,
            0.03864289075136185,
            0.5719982385635376,
            1.0053142309188843,
            0.06601396948099136,
            -0.3645370304584503,
            0.05428002029657364,
            -0.013953855261206627,
            -0.23853467404842377,
            0.10091035068035126,
            -0.04559973627328873,
            0.19228607416152954,
            0.5078504681587219,
            -0.13656841218471527,
            0.08862152695655823,
            -0.07178937643766403,
            0.01927981711924076,
            -0.19134660065174103,
            0.5494744777679443,
            0.12592869997024536,
            -0.2583771049976349,
            0.2262975424528122,
            -0.21719081699848175,
            0.09035657346248627,
            -0.0358368381857872
        ],
        "recWeightMid": [
            -0.29149702191352844,
            -0.3466198146343231,
            0.14522188901901245,
            -0.17847593128681183,
            -0.24385730922222137,
            -0.29161062836647034,
            -0.3343907296657562,
            -0.11026423424482346,
            0.1529659628868103,
            0.20470094680786133,
            -0.26864808797836304,
            0.4167197346687317,
            -0.24380449950695038,
            -0.6908770799636841,
            -0.03972195088863373,
            0.01830935664474964,
            -0.21494987607002258,
            -0.11384722590446472,
            0.02024354413151741,
            -0.23364612460136414,
            -0.18049508333206177,
            -0.4562644064426422,
            -0.3651975095272064,
            -0.15953542292118073,
            0.058939095586538315,
            0.5057737231254578,
            0.957407534122467,
            -0.09043821692466736,
            -0.4695557653903961,
            -0.5569776892662048,
            -0.5660396218299866,
            -0.2290961891412735,
            -0.2776137888431549,
            -0.14596612751483917,
            -0.2829855978488922,
            -0.895416796207428,
            -0.2645583748817444,
            0.015442821197211742,
            0.01710285060107708,
            0.0031034881249070168,
            0.11529263108968735,
            -0.3280903697013855,
            -0.2505311965942383,
            -0.29004642367362976,
            0.6134585738182068,
            -0.13213081657886505,
            0.06339722126722336,
            -0.26057782769203186,
            -0.07249858230352402,
            0.41373303532600403,
            -0.03343435376882553,
            0.13364557921886444,
            0.3244824707508087,
            0.04534675553441048,
            0.38645240664482117,
            0.370331734418869,
            -0.3665834665298462,
            -0.141621932387352,
            0.09804991632699966,
            -0.33152785897254944,
            0.3292143642902374,
            0.7167326807975769,
            -0.036597028374671936,
            -0.46560657024383545,
            0.2970713973045349,
            0.13613668084144592,
            0.07790431380271912,
            0.22490553557872772,
            -0.5278213024139404,
            0.16850967705249786,
            0.30114200711250305,
            0.2755250036716461,
            0.1560923457145691,
            0.16762618720531464,
            -0.005425353068858385,
            -0.12459614127874374,
            0.11152434349060059,
            0.4864073097705841,
            0.10363137722015381,
            0.055893030017614365,
            0.07516355067491531,
            0.3006267845630646,
            0.4087543487548828,
            -0.0778355821967125,
            0.34507566690444946,
            -0.11966762691736221,
            0.0421886071562767,
            0.014985891990363598,
            0.04461774602532387,
            0.28923875093460083,
            0.09285483509302139,
            0.23904305696487427,
            -0.2734363377094269,
            0.19440554082393646,
            0.17124943435192108,
            -0.43374162912368774,
            -0.43367189168930054,
            0.1613307148218155,
            -0.09311840683221817,
            0.0296871867030859,
            0.013585591688752174,
            -0.05122406408190727,
            0.052726827561855316,
            -0.025757789611816406,
            0.10074557363986969,
            0.1342213898897171,
            -0.029090791940689087,
            -0.1171875074505806,
            0.023465415462851524,
            0.005314279813319445,
            0.029670091345906258,
            -0.1981998085975647,
            -0.22511166334152222,
            -0.0397377647459507,
            -0.04532604292035103,
            0.04474356770515442,
            -0.003985826391726732,
            -0.04422744736075401,
            0.06000911071896553,
            -0.01361657865345478,
            -0.14808793365955353,
            -0.12727873027324677,
            0.10790377110242844,
            0.08740390837192535,
            0.03087342530488968,
            -0.030518535524606705,
            0.16196277737617493,
            -0.021358659490942955,
            0.04587063565850258,
            -0.0005494948127306998,
            0.014046646654605865,
            -0.15450818836688995,
            0.019019655883312225,
            -0.12442600727081299,
            0.010701535269618034,
            0.11967169493436813,
            0.23100632429122925,
            0.028970694169402122,
            0.038950324058532715,
            0.08071758598089218,
            0.04760393872857094,
            -0.06310494989156723,
            0.09743741154670715,
            -0.1128879263997078,
            -0.20411416888237,
            -0.13545677065849304,
            -0.07438720017671585,
            -0.2637473940849304,
            0.061783112585544586,
            -0.389384001493454,
            0.12423665076494217,
            0.41391876339912415,
            -0.010550512932240963,
            -0.1843961924314499,
            0.24435023963451385,
            -0.20735420286655426,
            -0.0348280631005764,
            0.07932302355766296,
            0.17453697323799133,
            1.1848200559616089,
            0.1478632092475891,
            -0.037156447768211365,
            0.7442653179168701,
            0.0807705968618393,
            0.2068854123353958,
            -0.12168844789266586,
            0.07087863236665726,
            0.07046620547771454,
            0.17083123326301575,
            0.663408637046814,
            0.8562256097793579,
            -0.10998280346393585,
            -0.6396772265434265,
            0.13748307526111603,
            -0.1318792998790741,
            -0.08976051211357117,
            -0.10702765733003616,
            0.04600412771105766,
            0.25476834177970886,
            -0.7551286220550537,
            -0.13426044583320618,
            1.7145222425460815,
            0.16815823316574097,
            -0.08464891463518143,
            -0.3083758056163788,
            0.23863501846790314,
            -0.057705361396074295,
            -0.2212185263633728,
            0.2879377007484436,
            -0.05343354865908623,
            -0.4715690314769745,
            -0.43568935990333557
        ],
        "recWeightTreble": [
            -0.13601990044116974,
            -0.12391149252653122,
            0.44015437364578247,
            -0.05693107470870018,
            -0.2778988182544708,
            -0.2163105309009552,
            -0.42905038595199585,
            -0.4115702211856842,
            0.34840938448905945,
            -0.7123956680297852,
            -0.0959417074918747,
            -0.271683931350708,
            -0.20796653628349304,
            -0.5344244837760925,
            -0.10850699990987778,
            0.45186734199523926,
            -0.36387312412261963,
            -0.282961905002594,
            -0.05161134526133537,
            -0.08817808330059052,
            -0.9484556913375854,
            -0.4027540683746338,
            -0.47167348861694336,
            -0.19637344777584076,
            0.15648587048053741,
            1.0885915756225586,
            1.5815515518188477,
            0.6630499362945557,
            -0.25321298837661743,
            -0.4521072804927826,
            -0.5517118573188782,
            -0.39971524477005005,
            -0.05863356217741966,
            -0.06449974328279495,
            -0.17017629742622375,
            -0.30187153816223145,
            -0.41013672947883606,
            1.0723766088485718,
            0.19715052843093872,
            0.4831961691379547,
            0.25197726488113403,
            -0.39074838161468506,
            -0.1045306921005249,
            -0.2657811939716339,
            1.0114173889160156,
            0.07233461737632751,
            1.0478571653366089,
            -0.2700780928134918,
            -0.216096431016922,
            0.2790018916130066,
            -0.38612398505210876,
            0.03811506927013397,
            0.29152631759643555,
            0.2790110111236572,
            0.31496456265449524,
            0.45639359951019287,
            0.5400263667106628,
            -0.14635318517684937,
            0.007911494933068752,
            -0.48672038316726685,
            0.36170539259910583,
            0.8566314578056335,
            0.08007998019456863,
            -0.3285219669342041,
            0.3390564024448395,
            0.2236618548631668,
            0.06404776871204376,
            0.15614913403987885,
            -0.6646546721458435,
            0.0905662328004837,
            0.142722487449646,
            0.17226925492286682,
            -0.018617169931530952,
            0.16011787950992584,
            -0.20769023895263672,
            -0.04491836577653885,
            0.15785850584506989,
            0.5642504096031189,
            0.6219931840896606,
            0.038745392113924026,
            -0.02177688293159008,
            0.202570378780365,
            0.26063403487205505,
            0.9637264609336853,
            0.43827998638153076,
            -0.2997523248195648,
            0.5700996518135071,
            -0.04490935057401657,
            0.2936883866786957,
            0.31396716833114624,
            0.4015183746814728,
            0.30218860507011414,
            -0.09681035578250885,
            -0.055088236927986145,
            0.7188614010810852,
            0.09398280829191208,
            -0.5660490989685059,
            0.07316340506076813,
            0.10711867362260818,
            0.02334780804812908,
            -0.06295479089021683,
            0.00048224543570540845,
            -0.004557792562991381,
            -0.19155250489711761,
            0.14786361157894135,
            0.2765352427959442,
            -0.1263199895620346,
            -0.015029359608888626,
            0.07099603116512299,
            -0.029480203986167908,
            0.07564877718687057,
            -0.23410029709339142,
            -0.07641161233186722,
            0.19344699382781982,
            0.023945491760969162,
            -0.0008495450019836426,
            -0.5484288334846497,
            0.05082361027598381,
            -0.024363087490200996,
            -0.03283292055130005,
            -0.17399917542934418,
            -0.2884202003479004,
            0.12474408000707626,
            -0.10740764439105988,
            0.05667318031191826,
            0.014269007369875908,
            -0.056091003119945526,
            -0.11456124484539032,
            -0.023831533268094063,
            0.06776990741491318,
            0.05633712559938431,
            -0.13667745888233185,
            0.02839856781065464,
            -0.06526093930006027,
            -0.34239012002944946,
            0.14524243772029877,
            0.1895180493593216,
            -0.07026781141757965,
            0.08223675191402435,
            -0.23570729792118073,
            0.044857628643512726,
            -0.23910583555698395,
            -0.11389199644327164,
            -0.09512249380350113,
            -0.16555123031139374,
            0.06282513588666916,
            -0.3143741190433502,
            -0.15819202363491058,
            0.1790006160736084,
            -0.05920299515128136,
            -0.0953155979514122,
            -0.27752169966697693,
            -0.5598612427711487,
            -0.46132662892341614,
            0.19985845685005188,
            -0.35236597061157227,
            -0.09517786651849747,
            0.1476338803768158,
            0.14291860163211823,
            1.1106609106063843,
            0.12851548194885254,
            0.17430636286735535,
            0.2913246154785156,
            0.06382711231708527,
            -1.168103814125061,
            -0.14490516483783722,
            -0.04475667327642441,
            0.1069289818406105,
            0.1474129855632782,
            0.4798394441604614,
            1.2675591707229614,
            -0.15154330432415009,
            -0.4639011025428772,
            0.0993351936340332,
            -0.32414498925209045,
            -0.4007803499698639,
            -0.1401892751455307,
            -0.20362913608551025,
            0.2973608374595642,
            0.41124770045280457,
            0.027837714180350304,
            2.2275774478912354,
            -0.12437481433153152,
            0.6982397437095642,
            0.031708505004644394,
            0.27051323652267456,
            -0.003194304183125496,
            -0.20014916360378265,
            0.902787446975708,
            0.3068026006221771,
            0.902927041053772,
            -0.38868439197540283
        ],
        "recWeightHidden": [
            -0.21584683656692505,
            0.3649081289768219,
            -0.0038732655812054873,
            0.1958102434873581,
            0.3962647616863251,
            0.04324425384402275,
            0.4335225522518158,
            0.4344679117202759,
            -0.5125297904014587,
            0.07243101298809052,
            0.385477215051651,
            -0.20587559044361115,
            0.3739389479160309,
            0.9353963732719421,
            0.2957855463027954,
            -1.0285345315933228,
            0.2330995798110962,
            -0.028326716274023056,
            -0.6207587718963623,
            0.35389596223831177,
            0.1642836034297943,
            0.24721725285053253,
            0.4307897388935089,
            0.3562600612640381,
            0.24875524640083313,
            -0.8485450148582458,
            -0.5956541895866394,
            -0.058832596987485886,
            -0.17453807592391968,
            0.6377131938934326,
            0.2750362455844879,
            0.21308135986328125,
            -0.07386863231658936,
            0.002714006695896387,
            0.3441659212112427,
            -0.11446971446275711,
            0.31172847747802734,
            -0.43279263377189636,
            0.13738438487052917,
            -0.03153892233967781,
            -0.015744980424642563,
            0.7014904618263245,
            0.15579527616500854,
            0.3486708402633667,
            -0.36479416489601135,
            0.14509788155555725,
            0.3700477182865143,
            0.0016227049054577947,
            -0.12858350574970245,
            -0.20890343189239502,
            -0.024582363665103912,
            -0.11579675227403641,
            -0.4887078106403351,
            -0.11565430462360382,
            -0.6468231678009033,
            -0.3955211639404297,
            0.14774250984191895,
            -0.11284101009368896,
            0.033633917570114136,
            -0.16863350570201874,
            -0.5046353340148926,
            -1.0559366941452026,
            -0.004964868538081646,
            0.1864597648382187,
            -0.08511345833539963,
            -0.051813237369060516,
            0.06729476153850555,
            -0.18514138460159302,
            -0.27160903811454773,
            -0.15261898934841156,
            -0.19658158719539642,
            -0.35561802983283997,
            0.009915619157254696,
            -0.05655113607645035,
            -0.1315813511610031,
            0.08434955030679703,
            -0.3956010341644287,
            -0.4903196096420288,
            -0.5101619958877563,
            -0.3043370842933655,
            -0.1163393184542656,
            -0.4132632911205292,
            -0.3726489841938019,
            -0.034217528998851776,
            -0.5616623759269714,
            1.3544891771744005e-05,
            -0.01064581610262394,
            -0.028652317821979523,
            -0.11312717199325562,
            -0.6911468505859375,
            -0.4073229134082794,
            -0.36042097210884094,
            -0.07880683988332748,
            -0.20720599591732025,
            0.04082111269235611,
            -0.007735409773886204,
            0.5116048455238342,
            -0.07118706405162811,
            -0.19546207785606384,
            0.25461313128471375,
            -0.06619685143232346,
            0.17827194929122925,
            0.12441150099039078,
            0.17403845489025116,
            -0.15810027718544006,
            -0.17404058575630188,
            0.13630759716033936,
            -0.12852945923805237,
            0.04820869117975235,
            0.015965642407536507,
            0.05917041748762131,
            -0.09955082833766937,
            0.1757906973361969,
            -0.2697051465511322,
            -0.1223822683095932,
            -0.1437925398349762,
            -0.210567444562912,
            -0.11955936253070831,
            0.0924723669886589,
            -0.08212199807167053,
            0.25413498282432556,
            0.008656506426632404,
            -0.07713393121957779,
            0.05905282497406006,
            0.0009749661548994482,
            -0.08262379467487335,
            0.037811633199453354,
            0.1512342095375061,
            0.010697306133806705,
            0.3694210350513458,
            -0.15536744892597198,
            0.04362602159380913,
            0.15381911396980286,
            0.39437809586524963,
            -0.1242920383810997,
            0.2555531859397888,
            -0.15426883101463318,
            -0.11038275063037872,
            -0.015283895656466484,
            -0.022472456097602844,
            0.04471144825220108,
            0.030382025986909866,
            0.18654687702655792,
            -0.17270711064338684,
            -0.13708466291427612,
            0.22279538214206696,
            -0.11776787042617798,
            0.12171736359596252,
            0.0602150522172451,
            0.021636025980114937,
            -0.18793617188930511,
            -0.09161651879549026,
            -0.48080068826675415,
            -0.07020546495914459,
            0.3092678189277649,
            -0.3293198347091675,
            -0.08793094754219055,
            -0.19220323860645294,
            0.18877647817134857,
            -0.38717368245124817,
            0.1252131164073944,
            -0.43792295455932617,
            -0.3500584661960602,
            0.2888632118701935,
            -0.15852788090705872,
            0.11527209728956223,
            0.17634317278862,
            0.007342291064560413,
            0.14295142889022827,
            -0.3790750503540039,
            -0.8455255031585693,
            -0.16289523243904114,
            0.11942476034164429,
            0.134036585688591,
            -0.1195465698838234,
            0.0053553711622953415,
            0.12069391459226608,
            -0.03164743259549141,
            -0.008196765556931496,
            -0.024461235851049423,
            -0.07422146946191788,
            -0.22863027453422546,
            -0.028697816655039787,
            -0.14247439801692963,
            -0.0003973410639446229,
            -0.08451678603887558,
            0.12804719805717468,
            -0.08741062134504318,
            -0.17468754947185516,
            0.14334295690059662,
            0.007409319747239351,
            0.09822489321231842,
            -0.16158916056156158,
            0.03450994938611984,
            0.06196051463484764,
            -0.013191970996558666,
            0.2654730975627899,
            0.28814539313316345,
            0.5278257727622986,
            0.5489774942398071,
            -0.13948100805282593,
            -0.13782307505607605,
            0.11700070649385452,
            -0.03681956231594086,
            0.2972167432308197,
            0.0378919318318367,
            -0.04135800153017044,
            0.036111388355493546,
            -0.008389703929424286,
            0.10781482607126236,
            -0.3333682119846344,
            -0.08624827861785889,
            -0.14315743744373322,
            0.7979437708854675,
            0.2750321924686432,
            0.6047777533531189,
            0.260159432888031,
            -1.1691244840621948,
            -0.6698025465011597,
            -0.2065858244895935,
            0.3733615577220917,
            0.7078046798706055,
            0.17790496349334717,
            0.11527228355407715,
            -0.07018973678350449,
            0.14887410402297974,
            0.5413002967834473,
            -0.12252751737833023,
            0.2436857968568802,
            0.14479893445968628,
            0.22692562639713287,
            0.18449361622333527,
            0.025866463780403137,
            0.37065860629081726,
            0.5873888731002808,
            0.07348775118589401,
            -0.6730870604515076,
            0.24794673919677734,
            0.6880649328231812,
            0.0825195237994194,
            -0.142574742436409,
            0.2062004953622818,
            0.13326779007911682,
            -0.2638550102710724,
            -0.3966701030731201,
            -0.08105907589197159,
            -0.7368599772453308,
            -0.32823291420936584,
            0.0999753326177597,
            0.028525441884994507,
            -0.11159689724445343,
            0.09468268603086472,
            -0.11831900477409363,
            -0.2520572245121002,
            -0.281104177236557,
            -0.048768557608127594,
            0.1712958663702011,
            0.08098986744880676,
            0.21573711931705475,
            -0.2405981719493866,
            -0.30436497926712036,
            -0.2068670690059662,
            -0.03455822169780731,
            -0.059319861233234406,
            0.7705567479133606,
            0.13842415809631348,
            0.2543282210826874,
            1.3007442951202393,
            0.17217028141021729,
            -0.30537059903144836,
            -0.24233229458332062,
            -0.031212342903017998,
            -0.011014330200850964,
            -0.23403634130954742,
            -0.14961014688014984,
            0.18936218321323395,
            -0.15496934950351715,
            -0.31595373153686523,
            -0.0009573071147315204,
            0.07469138503074646,
            0.16778378188610077,
            -0.6209160089492798,
            -0.06281592696905136,
            -0.09488881379365921,
            0.2112039029598236,
            0.20655076205730438,
            0.02207326330244541,
            0.05600828304886818,
            0.5914443731307983,
            -0.25072145462036133,
            0.10955335199832916,
            -0.09515026956796646,
            0.02637549303472042,
            0.27485206723213196,
            0.007196156308054924,
            -0.034519705921411514,
            0.14328633248806,
            -0.3108302056789398,
            0.0013189627788960934,
            -0.2445211112499237,
            -0.1628810167312622,
            0.1698838174343109,
            0.06637243181467056,
            -0.07637716829776764,
            -0.15234100818634033,
            -0.35641705989837646,
            0.17718414962291718,
            0.16921524703502655,
            0.03611614182591438,
            0.2893550992012024,
            0.08643176406621933,
            0.0642126277089119,
            -0.017612235620617867,
            -0.5567535758018494,
            0.2338455617427826,
            0.367810994386673,
            -0.02690732851624489,
            -0.39157524704933167,
            -0.030049555003643036,
            0.24904651939868927,
            -0.02022653818130493,
            0.25304022431373596,
            0.013517109677195549,
            0.08440444618463516,
            0.014746219851076603,
            0.5061116218566895,
            0.27889734506607056,
            -0.22696255147457123,
            -0.33548423647880554,
            -0.0627475380897522,
            -0.25048041343688965,
            0.08036022633314133,
            -0.3176136612892151,
            -0.017757263034582138,
            -0.16704578697681427,
            -0.0010946225374937057,
            0.09486063569784164,
            0.5304050445556641,
            -0.3644998073577881,
            0.05996500700712204,
            0.3494385778903961,
            0.3946186900138855,
            -0.02140682563185692,
            -0.16998809576034546,
            -0.2770402133464813,
            0.17365893721580505,
            -0.40323135256767273,
            0.26941007375717163,
            0.37194281816482544,
            0.29416927695274353,
            -0.024313926696777344,
            0.08609827607870102,
            -0.1496875286102295,
            0.24067676067352295,
            0.8137087225914001,
            0.1422833651304245,
            -0.36315280199050903,
            0.1792186200618744,
            -0.0824412927031517,
            0.23344510793685913,
            0.5945189595222473,
            -0.3332432806491852,
            -0.8350321054458618,
            -0.05739085003733635,
            0.4144763648509979,
            0.27961692214012146,
            -0.25841832160949707,
            0.1310214102268219,
            0.24745114147663116,
            0.37856557965278625,
            0.41945117712020874,
            -0.0903157964348793,
            0.480631947517395,
            0.1556444615125656,
            0.13776779174804688,
            -0.09660257399082184,
            0.07301560044288635,
            0.08195069432258606,
            0.11887777596712112,
            0.22843171656131744,
            -0.43666893243789673,
            0.34395962953567505,
            0.6148605942726135,
            -0.0686388835310936,
            0.19314204156398773,
            -0.4231698513031006,
            0.8065907955169678,
            -0.16882021725177765,
            -0.349033385515213,
            -0.15770290791988373,
            -0.2329622209072113,
            0.13623009622097015,
            0.7803850173950195,
            0.35007205605506897,
            -0.1853857934474945,
            0.1197497621178627,
            -0.2591475248336792,
            -0.8177301287651062,
            -0.043594129383563995,
            0.49276360869407654,
            -0.048530880361795425,
            -0.14920425415039062,
            0.11089776456356049,
            -0.258042573928833,
            0.05664335563778877,
            -0.09552904963493347,
            -0.3497464954853058,
            -0.33125177025794983,
            -0.010939175263047218,
            2.8637712001800537,
            0.3771204948425293,
            -0.3041490316390991,
            -0.18450495600700378,
            -1.0545845031738281,
            0.15995889902114868,
            -0.41013404726982117,
            -0.2637321352958679,
            -0.1433848738670349,
            -0.44437628984451294,
            -0.7220881581306458,
            -0.26540783047676086,
            2.510591983795166,
            -0.581416666507721,
            -0.29796943068504333,
            0.06497431546449661,
            -0.3008154630661011,
            -0.05961110442876816,
            -0.27521803975105286,
            2.9213860034942627,
            0.0425686277449131,
            -0.036369357258081436,
            -0.1402074694633484,
            0.28015023469924927,
            0.18423528969287872,
            0.20271746814250946,
            0.11324374377727509,
            0.40187186002731323,
            0.3434300124645233,
            0.4311237037181854,
            0.335391640663147,
            -1.3641490936279297,
            0.45058053731918335,
            -0.0270468108355999,
            -0.4803401231765747,
            0.20778131484985352,
            0.5665605068206787,
            0.032545410096645355,
            -0.7556334137916565,
            0.10617439448833466,
            0.20990002155303955,
            -0.05946861207485199,
            0.07220011204481125,
            0.35826700925827026,
            0.1236763671040535,
            0.19457821547985077,
            0.3123939633369446,
            0.12423213571310043,
            0.15857790410518646,
            0.014639712870121002,
            -0.0784420371055603,
            -0.05559031292796135,
            0.150215283036232,
            0.19120308756828308,
            0.1916954666376114,
            0.2041054517030716,
            -0.08644821494817734,
            0.17758998274803162,
            0.009766921401023865,
            0.3988722860813141,
            0.14055007696151733,
            -0.24228018522262573,
            -0.03686262667179108,
            -0.20488320291042328,
            0.49859723448753357,
            0.3160746991634369,
            0.14346563816070557,
            -0.09912104159593582,
            0.44392356276512146,
            -0.12111786752939224,
            -0.13641315698623657,
            -0.4848979115486145,
            -0.013696644455194473,
            0.40146201848983765,
            0.014329108409583569,
            -0.0665825828909874,
            -0.13143596053123474,
            -0.21645018458366394,
            0.04021456837654114,
            0.11271798610687256,
            0.06006913632154465,
            0.014266550540924072,
            -0.36976081132888794,
            0.015635626390576363,
            0.22456544637680054,
            0.007731250952929258,
            -0.016900628805160522,
            -0.11569255590438843,
            0.41909053921699524,
            -0.20262935757637024,
            -0.041516996920108795,
            0.0555039681494236,
            -0.20308053493499756,
            0.0327954925596714,
            0.0794006735086441,
            -0.011017168872058392,
            -0.13502897322177887,
            0.08506464213132858,
            -0.09936078637838364,
            0.10704506933689117,
            0.1807245910167694,
            -0.43996068835258484,
            0.010272218845784664,
            0.0664961189031601,
            -0.10719114542007446,
            -0.030221691355109215,
            0.23009715974330902,
            0.05541379004716873,
            -0.367548406124115,
            -0.04721779376268387,
            -0.1265958696603775,
            0.28775253891944885,
            -0.049346715211868286,
            0.0658516138792038,
            -0.029889574274420738,
            0.21978744864463806,
            -0.26014378666877747,
            0.17217543721199036,
            0.08696653693914413,
            0.15312014520168304,
            0.03129308298230171,
            0.11195722222328186,
            0.0532318577170372,
            0.010152515955269337,
            0.16655227541923523,
            0.05210237577557564,
            0.3470788598060608,
            0.9388391375541687,
            -0.020860837772488594,
            0.23071220517158508,
            -0.06176241487264633,
            0.1303628832101822,
            0.06224963814020157,
            0.12603583931922913,
            0.02728275954723358,
            -0.02818349190056324,
            0.16197915375232697,
            0.44615882635116577,
            -0.2703581154346466,
            -0.16509507596492767,
            -0.21997509896755219,
            0.12415079772472382,
            0.07606209069490433,
            0.1808183491230011,
            -0.39535874128341675,
            0.1448637843132019,
            1.2864655256271362,
            -0.14186246693134308,
            -0.3373258113861084,
            -0.18902191519737244,
            -0.1349112093448639,
            -0.11188482493162155,
            -0.3047652840614319,
            0.12973591685295105,
            -0.2655893862247467,
            0.09075679630041122,
            0.3852849304676056,
            0.00030428884201683104,
            -0.2214178442955017,
            -0.24694688618183136,
            0.11171591281890869,
            0.05358248949050903,
            0.3843232989311218,
            -0.15652592480182648,
            0.2661316692829132,
            0.768060564994812,
            -0.21609263122081757,
            -0.16259367763996124,
            0.184042289853096,
            0.08934718370437622,
            -0.04479954391717911,
            0.23907308280467987,
            -0.2388143241405487,
            0.713006854057312,
            0.4152146279811859,
            -0.4621568024158478,
            -0.040593329817056656,
            0.25123223662376404,
            -0.301037460565567,
            0.2593310475349426,
            0.8868950605392456,
            0.18610504269599915,
            0.1308397650718689,
            -0.14300645887851715,
            -0.11184325814247131,
            -0.4130021929740906,
            0.19994372129440308,
            0.06538697332143784,
            0.2636622190475464,
            0.17275114357471466,
            0.11517592519521713,
            -0.2783386707305908,
            -0.2210102677345276,
            -0.32525336742401123,
            0.4108528792858124,
            -0.011309397406876087,
            0.40137165784835815,
            0.061962828040122986,
            0.21209946274757385,
            -0.16158007085323334,
            0.24591420590877533,
            0.2660874128341675,
            -0.1908401995897293,
            0.06292781233787537,
            0.03486872464418411,
            0.0736442431807518,
            0.057327885180711746,
            -0.26656195521354675,
            0.42296674847602844,
            0.1787884682416916,
            -0.11924361437559128,
            -0.42654314637184143,
            0.30850061774253845,
            0.10386452078819275,
            0.08011798560619354,
            -0.2833231985569,
            0.041688114404678345,
            -0.1826024353504181,
            -0.15751954913139343,
            -0.3902614712715149,
            -0.4227297902107239,
            -0.8531777858734131,
            -0.20649288594722748,
            -0.023563271388411522,
            0.027679044753313065,
            -0.30403071641921997,
            -0.04212557151913643,
            -0.31871891021728516,
            -1.1208136081695557,
            -0.12145883589982986,
            0.347139835357666,
            -0.43939274549484253,
            -0.124214768409729,
            -0.17284713685512543,
            -0.16477401554584503,
            0.24778106808662415,
            -0.40473872423171997,
            -0.4970199763774872,
            -0.37837982177734375,
            -0.26923829317092896,
            0.09577805548906326,
            0.14858782291412354,
            0.5089197158813477,
            -0.3462692201137543,
            -0.5213386416435242,
            -0.6046119928359985,
            -0.14805765450000763,
            -0.2814224362373352,
            -0.2949794828891754,
            -0.5736021399497986,
            -0.40523284673690796,
            -0.31407248973846436,
            -0.15539471805095673,
            -0.07721687108278275,
            -0.1585645079612732,
            -0.30518972873687744,
            -0.5798453688621521,
            -0.4434475600719452,
            -0.2709932327270508,
            0.2154063582420349,
            -0.3023597300052643,
            -0.1487884372472763,
            -0.03124251589179039,
            0.2798106372356415,
            0.3830150067806244,
            0.0029362072236835957,
            0.21512116491794586,
            -0.013192311860620975,
            0.06245143711566925,
            -0.025701424106955528,
            0.13073211908340454,
            -0.20405565202236176,
            -0.06741748005151749,
            -0.06157015264034271,
            0.003727335948497057,
            -0.17506591975688934,
            -0.10835890471935272,
            -0.06873376667499542,
            0.0713326707482338,
            0.10636545717716217,
            -0.3095342516899109,
            -0.1321481466293335,
            -0.0799766331911087,
            -0.06595347076654434,
            -0.07376508414745331,
            -0.05691166967153549,
            0.07488126307725906,
            0.09399491548538208,
            0.05188313499093056,
            -0.07623697817325592,
            -0.04769865423440933,
            -0.013608373701572418,
            0.23810520768165588,
            0.10814104229211807,
            -0.2959316372871399,
            0.05013933777809143,
            0.07698759436607361,
            0.051001161336898804,
            -0.041091594845056534,
            0.36099299788475037,
            0.04056420177221298,
            0.048405665904283524,
            0.009696021676063538,
            -0.17255575954914093,
            -0.10782001912593842,
            0.05412369966506958,
            0.0632752850651741,
            -0.04052983224391937,
            -0.12843365967273712,
            0.07981596887111664,
            -0.0014255961868911982,
            -0.04817936569452286,
            0.17219021916389465,
            -0.1978546530008316,
            0.04037170112133026,
            -0.384417325258255,
            -0.15049470961093903,
            -0.062010034918785095,
            -0.022361639887094498,
            -0.33865267038345337,
            0.13271601498126984,
            -0.08075587451457977,
            -0.5144622325897217,
            -0.07651431113481522,
            -0.1631041020154953,
            -0.020134393125772476,
            0.01146482490003109,
            -0.044123996049165726,
            -0.029349150136113167,
            -0.8989999890327454,
            0.11795699596405029,
            -0.15888433158397675,
            -0.28731846809387207,
            -0.013348567299544811,
            -0.12829995155334473,
            -0.2857263386249542,
            -0.8220792412757874,
            -0.38133564591407776,
            -0.4651733934879303,
            -0.08481365442276001,
            -0.10134667158126831,
            -0.35977599024772644,
            0.1795312762260437,
            0.032320357859134674,
            -0.30546244978904724,
            -0.19173724949359894,
            -0.1511651873588562,
            -0.1144181564450264,
            -0.12795408070087433,
            -0.08699826896190643,
            -0.04361290857195854,
            -0.11770335584878922,
            -0.21477246284484863,
            -0.04548956826329231,
            -0.06300823390483856,
            -0.21054679155349731,
            -0.00806465744972229,
            -0.3996250033378601,
            -0.11497693508863449,
            -0.11731715500354767,
            0.12124317139387131,
            0.12000655382871628,
            0.24044187366962433,
            -0.12047887593507767,
            0.07764614373445511,
            0.22291472554206848,
            -0.11085064709186554,
            -0.004013983998447657,
            0.1084313914179802,
            -0.6468770503997803,
            -0.1265406608581543,
            -0.06544098258018494,
            0.1993892341852188,
            0.098481684923172,
            -0.8462013602256775,
            -0.2224603295326233,
            0.005282936617732048,
            -0.29474493861198425,
            -0.42323392629623413,
            0.5798186659812927,
            -0.6889370679855347,
            0.03246743977069855,
            -0.1644260585308075,
            -0.08017334342002869,
            -0.3348521590232849,
            -0.1342448592185974,
            0.683394730091095,
            -0.15188713371753693,
            -0.009759346023201942,
            0.062150973826646805,
            -0.14732490479946136,
            0.276767373085022,
            -0.4445830285549164,
            -0.13854779303073883,
            -0.07033304870128632,
            0.19346021115779877,
            0.07363150268793106,
            -0.1367408037185669,
            -0.09510491788387299,
            0.04654331132769585,
            0.05263751000165939,
            -0.08321933448314667,
            0.15646766126155853,
            0.22530226409435272,
            0.04847235605120659,
            -0.18137408792972565,
            0.033301349729299545,
            -0.0020178158301860094,
            -0.4909704625606537,
            0.08243080973625183,
            0.2535932660102844,
            -0.0002008498995564878,
            -0.009722970426082611,
            -0.41631466150283813,
            -0.020849663764238358,
            -0.15773074328899384,
            0.17807647585868835,
            0.22379150986671448,
            -0.1238197535276413,
            0.05951417610049248,
            0.08814936131238937,
            0.3609780967235565,
            -0.518394947052002,
            -0.2299087792634964,
            -0.08231832087039948,
            -0.22740685939788818,
            -0.29802632331848145,
            -0.04710320010781288,
            -0.02972477301955223,
            0.6740195155143738,
            0.06243576481938362,
            0.052059922367334366,
            0.07618819177150726,
            -0.07799650728702545,
            0.5105870962142944,
            0.11190842092037201,
            -0.12832339107990265,
            -0.08849968016147614,
            -0.15595775842666626,
            0.06709703058004379,
            0.0662277340888977,
            0.24303191900253296,
            0.3369723856449127,
            -0.21554698050022125,
            -0.10738024115562439,
            -0.08167456835508347,
            0.3959866166114807,
            -0.10162897408008575,
            -0.1200885996222496,
            0.08291864395141602,
            -0.06932489573955536,
            -0.006294730585068464,
            0.049994368106126785,
            0.0003468009235803038,
            0.19597314298152924,
            -0.11127013713121414,
            -0.4131912589073181,
            0.04336417093873024,
            -0.30367186665534973,
            0.14307662844657898,
            0.1446741819381714,
            0.07025233656167984,
            0.03287819027900696,
            0.05421273410320282,
            0.05019720643758774,
            0.21874107420444489,
            -0.16127298772335052,
            0.11704299598932266,
            -0.002692517591640353,
            0.1923467069864273,
            0.11630537360906601,
            0.09288477897644043,
            -0.011295508593320847,
            -0.10795916616916656,
            -0.23452243208885193,
            0.17049182951450348,
            -0.04713502153754234,
            -0.3243536055088043,
            -0.3173811733722687,
            0.08712278306484222,
            -0.1338289976119995,
            -0.045686133205890656,
            -0.07060195505619049,
            0.02061377465724945,
            0.0868767648935318,
            -0.068063884973526,
            0.3732892870903015,
            -0.06321496516466141,
            0.16052605211734772,
            -0.2974287271499634,
            0.024859227240085602,
            -0.3962976038455963,
            -0.04084280505776405,
            -0.03305676206946373,
            0.09417326748371124,
            0.01815468817949295,
            0.05768464878201485,
            -0.13414143025875092,
            0.1354922652244568,
            -0.07664351910352707,
            0.053734440356492996,
            0.07007522135972977,
            -0.08817256987094879,
            -0.11203765869140625,
            -0.22184522449970245,
            -0.13073766231536865,
            0.20453889667987823,
            0.22910122573375702,
            -0.039129313081502914,
            -0.04246668890118599,
            -0.061533018946647644,
            -0.03683614730834961,
            0.18695604801177979,
            -0.2540993094444275,
            0.20872806012630463,
            0.08448398113250732,
            0.259902685880661,
            0.20599700510501862,
            -0.5940629243850708,
            -0.3218711018562317,
            -0.12184708565473557,
            -0.06371453404426575,
            -0.3293129801750183,
            0.29763275384902954,
            -0.1106637492775917,
            0.3878360092639923,
            -0.005760240368545055,
            -0.06343135982751846,
            0.572946310043335,
            -0.6631819009780884,
            0.6179707050323486,
            0.010316679254174232,
            0.19396176934242249,
            -0.21909360587596893,
            0.0909145325422287,
            0.23608340322971344,
            -0.30076050758361816,
            0.1048806756734848,
            -0.2405671924352646,
            -0.0059172785840928555,
            0.14849555492401123,
            -0.1743481159210205,
            0.09830103814601898,
            -0.03501034900546074,
            0.09993501752614975,
            -0.029536236077547073,
            -0.19878503680229187,
            -0.042999930679798126,
            0.019265079870820045,
            0.11594698578119278,
            0.2733968198299408,
            0.15639980137348175,
            0.1646958887577057,
            0.5129480957984924,
            0.2666599750518799,
            -0.29950931668281555,
            0.3623002767562866,
            0.5390857458114624,
            0.6831427812576294,
            -0.5305061340332031,
            -0.03632823005318642,
            0.13595914840698242,
            -0.1749332696199417,
            0.1816798746585846,
            0.1265651434659958,
            0.6600322723388672,
            -0.06523030996322632,
            0.005033251829445362,
            0.2816038131713867,
            0.4071308970451355,
            -0.09724292904138565,
            0.09979712963104248,
            -0.15476854145526886,
            -0.025332145392894745,
            0.2707838714122772,
            0.10139481723308563,
            -0.22735929489135742,
            0.2679505944252014,
            0.3628099858760834,
            0.24089382588863373,
            0.17709265649318695,
            0.6484974026679993,
            0.39948633313179016,
            0.17867112159729004,
            -0.24989481270313263,
            -0.24161742627620697,
            0.5172178745269775,
            0.07998251169919968,
            -1.379316806793213,
            0.09079556912183762,
            -0.04654504731297493,
            0.13215947151184082,
            0.7820164561271667,
            -0.25581440329551697,
            0.4002801179885864,
            0.06676623970270157,
            0.023794451728463173,
            0.6067779660224915,
            0.2102304846048355,
            -0.09779808670282364,
            -0.21023359894752502,
            -0.3826909363269806,
            0.05518023297190666,
            -0.018970033153891563,
            0.05600608512759209,
            -0.8717922568321228,
            -0.3576829433441162,
            0.22049479186534882,
            0.006711429916322231,
            0.8044934868812561,
            -0.016970496624708176,
            -0.3826580047607422,
            -0.9377579092979431,
            0.19096116721630096,
            0.12295546382665634,
            -0.052133940160274506,
            -0.07323950529098511,
            -0.035212282091379166,
            -0.4041668474674225,
            -0.07929549366235733,
            0.28477224707603455,
            0.30213016271591187,
            -0.013475042767822742,
            -0.2745792269706726,
            -0.4458949565887451,
            0.13780024647712708,
            -0.0701790377497673,
            -0.01721840165555477,
            0.0049887653440237045,
            0.17007838189601898,
            -0.14230242371559143,
            -0.1831578016281128,
            -0.10359368473291397,
            -0.38577428460121155,
            0.3745215833187103,
            -0.15199406445026398,
            -0.1379714012145996,
            0.07906394451856613,
            0.12560662627220154,
            0.05451712757349014,
            -0.48910754919052124,
            0.0678677037358284,
            0.05343538895249367,
            -0.09330441057682037,
            -0.27194976806640625,
            0.08683820813894272,
            0.059755004942417145,
            0.31045281887054443,
            -0.29883691668510437,
            -0.09794441610574722,
            0.0031497557647526264,
            0.3835159242153168,
            -0.342164546251297,
            0.21458034217357635,
            -0.11118977516889572,
            0.09005483239889145,
            -0.7885603904724121,
            -0.01820417307317257,
            -0.19948220252990723,
            0.13874396681785583,
            -0.4659861922264099,
            0.46295011043548584,
            -0.12895725667476654,
            0.14191541075706482,
            -0.27017444372177124,
            -0.05213514342904091,
            0.1584528088569641,
            -0.13615034520626068,
            -0.27623721957206726,
            0.005126866512000561,
            0.0610283762216568,
            -0.1545175015926361,
            0.14973843097686768,
            -0.2941845655441284,
            -0.06792768836021423,
            -0.6197363138198853,
            0.11777538061141968,
            0.17656496167182922,
            0.07460678368806839,
            0.31573575735092163,
            0.04696749895811081,
            -0.14715546369552612,
            -0.06355974823236465,
            -0.08249753713607788,
            0.6778385043144226,
            0.05444202944636345,
            -0.11073411256074905,
            -0.20192235708236694,
            0.14402681589126587,
            -0.0870559960603714,
            -0.0656730905175209,
            -0.04092022404074669,
            0.15681041777133942,
            -0.13539986312389374,
            0.151722714304924,
            0.03694973513484001,
            -0.32044705748558044,
            0.09202182292938232,
            0.2149515151977539,
            0.4298112094402313,
            -0.18005478382110596,
            0.20035384595394135,
            -0.14017094671726227,
            -0.00657774368301034,
            -0.14754486083984375,
            1.14950692653656,
            0.020490240305662155,
            -0.3802197277545929,
            0.8370758891105652,
            0.5168532729148865,
            0.949828028678894,
            -0.21991242468357086,
            -0.10162514448165894,
            0.8452752828598022,
            -0.10458993911743164,
            0.19926483929157257,
            0.42900270223617554,
            0.0990118607878685,
            -0.06649042665958405,
            -0.05398660525679588,
            -0.20657235383987427,
            -0.1850317120552063,
            -0.24454613029956818,
            -0.07310136407613754,
            0.24069161713123322,
            -0.48794347047805786,
            0.19425606727600098,
            0.49584466218948364,
            -0.06865528970956802,
            -0.16654978692531586,
            -0.132568821310997,
            -0.1336771696805954,
            -0.22411969304084778,
            0.17727471888065338,
            0.08410924673080444,
            0.08848431706428528,
            0.2511729598045349,
            0.07607658952474594,
            -0.179017573595047,
            0.25410476326942444,
            0.2661353349685669,
            -0.21321867406368256,
            -0.12380199134349823,
            -0.032022953033447266,
            0.00401031831279397,
            -0.46590524911880493,
            0.239652618765831,
            0.21008868515491486,
            0.055088482797145844,
            0.19137433171272278,
            0.2947964668273926,
            0.33930689096450806,
            0.5243951082229614,
            0.0009736836072988808,
            -0.7715312242507935,
            0.23161454498767853,
            0.5903535485267639,
            0.21740995347499847,
            -0.42040935158729553,
            -0.21752703189849854,
            0.5830086469650269,
            0.7880047559738159,
            -0.01793276146054268,
            0.3157786726951599,
            0.3997836709022522,
            0.24798861145973206,
            0.10402843356132507,
            -0.29666200280189514,
            1.349787712097168,
            0.7889835238456726,
            0.46506765484809875,
            -0.05960918962955475,
            0.17701415717601776,
            0.38619354367256165,
            -0.17520028352737427,
            0.2781916856765747,
            0.34849557280540466,
            0.3497537076473236,
            -0.21480780839920044,
            0.13113732635974884,
            0.45294541120529175,
            0.35807546973228455,
            0.0468745119869709,
            0.4172881841659546,
            -0.3392598628997803,
            0.09213493019342422,
            0.02097662165760994,
            0.5221396684646606,
            0.008363806642591953,
            0.10998282581567764,
            0.32699206471443176,
            -0.17152895033359528,
            0.22728201746940613,
            -0.026506438851356506,
            -0.026311928406357765,
            -0.11640635877847672,
            0.1289435625076294,
            0.3975827097892761,
            0.12606526911258698,
            -0.46065735816955566,
            0.12329340726137161,
            -0.37568312883377075,
            -0.20291899144649506,
            -0.08521774411201477,
            -0.531863272190094,
            0.3451557755470276,
            -0.7290328741073608,
            -0.6884198784828186,
            0.4294455647468567,
            0.6335170865058899,
            -0.19182956218719482,
            0.1364952027797699,
            -0.2135653793811798,
            -0.12593570351600647,
            -0.04821223393082619,
            -1.3256664276123047,
            0.21007975935935974,
            0.10338685661554337,
            0.2600475549697876,
            -0.3980586528778076,
            0.344282329082489,
            -0.05875294655561447,
            -0.3324422538280487,
            -0.07283630967140198,
            -0.30673983693122864,
            -0.262966513633728,
            0.6888245940208435,
            0.07251029461622238,
            -0.2327185720205307,
            -0.04587910696864128,
            0.3432079255580902,
            0.6240418553352356,
            -0.6155369281768799,
            -0.03370660915970802,
            -0.09514676779508591,
            -0.3333228528499603,
            -0.18021659553050995,
            0.24568016827106476,
            -0.0428381972014904,
            0.3524274230003357,
            -0.1229887455701828,
            -0.057473666965961456,
            -0.14796535670757294,
            0.04708792269229889,
            0.2081640511751175,
            0.32485905289649963,
            0.30686765909194946,
            -0.008862328715622425,
            -0.3099888861179352,
            0.09534931182861328,
            0.07840108871459961,
            0.04311855882406235,
            -0.10624498873949051,
            0.0008021898684091866,
            0.13110384345054626,
            0.2471984177827835,
            0.21810343861579895,
            0.0753093734383583,
            -0.28344985842704773,
            0.13826169073581696,
            0.3115547001361847,
            -0.14626489579677582,
            -0.11251093447208405,
            -0.2308119833469391,
            -0.31085509061813354,
            -0.2903466522693634,
            0.053889334201812744,
            -0.22347111999988556,
            -0.17352120578289032,
            -0.652346134185791,
            0.060545168817043304,
            0.21139772236347198,
            0.09733171761035919,
            0.06593572348356247,
            -0.2163524627685547,
            -0.09308735281229019,
            -0.053350843489170074,
            -0.39456549286842346,
            -0.09198494255542755,
            0.09485447406768799,
            0.9302710294723511,
            -0.048524390906095505,
            0.1423225998878479,
            -0.1712847203016281,
            0.19898481667041779,
            -0.0659305527806282,
            0.12891563773155212,
            -0.043209269642829895,
            -0.0642394870519638,
            0.37355664372444153,
            0.009246240369975567,
            0.08101451396942139,
            -0.02328299544751644,
            0.055782679468393326,
            0.047206997871398926,
            0.1309911161661148,
            0.015019066631793976,
            -0.5252441167831421,
            -0.6162163615226746,
            0.10666636377573013,
            -0.3659570515155792,
            0.10494566708803177,
            0.042142655700445175,
            -0.37825503945350647,
            0.4627422094345093,
            0.9460968971252441,
            0.02163376472890377,
            0.534159779548645,
            0.11271636933088303,
            0.014776608906686306,
            0.05521990731358528,
            -0.6891191601753235,
            0.08224695920944214,
            0.021281283348798752,
            0.42887189984321594,
            -0.4088704586029053,
            0.3673976957798004,
            -0.9161614179611206,
            -0.1354430615901947,
            0.21960043907165527,
            -0.2215469479560852,
            -0.10261517018079758,
            0.04513370618224144,
            -0.10237110406160355,
            0.37327441573143005,
            0.4990723729133606,
            -0.16614031791687012,
            0.2960588335990906,
            -0.5559132099151611,
            0.06204472482204437,
            0.2978675663471222,
            1.0052576065063477,
            -0.10047151893377304,
            0.6325095295906067,
            0.11029856652021408,
            -0.35158005356788635,
            -0.40204182267189026,
            -0.7353630661964417,
            -0.2187204360961914,
            -0.10555794090032578,
            -0.2730571925640106,
            -0.34777307510375977,
            -0.7899445295333862,
            -0.45563098788261414,
            0.2603113353252411,
            0.21342036128044128,
            0.15904249250888824,
            -0.14016397297382355,
            -0.3016074299812317,
            -0.09789153188467026,
            0.4361863434314728,
            -0.004931487143039703,
            0.07222148030996323,
            0.8181106448173523,
            -0.5329640507698059,
            0.34655120968818665,
            -0.3562551438808441,
            -0.2918817698955536,
            -0.37878382205963135,
            -0.17574305832386017,
            1.1325948238372803,
            -0.7023664712905884,
            -0.7937926650047302,
            -0.4805493652820587,
            0.1801212877035141,
            -0.22320091724395752,
            -0.23069922626018524,
            -0.2733963429927826,
            -0.4015120267868042,
            -0.3003976345062256,
            -0.31664347648620605,
            -0.14093609154224396,
            -0.8956702947616577,
            -0.47556981444358826,
            -0.3912464380264282,
            -0.18448200821876526,
            -0.08659134060144424,
            -0.035998713225126266,
            -0.4645080864429474,
            0.5650991797447205,
            -0.057810455560684204,
            0.028305502608418465,
            -0.08453039079904556,
            -0.26128995418548584,
            -0.2788553237915039,
            -0.12080726772546768,
            0.02909192629158497,
            0.13095511496067047,
            -0.1800920069217682,
            0.9436830282211304,
            0.07387474924325943,
            -0.2509242296218872,
            0.324566125869751,
            -0.015145818702876568,
            0.30338335037231445,
            -0.018787618726491928,
            -0.03331591561436653,
            -0.11530798673629761,
            -0.4896705150604248,
            0.400976300239563,
            0.19419316947460175,
            0.023744279518723488,
            -0.29888033866882324,
            0.5011465549468994,
            -0.14177565276622772,
            0.05008860304951668,
            -0.3479825556278229,
            0.110713429749012,
            0.8087479472160339,
            0.1754264533519745,
            0.6506383419036865,
            -0.22053472697734833,
            0.26051366329193115,
            0.5830454230308533,
            -0.36572980880737305,
            0.03568984940648079,
            -0.09274442493915558,
            0.04506891593337059,
            0.5981626510620117,
            0.22292229533195496,
            -0.05740022286772728,
            -0.4549879729747772,
            0.15349425375461578,
            -0.19026872515678406,
            0.9241100549697876,
            0.34847185015678406,
            -0.007017726544290781,
            0.38658931851387024,
            0.07203296571969986,
            0.38782230019569397,
            0.29806873202323914,
            -0.3169151842594147,
            0.3066115975379944,
            0.10090819746255875,
            -0.0021561577450484037,
            -0.07209175825119019,
            -0.09879373013973236,
            -0.34127092361450195,
            -0.08996815234422684,
            0.28487977385520935,
            -0.33378076553344727,
            -0.09409892559051514,
            -0.1600302755832672,
            -0.054561812430620193,
            -0.22216135263442993,
            0.022540276870131493,
            -0.2555609941482544,
            0.12252646684646606,
            0.5548824071884155,
            -0.037135086953639984,
            0.35382118821144104,
            0.30285197496414185,
            -0.24682748317718506,
            -0.01831391081213951,
            0.09992041438817978,
            -0.17900539934635162,
            -0.020363548770546913,
            -0.008984873071312904,
            0.3190361559391022,
            0.6142697334289551,
            0.16017621755599976,
            -0.3438921272754669,
            0.5829906463623047,
            0.03176578879356384,
            0.03198448568582535,
            0.0069783711805939674,
            -0.49319201707839966,
            0.023536663502454758,
            -0.22655954957008362,
            -0.021791260689496994,
            -0.10535600036382675,
            0.09742658585309982,
            0.03722795471549034,
            0.15997762978076935,
            0.5561087131500244,
            0.20627251267433167,
            0.09268948435783386,
            -0.7935493588447571,
            -0.22101637721061707,
            -0.17394189536571503,
            0.04231059551239014,
            0.10987620800733566,
            -0.14788392186164856,
            0.17900989949703217,
            -0.4515727758407593,
            0.3335056006908417,
            -0.36267217993736267,
            1.1186379194259644,
            0.33797913789749146,
            0.19008786976337433,
            0.03868629410862923,
            -0.19237568974494934,
            0.8017845749855042,
            -0.6267531514167786,
            0.09650339186191559,
            -0.41586539149284363,
            0.3784361779689789,
            0.42556068301200867,
            -0.32686761021614075,
            -0.01867905631661415,
            -0.2977031171321869,
            -0.09341979771852493,
            0.258125901222229,
            0.34598323702812195,
            0.5880510807037354,
            -0.7801558375358582,
            -0.13553236424922943,
            -0.32030409574508667,
            0.3102010488510132,
            0.28435248136520386,
            -0.36935076117515564,
            -0.21298973262310028,
            -0.20988290011882782,
            -0.0734945610165596,
            0.4221595823764801,
            -0.07034946233034134,
            -0.6089014410972595,
            -0.11972483992576599,
            -0.5200130343437195,
            -0.04560225084424019,
            0.13219411671161652,
            0.3406184911727905,
            -0.13408949971199036,
            0.38435184955596924,
            -0.03968198969960213,
            0.4718622863292694,
            0.2290472388267517,
            0.3376082181930542,
            0.009894288145005703,
            0.1780761480331421,
            0.0587640143930912,
            -0.25250086188316345,
            0.038091856986284256,
            -0.4329715371131897,
            -0.032942842692136765,
            0.1963919848203659,
            0.4146538972854614,
            -0.13610512018203735,
            0.3041065037250519,
            -0.23348160088062286,
            -0.35209348797798157,
            -0.07272331416606903,
            0.2749136984348297,
            -0.28832152485847473,
            0.20127303898334503,
            0.39419057965278625,
            -0.3158290982246399,
            -0.7186094522476196,
            -0.6892697811126709,
            -0.3581620156764984,
            -0.06900205463171005,
            0.27808132767677307,
            0.7143436670303345,
            0.2515867352485657,
            2.149498224258423,
            0.0029630924109369516,
            -0.580790102481842,
            -0.19918327033519745,
            -0.03715551644563675,
            -0.07406256347894669,
            -0.23748567700386047,
            -0.5602075457572937,
            -0.3547295928001404,
            -0.2966858744621277,
            1.5090765953063965,
            0.286356657743454,
            0.004868791438639164,
            -0.058435872197151184,
            -0.6973541378974915,
            -0.566094696521759,
            0.4641492962837219,
            1.431683897972107,
            -0.13970975577831268,
            0.5863162279129028,
            -0.08827020972967148,
            0.1624513566493988,
            0.08989158272743225,
            0.31033340096473694,
            0.06578192114830017,
            0.3912070691585541,
            0.772684633731842,
            0.44972720742225647,
            -0.038389645516872406,
            -0.12477480620145798,
            0.3487292230129242,
            0.16140016913414001,
            0.3156975507736206,
            0.30543431639671326,
            0.7742403745651245,
            0.23812474310398102,
            0.4082920253276825,
            -0.12127372622489929,
            0.17667578160762787,
            -0.11841310560703278,
            0.22531627118587494,
            -0.34994733333587646,
            0.3270971179008484,
            0.27043458819389343,
            0.23622772097587585,
            0.31364983320236206,
            -0.08621250092983246,
            -0.11798565834760666,
            0.8841508626937866,
            0.2910987138748169,
            0.6366416811943054,
            -0.025688007473945618,
            0.28690558671951294,
            0.12567268311977386,
            0.438260942697525,
            0.43998751044273376,
            0.22140221297740936,
            0.3172106146812439,
            -0.5360099077224731,
            0.22055567800998688,
            -0.113572858273983,
            -0.17722094058990479,
            -0.009109013713896275,
            0.2930822968482971,
            0.6760992407798767,
            0.5878381729125977,
            0.20899061858654022,
            -0.1643567830324173,
            -0.19165027141571045,
            -0.28249216079711914,
            0.06402260810136795,
            0.4057620167732239,
            -0.10170058161020279,
            -0.21979205310344696,
            0.046238090842962265,
            -0.08892303705215454,
            0.20614035427570343,
            -0.5036662817001343,
            0.3268047273159027,
            -0.11498160660266876,
            -0.1316009908914566,
            -0.014370433986186981,
            -0.10613882541656494,
            -0.14045585691928864,
            -0.05716564133763313,
            -0.07351609319448471,
            0.09627076983451843,
            -0.18582217395305634,
            0.027893058955669403,
            -0.41751396656036377,
            0.14767783880233765,
            0.15817181766033173,
            0.03598487004637718,
            -0.05209754779934883,
            -0.1967131793498993,
            -0.04185646399855614,
            -0.32635098695755005,
            -0.061115775257349014,
            0.24214565753936768,
            0.6394962668418884,
            -0.19568265974521637,
            0.05814620107412338,
            -0.06717772781848907,
            0.07434402406215668,
            0.26947951316833496,
            0.061460286378860474,
            -0.5671022534370422,
            0.31852540373802185,
            -0.13351622223854065,
            -0.004040883854031563,
            -0.09076721966266632,
            0.013777030631899834,
            -0.34282222390174866,
            0.03133462369441986,
            -0.2724476754665375,
            -0.6365484595298767,
            0.0793081521987915,
            0.0368267297744751,
            0.0866667777299881,
            0.39656075835227966,
            -0.08795924484729767,
            0.3067891001701355,
            -0.5334154963493347,
            0.2014060914516449,
            0.2558164894580841,
            0.30388033390045166,
            0.5061054825782776,
            0.12373390793800354,
            0.4043683707714081,
            0.08461348712444305,
            0.22279652953147888,
            0.5783059000968933,
            1.12022066116333,
            0.030450740829110146,
            0.13546520471572876,
            0.8505613803863525,
            -0.28945091366767883,
            -0.7138424515724182,
            0.30649954080581665,
            0.18193787336349487,
            0.06547363102436066,
            0.47152888774871826,
            2.1770217418670654,
            0.9518756866455078,
            0.47489306330680847,
            -0.11754495650529861,
            -0.0044421241618692875,
            -0.27058953046798706,
            0.03811683878302574,
            0.1311538815498352,
            0.08708445727825165,
            0.2680644989013672,
            -1.041732668876648,
            0.07531516253948212,
            -0.09718102961778641,
            0.1717667281627655,
            -0.10459239780902863,
            -0.18274997174739838,
            -0.545578122138977,
            0.1247929111123085,
            -0.41340216994285583,
            2.5935914516448975,
            0.07718533277511597,
            0.8148661255836487,
            -0.13429677486419678,
            0.018319303169846535,
            -0.14147347211837769,
            0.9713309407234192,
            0.20960253477096558,
            -0.33738982677459717,
            -0.22097687423229218,
            -0.6317996382713318,
            -0.17281845211982727,
            0.9338107705116272,
            0.5611802339553833,
            -0.1306348592042923,
            0.00031032535480335355,
            -0.2487349808216095,
            -0.604206383228302,
            -0.27176588773727417,
            0.4574407637119293,
            0.042841002345085144,
            -0.2488064467906952,
            0.10905095189809799,
            -0.15184347331523895,
            0.16522476077079773,
            0.009860039688646793,
            -0.13496418297290802,
            -0.3932226002216339,
            -0.11268841475248337,
            1.8035938739776611,
            -0.30701637268066406,
            -0.5475415587425232,
            -0.07010610401630402,
            -0.9614235162734985,
            0.16894593834877014,
            -0.31599992513656616,
            -0.14537015557289124,
            -0.15156739950180054,
            -0.10876725614070892,
            -0.35524001717567444,
            -0.2034517228603363,
            2.2514028549194336,
            -0.6122328042984009,
            -0.6991541981697083,
            -0.08797536790370941,
            -0.6866721510887146,
            -0.4374707043170929,
            -0.004522126168012619,
            5.6085028648376465,
            -0.0590568408370018,
            -0.5348379015922546,
            -0.2600088119506836,
            0.13877524435520172,
            0.10124923288822174,
            0.10965701192617416,
            0.25190773606300354,
            0.17145796120166779,
            0.12565934658050537,
            0.6539165377616882,
            0.35400769114494324,
            -1.280093789100647,
            0.22039981186389923,
            -0.07437802851200104,
            -0.423801451921463,
            0.21138311922550201,
            1.0919157266616821,
            0.03889624401926994,
            -0.4654029309749603,
            0.4811200499534607,
            0.10701663047075272,
            -0.2598244249820709,
            0.37842249870300293,
            0.13944803178310394,
            0.3622373938560486,
            0.20492224395275116,
            0.13516190648078918,
            0.10241928696632385,
            -0.4532938599586487,
            -0.3179960250854492,
            -0.579431414604187,
            0.13626831769943237,
            1.02965247631073,
            0.6046836972236633,
            0.23238348960876465,
            0.25638943910598755,
            0.273392915725708,
            0.36989468336105347,
            0.12635965645313263,
            0.5340335965156555,
            0.13960525393486023,
            -0.25668302178382874,
            -0.3581916391849518,
            -0.21560832858085632,
            0.5952914953231812,
            0.23866470158100128,
            0.16715924441814423,
            -0.3479006886482239,
            0.25872889161109924,
            0.05410418659448624,
            -0.22568386793136597,
            -0.22211186587810516,
            0.05699077621102333,
            0.4649144411087036,
            -0.12171780318021774,
            -0.005193551070988178,
            0.2570013999938965,
            -0.18807029724121094,
            -0.392644464969635,
            -0.3665596544742584,
            0.04897356033325195,
            -0.10835257172584534,
            0.3238169848918915,
            -0.022686483338475227,
            0.1979973167181015,
            0.15727408230304718,
            0.45104366540908813,
            -0.003719964297488332,
            0.317984014749527,
            0.1458452194929123,
            -0.22656622529029846,
            0.22707846760749817,
            -0.26809123158454895,
            -0.030378729104995728,
            0.11519666016101837,
            -0.07966936379671097,
            -0.16255104541778564,
            -0.03697456791996956,
            -0.1553620845079422,
            -0.5596208572387695,
            -0.22579677402973175,
            -0.14076398313045502,
            -0.2109169214963913,
            0.0037265848368406296,
            -0.22027528285980225,
            0.0742100179195404,
            0.11321315914392471,
            0.14200210571289062,
            -0.6919193267822266,
            -0.13810761272907257,
            0.10407764464616776,
            0.38833844661712646,
            -0.18031024932861328,
            0.03135739266872406,
            0.10186371952295303,
            0.29655739665031433,
            0.2585027515888214,
            0.16655956208705902,
            0.13327723741531372,
            -0.09159023314714432,
            -0.22275014221668243,
            -0.6137820482254028,
            0.06623811274766922,
            -0.1181289479136467,
            0.15753118693828583,
            0.02667398564517498,
            0.06630951166152954,
            0.6736623644828796,
            0.012426136992871761,
            -0.09901061654090881,
            -0.076813705265522,
            -0.08893632143735886,
            0.41927480697631836,
            -0.08741602301597595,
            0.03657679632306099,
            0.20593303442001343,
            -0.10528408735990524,
            -0.46488437056541443,
            -0.207199826836586,
            0.21944892406463623,
            -0.22841426730155945,
            0.2679513096809387,
            -0.07242189347743988,
            -0.2556191384792328,
            -0.894859254360199,
            0.1969997137784958,
            0.4939196705818176,
            0.13391847908496857,
            0.1875005066394806,
            0.44064822793006897,
            0.09294493496417999,
            -0.29294106364250183,
            0.05147711932659149,
            0.09091171622276306,
            0.7926248908042908,
            -0.03333010524511337,
            -1.039650797843933,
            -0.32751819491386414,
            -0.7279627323150635,
            -0.14995695650577545,
            0.05758640170097351,
            -0.14121824502944946,
            0.3229140341281891,
            -0.5434947609901428,
            -0.2118253856897354,
            -0.11949832737445831,
            -0.0061105904169380665,
            0.1087542474269867,
            0.7561649084091187,
            0.01147731114178896,
            0.12426255643367767,
            -0.09415696561336517,
            0.40408986806869507,
            -0.3031577467918396,
            0.003459206083789468,
            0.7337445020675659,
            0.11820851266384125,
            -0.2014123499393463,
            0.784112274646759,
            0.3628430962562561,
            -0.0909886434674263,
            -0.4584291875362396,
            -0.3576543629169464,
            0.5541130900382996,
            -0.2433699518442154,
            -0.7928589582443237,
            0.015153107233345509,
            0.648938775062561,
            0.3507107198238373,
            -0.3538219928741455,
            -0.16301527619361877,
            -0.019552793353796005,
            0.21777358651161194,
            -0.719950258731842,
            0.292044997215271,
            -0.2153770476579666,
            -0.5100553035736084,
            -0.07860521972179413,
            -0.16338574886322021,
            0.005655590910464525,
            -0.17472773790359497,
            0.5032069683074951,
            -0.04000796005129814,
            0.04565117880702019,
            -0.023985739797353745,
            0.45609742403030396,
            0.2291109412908554,
            0.883097231388092,
            0.012491782195866108,
            0.2693922221660614,
            1.060640573501587,
            -0.4052693247795105,
            -0.39991486072540283,
            -0.1642349660396576,
            -0.836658239364624,
            0.2642538547515869,
            -0.02036387287080288,
            0.14155347645282745,
            0.28462380170822144,
            -0.16898633539676666,
            -0.19350594282150269,
            0.8918548226356506,
            0.2941405475139618,
            0.553659200668335,
            0.6329112648963928,
            0.13816730678081512,
            0.41162919998168945,
            0.001413883757777512,
            -0.7756221294403076,
            -0.5898128747940063,
            0.5569580793380737,
            1.0303301811218262,
            0.15876726806163788,
            -0.35444554686546326,
            0.2322743982076645,
            0.007997289299964905,
            0.36184564232826233,
            -0.02077205292880535,
            0.5587606430053711,
            0.5950037240982056,
            -0.4231363534927368,
            -0.8457138538360596,
            1.0811281204223633,
            0.23830173909664154,
            0.7763317823410034,
            -0.2743421792984009,
            -0.22238615155220032,
            -0.12245946377515793,
            0.8155947327613831,
            0.3075866401195526,
            -0.1765541285276413,
            -0.25050443410873413,
            -0.36226800084114075,
            0.5510860681533813,
            -0.23784391582012177,
            0.7480050325393677,
            0.12612120807170868,
            0.20393317937850952,
            0.47776731848716736,
            -0.9576576352119446,
            -0.2430383861064911,
            0.15530486404895782,
            -0.28115856647491455,
            -0.2593095004558563,
            -0.016114475205540657,
            0.33434510231018066,
            -0.04513731971383095,
            0.009989876300096512,
            -0.2840974032878876,
            0.01360751036554575,
            0.12964390218257904,
            0.35779690742492676,
            0.5354812145233154,
            -0.07900526374578476,
            0.016396954655647278,
            0.003187726018950343,
            0.2605963945388794,
            -0.2839448153972626,
            0.3025490641593933,
            0.6126855611801147,
            0.7382100820541382,
            -0.03614555671811104,
            -0.06977564841508865,
            0.03761040419340134,
            0.4515579044818878,
            0.03674750030040741,
            -0.15053218603134155,
            0.09214621037244797,
            1.518778681755066,
            -0.45739105343818665,
            0.42999857664108276,
            -0.09806501120328903,
            -0.2231389433145523,
            0.15466530621051788,
            0.364431232213974,
            0.11698662489652634,
            0.1335296630859375,
            -0.07076910138130188,
            -0.1643422693014145,
            -0.39561671018600464,
            -0.33529365062713623,
            -0.15616442263126373,
            -0.5095146894454956,
            0.20205044746398926,
            0.20813994109630585,
            0.028655966743826866,
            -0.29160308837890625,
            0.5915370583534241,
            -0.1256874054670334,
            -0.08830765634775162,
            0.2718731462955475,
            -0.04245024546980858,
            1.1887696981430054,
            -0.25192689895629883,
            -0.15548279881477356,
            -0.013069728389382362,
            0.0174704659730196,
            0.34341415762901306,
            0.613145649433136,
            0.6995282173156738,
            0.6327173709869385,
            0.3635115921497345,
            0.541913628578186,
            0.2990051209926605,
            0.035664740949869156,
            -0.7966082692146301,
            -0.19028650224208832,
            0.6895264387130737,
            0.02784791775047779,
            -0.006168655585497618,
            0.21529853343963623,
            0.19822141528129578,
            -0.1862318068742752,
            0.03340417891740799,
            0.29492199420928955,
            0.5064991116523743,
            -0.841318666934967,
            -0.7915686368942261,
            0.7998865842819214,
            0.3637164831161499,
            -0.3074761629104614,
            -0.39400991797447205,
            -0.2229006141424179,
            0.05433410406112671,
            0.7424483895301819,
            0.49641749262809753,
            -0.10237015038728714,
            0.18096451461315155,
            0.8730731010437012,
            0.2436961680650711,
            -0.3675899803638458,
            -0.03206254914402962,
            0.6699002981185913,
            0.24023136496543884,
            0.8164793848991394,
            -0.27711665630340576,
            0.2263430505990982,
            0.5904532074928284,
            -0.6542795300483704,
            -0.00644560344517231,
            -0.1114930808544159,
            -0.20795489847660065,
            -0.16511760652065277,
            -0.19686982035636902,
            -0.36862799525260925,
            -0.746642529964447,
            -0.6190215349197388,
            0.18892139196395874,
            -0.44691434502601624,
            0.0349111445248127,
            0.07829131186008453,
            -0.4639750123023987,
            -0.48616987466812134,
            0.0955481082201004,
            0.4596753418445587,
            -0.08594949543476105,
            0.11536598950624466,
            0.15615400671958923,
            -0.0841667503118515,
            -0.39024513959884644,
            -0.2111508995294571,
            -0.2515539228916168,
            -0.20232419669628143,
            -0.1784837245941162,
            0.3198128342628479,
            0.08402572572231293,
            -0.4262915551662445,
            -0.20056553184986115,
            -0.3699744939804077,
            -0.4280202090740204,
            -0.08389650285243988,
            -0.09794902056455612,
            -0.27452653646469116,
            -0.3112333416938782,
            0.34536606073379517,
            -0.3530764579772949,
            -0.1899406760931015,
            0.2376183718442917,
            0.2943061590194702,
            -0.2959955930709839,
            -0.5057940483093262,
            -0.27935874462127686,
            -0.68214350938797,
            -0.2793108820915222,
            -0.260100781917572,
            -0.1531938910484314,
            0.05399712547659874,
            0.0818495899438858,
            0.6523824334144592,
            0.014420834369957447,
            -0.11599346250295639,
            0.4916438162326813,
            0.24191603064537048,
            0.4921427071094513,
            0.03819553926587105,
            0.2910294532775879,
            -0.4174853563308716,
            -0.009038952179253101,
            -0.2176777720451355,
            0.39810100197792053,
            0.9190627932548523,
            0.2933981120586395,
            -0.3036606013774872,
            0.24550761282444,
            -0.1401887834072113,
            0.13793964684009552,
            0.4994586110115051,
            0.051152851432561874,
            -0.15644800662994385,
            0.29523152112960815,
            0.26171085238456726,
            -0.021486541256308556,
            0.14601390063762665,
            0.0354711152613163,
            -0.2144985944032669,
