{
    "preamp": {
        "linWeight": [
            0.16045300662517548,
            0.1702379584312439,
            -0.31723159551620483,
            0.02354699932038784,
            -0.052446529269218445,
            -0.20777519047260284,
            0.028274204581975937,
            1.1642318895610515e-05,
            -0.2130647748708725,
            -0.2664813995361328,
            0.08827858418226242,
            0.2584846615791321,
            0.3225973844528198,
            -0.10409333556890488,
            -0.07932841777801514,
            -0.0788533017039299,
            -0.0695016160607338,
            0.03519934043288231,
            -0.01775279827415943,
            -0.028042254969477654,
            0.0034433845430612564,
            -0.07199428230524063,
            -0.11515528708696365,
            -0.023804133757948875,
            0.028969960287213326,
            0.05296366289258003,
            -0.2624451220035553,
            0.009786060079932213,
            -1.0060654878616333,
            0.032963402569293976,
            -0.07558351755142212,
            0.07559959590435028,
            -0.020489990711212158,
            -0.024247348308563232,
            0.29179757833480835,
            -0.5085514187812805,
            -0.06772247701883316,
            -0.06262953579425812,
            0.07837438583374023,
            0.5720755457878113
        ],
        "linBias": [
            -0.008423174731433392
        ],
        "recWeightInput": [
            -0.35052382946014404,
            -0.32417768239974976,
            -1.3883105516433716,
            0.09562099725008011,
            -1.0910836458206177,
            -1.170837640762329,
            -1.0573363304138184,
            1.8799177408218384,
            0.3041989803314209,
            0.3899069130420685,
            2.306854724884033,
            -0.4512098729610443,
            -0.7833129167556763,
            0.13517065346240997,
            0.20565912127494812,
            0.35344600677490234,
            0.1338898241519928,
            0.2713389992713928,
            0.023978345096111298,
            -0.09568531066179276,
            -0.8906022310256958,
            0.6909903883934021,
            -0.05843176320195198,
            0.5336326360702515,
            -0.49209064245224,
            0.18550880253314972,
            1.259085774421692,
            -0.3020420968532562,
            -0.9000869393348694,
            0.31039804220199585,
            0.767266035079956,
            0.13427238166332245,
            0.039914537221193314,
            -0.30987972021102905,
            2.022350788116455,
            -0.25234779715538025,
            0.20969992876052856,
            1.0070407390594482,
            -0.4780462980270386,
            1.1480538845062256,
            -0.3527300953865051,
            0.8725032806396484,
            -1.6744693517684937,
            0.2321602702140808,
            -0.8871185779571533,
            -1.3008222579956055,
            -1.7822120189666748,
            2.046907424926758,
            0.549668550491333,
            0.5627363324165344,
            2.3926494121551514,
            -0.7318320274353027,
            -0.9663800597190857,
            0.19444875419139862,
            0.3752596974372864,
            0.36176764965057373,
            0.48113584518432617,
            0.021694669499993324,
            -0.03333400934934616,
            0.6798357963562012,
            0.12155412137508392,
            0.35962167382240295,
            0.0915314257144928,
            1.0869444608688354,
            -0.6064997911453247,
            0.21011391282081604,
            1.7998785972595215,
            0.04701146483421326,
            -0.2980974018573761,
            0.1909327507019043,
            0.9947264194488525,
            -0.33509424328804016,
            -0.3617856204509735,
            -0.09821688383817673,
            2.0125203132629395,
            -0.37702053785324097,
            -0.29575636982917786,
            1.820814847946167,
            -0.18058699369430542,
            1.2278403043746948,
            0.04863302782177925,
            -2.6445536613464355,
            0.5486413836479187,
            -0.5093074440956116,
            0.21742016077041626,
            0.2399173527956009,
            -0.771091639995575,
            0.17578274011611938,
            -0.05451802909374237,
            -0.39407873153686523,
            0.5696930289268494,
            1.9859799146652222,
            -0.1880844384431839,
            -0.09623027592897415,
            -0.22380422055721283,
            0.7111334204673767,
            0.19070205092430115,
            -0.7798702716827393,
            0.5888255834579468,
            0.6218258142471313,
            -0.2698298990726471,
            0.2290291041135788,
            0.08539655059576035,
            -0.11504179984331131,
            -0.45826348662376404,
            0.38884127140045166,
            1.9789716005325317,
            0.5962061882019043,
            -0.6885305643081665,
            -0.05986751988530159,
            0.39108535647392273,
            -0.11202580481767654,
            -0.27583637833595276,
            -0.08640065044164658,
            1.026973843574524,
            1.2194814682006836,
            0.3644990622997284,
            2.5328099727630615,
            -0.10146460682153702,
            -1.2039158344268799,
            -0.5235992074012756,
            -0.47147589921951294,
            -2.2152955532073975,
            -0.03507988899946213,
            -0.9267477989196777,
            -1.102942943572998,
            -1.4075596332550049,
            3.3904993534088135,
            -0.38893675804138184,
            0.32396405935287476,
            2.839986562728882,
            -0.46932846307754517,
            -0.7070049047470093,
            0.19594991207122803,
            -0.8693129420280457,
            -0.9164751768112183,
            -0.1656944304704666,
            -0.8034231066703796,
            -0.2900725305080414,
            0.009847968816757202,
            -0.4154473841190338,
            0.3839270770549774,
            -0.11273365467786789,
            1.0826497077941895,
            -0.5822171568870544,
            1.0013309717178345,
            1.0576211214065552,
            0.7779421806335449,
            0.012615527957677841,
            0.17174173891544342,
            1.4283808469772339,
            0.6408891677856445,
            -0.8051773309707642,
            -2.007068395614624,
            2.397388458251953,
            -1.0080317258834839,
            0.5468671917915344,
            0.9264830350875854,
            -0.8274095058441162,
            0.7464028000831604
        ],
        "recWeightHidden": [
            -0.028260447084903717,
            -0.5927594900131226,
            0.10666148364543915,
            -0.012597264721989632,
            -0.4064299166202545,
            0.1263698935508728,
            -0.081635482609272,
            0.10246992856264114,
            -0.17582952976226807,
            0.006680339574813843,
            0.030544962733983994,
            -0.09864860773086548,
            0.0472576841711998,
            0.2220928966999054,
            -0.06827806681394577,
            -0.10747947543859482,
            -0.0513913668692112,
            -0.220613032579422,
            -0.024863187223672867,
            -0.5445103645324707,
            0.5973700881004333,
            0.0011462887050583959,
            0.20306715369224548,
            -0.015959415584802628,
            -0.02995019219815731,
            0.04222574457526207,
            -0.16978494822978973,
            -0.10726680606603622,
            -0.7469463348388672,
            -0.18754354119300842,
            0.20507384836673737,
            -0.06235490366816521,
            -0.03169330582022667,
            -0.08636263012886047,
            -0.16308194398880005,
            -0.6582455039024353,
            -0.2969188690185547,
            -0.2927975058555603,
            -0.2605021297931671,
            -0.14126773178577423,
            0.005455885082483292,
            0.0554170161485672,
            0.11951196193695068,
            -0.08663849532604218,
            0.06982817500829697,
            0.1702498197555542,
            0.0068748267367482185,
            -0.08105716109275818,
            -0.023887624964118004,
            -0.07141803950071335,
            0.044773656874895096,
            -0.28710487484931946,
            0.13133451342582703,
            -0.385630339384079,
            -0.22925671935081482,
            -0.09714356064796448,
            -0.16241687536239624,
            0.047167807817459106,
            -0.22943219542503357,
            -0.04226600378751755,
            -0.4489290714263916,
            -0.007843961007893085,
            -0.16483095288276672,
            0.05691279098391533,
            -0.19921629130840302,
            0.04924263805150986,
            -0.2496148943901062,
            -0.07190588861703873,
            -0.11552770435810089,
            -0.0643058568239212,
            -0.15841852128505707,
            -0.08432509750127792,
            0.049666084349155426,
            0.022457407787442207,
            -0.09926354885101318,
            0.13719601929187775,
            -0.1340494453907013,
            0.10166744887828827,
            -0.025458289310336113,
            -0.11601515859365463,
            -0.1098506897687912,
            0.12295863777399063,
            0.15721578896045685,
            0.03852595388889313,
            0.11008242517709732,
            0.18158073723316193,
            0.004105708561837673,
            -0.11570746451616287,
            -0.1000695526599884,
            0.19655157625675201,
            0.002708190819248557,
            0.07112202793359756,
            -0.155659019947052,
            -0.1465025246143341,
            0.0743945837020874,
            -0.13953806459903717,
            0.017128247767686844,
            0.19756504893302917,
            0.15051767230033875,
            -0.05033133178949356,
            -0.03617927059531212,
            0.03106968104839325,
            -0.14344851672649384,
            -0.03397321701049805,
            -0.28180232644081116,
            0.020478934049606323,
            -0.13925497233867645,
            0.21603748202323914,
            -0.03499893099069595,
            -0.043710220605134964,
            0.11535229533910751,
            -0.10915537923574448,
            -0.13449157774448395,
            -0.04983425885438919,
            -0.09262184798717499,
            0.0610329769551754,
            0.07437204569578171,
            0.02346062660217285,
            0.15386860072612762,
            0.013456808403134346,
            0.027315955609083176,
            -0.2652546465396881,
            -0.10167787969112396,
            -0.2540718913078308,
            -0.2971680760383606,
            0.02797655761241913,
            -0.08704040199518204,
            0.11259199678897858,
            -0.02721642144024372,
            -0.022909196093678474,
            -0.03286824747920036,
            -0.09307419508695602,
            -0.11739905923604965,
            -0.3914535641670227,
            -0.20473900437355042,
            0.12948797643184662,
            -0.13842028379440308,
            -0.11538446694612503,
            -0.018806306645274162,
            -0.33625903725624084,
            -0.12063895910978317,
            -0.11531193554401398,
            0.06753546744585037,
            -0.025195658206939697,
            -0.018382132053375244,
            -0.059849511831998825,
            -0.2997071444988251,
            -0.10772224515676498,
            -0.1934841424226761,
            0.05348921939730644,
            -0.14078117907047272,
            -0.048653192818164825,
            0.10339750349521637,
            -0.05677323043346405,
            -0.08966269344091415,
            0.1272284984588623,
            -0.22721660137176514,
            -0.15913832187652588,
            0.0538032092154026,
            0.020453358069062233,
            -0.11166778206825256,
            0.1217799186706543,
            -0.059552792459726334,
            -0.1470920741558075,
            0.2836396396160126,
            0.04061916097998619,
            0.15532785654067993,
            0.09298153966665268,
            -0.6998772621154785,
            0.48916006088256836,
            -0.276869535446167,
            0.051535725593566895,
            -0.2076033502817154,
            0.22133007645606995,
            0.06275111436843872,
            -0.33759814500808716,
            -0.07218562811613083,
            -0.5224969387054443,
            0.08328618854284286,
            -0.16553841531276703,
            0.19396062195301056,
            0.1454114019870758,
            0.12746143341064453,
            0.025712553411722183,
            0.24854278564453125,
            0.22028908133506775,
            -0.04004592448472977,
            0.2667081356048584,
            0.10904465615749359,
            -0.08214250952005386,
            -0.032371971756219864,
            0.08631321042776108,
            -0.14804579317569733,
            -0.26508432626724243,
            0.040325604379177094,
            0.05539889633655548,
            0.06570806354284286,
            0.00521126389503479,
            -0.14442859590053558,
            -0.5719956159591675,
            0.10635243356227875,
            -0.018581319600343704,
            -0.01124850008636713,
            -0.059797246009111404,
            0.3589266240596771,
            0.14198750257492065,
            0.2565578520298004,
            -0.09299687296152115,
            -0.34328851103782654,
            0.04183494672179222,
            -0.18392066657543182,
            0.18356990814208984,
            -0.13775399327278137,
            -0.5412397980690002,
            -0.3082302510738373,
            0.02761038951575756,
            -0.031381454318761826,
            -0.3549658954143524,
            -0.20726069808006287,
            0.6491096019744873,
            -0.807902991771698,
            0.17984633147716522,
            0.0456625260412693,
            0.06805593520402908,
            0.26074597239494324,
            0.05151386559009552,
            -0.44705072045326233,
            0.19964684545993805,
            0.01526591181755066,
            -0.05593721568584442,
            0.12232626974582672,
            0.25732624530792236,
            -0.03770940378308296,
            -0.37743818759918213,
            0.10755477100610733,
            1.0227365493774414,
            0.28743717074394226,
            -0.3714461922645569,
            -0.3197058141231537,
            -0.32675421237945557,
            -0.2341054528951645,
            -0.0959198921918869,
            0.33587804436683655,
            0.296844482421875,
            -0.006477720569819212,
            0.37287795543670654,
            0.4364795982837677,
            -0.26825422048568726,
            -0.23448044061660767,
            -0.006726003717631102,
            -0.003501790575683117,
            -0.5032163858413696,
            0.07250991463661194,
            0.06419362872838974,
            0.43589285016059875,
            -0.5801680088043213,
            0.15777543187141418,
            0.5148808360099792,
            -0.2176906019449234,
            0.45791953802108765,
            0.270341157913208,
            0.20634746551513672,
            0.15467196702957153,
            -0.08636709302663803,
            0.20122069120407104,
            0.05645968019962311,
            -0.6193742156028748,
            0.14242605865001678,
            0.29660746455192566,
            -0.03964674100279808,
            -0.044278278946876526,
            0.1977519392967224,
            0.10623463243246078,
            -0.009921801276504993,
            0.08351200073957443,
            -0.5860490202903748,
            -0.5197431445121765,
            -1.400884985923767,
            0.3627634644508362,
            0.3879365622997284,
            0.0451713427901268,
            0.0918702483177185,
            0.2886578142642975,
            -0.20233474671840668,
            0.08008258044719696,
            -0.15677233040332794,
            0.0755767673254013,
            -0.1922900229692459,
            0.0660128965973854,
            -0.05084056779742241,
            -0.5670501589775085,
            0.08252490311861038,
            -0.3229776918888092,
            -0.3659084439277649,
            0.31679558753967285,
            0.11301679164171219,
            0.25784382224082947,
            -0.31699949502944946,
            -0.061121292412281036,
            -0.3620243966579437,
            -0.2843679189682007,
            -0.08933071047067642,
            0.048593681305646896,
            0.13184429705142975,
            0.5276285409927368,
            0.10422394424676895,
            -0.33398497104644775,
            0.029379641637206078,
            -0.5138046145439148,
            0.1368246227502823,
            -0.20132899284362793,
            0.030977515503764153,
            -0.07774069905281067,
            -0.11773685365915298,
            -0.31960776448249817,
            0.3267726004123688,
            -0.2567424774169922,
            -0.22150148451328278,
            -0.045478008687496185,
            0.1251223385334015,
            -0.00855718832463026,
            -0.29633840918540955,
            0.0781397596001625,
            -0.2550358474254608,
            -0.09522832185029984,
            -0.06032760068774223,
            -0.030616674572229385,
            0.010311129502952099,
            -0.22247567772865295,
            -0.01677042432129383,
            -0.01184497307986021,
            -0.18405230343341827,
            0.04498537257313728,
            0.37560850381851196,
            -0.22649331390857697,
            -0.11645855754613876,
            0.052764974534511566,
            -0.0674942135810852,
            -0.024242959916591644,
            -0.5596638917922974,
            0.30235984921455383,
            0.10536222904920578,
            -0.051552653312683105,
            -0.037826500833034515,
            -0.21170808374881744,
            -0.26722708344459534,
            0.020479505881667137,
            -0.14551958441734314,
            -0.26834723353385925,
            -0.23920515179634094,
            0.00816978421062231,
            -0.28752538561820984,
            -0.15004763007164001,
            0.0695616602897644,
            -0.06098975986242294,
            -0.33859768509864807,
            -0.3704477846622467,
            0.05530121549963951,
            -0.004331979434937239,
            0.022493433207273483,
            0.017422666773200035,
            -0.03754637390375137,
            -0.07388295978307724,
            0.04143581911921501,
            -0.04783271625638008,
            0.12749120593070984,
            0.16711772978305817,
            -0.11207292973995209,
            -0.07063666731119156,
            -0.43740448355674744,
            0.10159356892108917,
            -0.33908888697624207,
            -0.11865613609552383,
            -0.4425342381000519,
            -0.062349990010261536,
            0.20822773873806,
            -0.1633927971124649,
            -0.017765354365110397,
            -0.23869049549102783,
            0.03948651999235153,
            -0.6384207010269165,
            -0.11745871603488922,
            -0.25074175000190735,
            -0.04583056643605232,
            -0.19208721816539764,
            -0.10578267276287079,
            -0.1754814237356186,
            -0.11635123938322067,
            0.051676493138074875,
            0.024333782494068146,
            -0.2270313799381256,
            0.010994494892656803,
            -0.008853948675096035,
            0.1677751988172531,
            0.18940618634223938,
            -0.1927715241909027,
            -0.19133135676383972,
            0.03315842151641846,
            0.048701781779527664,
            -0.050218503922224045,
            0.0021664327941834927,
            0.11300496011972427,
            0.2751427888870239,
            -0.09459085762500763,
            -0.03868244215846062,
            -0.011257026344537735,
            -0.01351897232234478,
            -0.1903306394815445,
            -0.15049296617507935,
            0.04169357940554619,
            -0.05146659538149834,
            0.1559552550315857,
            0.034339599311351776,
            -0.02458328753709793,
            -0.03790079802274704,
            0.08102023601531982,
            -0.1311209350824356,
            0.01342535950243473,
            -0.09900074452161789,
            -0.24547713994979858,
            -0.12588606774806976,
            -0.11596201360225677,
            0.10229213535785675,
            -0.168309286236763,
            -0.08410327136516571,
            0.24387450516223907,
            0.06601600348949432,
            0.29572102427482605,
            -0.1834591031074524,
            -0.023833731189370155,
            0.11972513794898987,
            -0.23041698336601257,
            -0.00106215535197407,
            -0.027549147605895996,
            0.10273540765047073,
            -0.09811554104089737,
            0.22126251459121704,
            0.2571146786212921,
            0.1586264669895172,
            0.0718640610575676,
            -0.16840572655200958,
            -0.4680687487125397,
            -0.14314962923526764,
            -0.3016888201236725,
            -0.2027411311864853,
            -0.11128410696983337,
            -0.3506450653076172,
            -0.09425731003284454,
            -0.30911126732826233,
            -0.2576083540916443,
            -0.019532807171344757,
            -0.2499932050704956,
            -0.0292340200394392,
            -0.30757251381874084,
            -0.00648719584569335,
            -0.07309141010046005,
            -0.19102628529071808,
            -0.1276862919330597,
            -0.002245351206511259,
            -0.7258040904998779,
            -0.4082845151424408,
            -0.05156891047954559,
            -0.25805026292800903,
            -0.2443167269229889,
            -0.11600174754858017,
            -0.12913517653942108,
            -0.4402291774749756,
            -0.3038436472415924,
            0.01955319009721279,
            -0.28505295515060425,
            -0.12458690255880356,
            -0.3526240885257721,
            -0.23921562731266022,
            0.16416014730930328,
            0.05750340223312378,
            -0.16932624578475952,
            -0.38723257184028625,
            -0.019790539517998695,
            -0.16753976047039032,
            -0.13043656945228577,
            0.40923917293548584,
            0.3522258400917053,
            -0.17101924121379852,
            -0.04091573879122734,
            0.09606734663248062,
            -0.2559666335582733,
            -0.047447409480810165,
            -0.26944294571876526,
            -0.1476289927959442,
            -0.25300702452659607,
            0.0628315731883049,
            0.019249791279435158,
            0.0930260643362999,
            -0.2635675072669983,
            0.22237208485603333,
            0.12743088603019714,
            0.04211859032511711,
            0.0802173763513565,
            -0.17752118408679962,
            0.002897278405725956,
            -0.1760745644569397,
            -0.055456556379795074,
            -0.22391797602176666,
            0.15590804815292358,
            0.11482147127389908,
            0.19040389358997345,
            0.20148256421089172,
            0.0604463592171669,
            0.6050058603286743,
            0.21906203031539917,
            -0.20851093530654907,
            -0.1892145723104477,
            0.27547794580459595,
            0.1995275616645813,
            -0.005834644660353661,
            0.4486197233200073,
            0.34256091713905334,
            0.4385647177696228,
            0.21319580078125,
            0.11977869272232056,
            0.3570443391799927,
            0.157845601439476,
            -0.17579568922519684,
            0.08871525526046753,
            -0.06176907569169998,
            -0.0030945439357310534,
            0.002705159829929471,
            -0.30956292152404785,
            0.08229926973581314,
            0.16362357139587402,
            -0.036817021667957306,
            -0.16286645829677582,
            -0.1128619909286499,
            0.08616854250431061,
            0.1520056277513504,
            0.2066912055015564,
            -0.043614428490400314,
            0.03501630574464798,
            -0.14316707849502563,
            -0.4103425443172455,
            0.23600517213344574,
            -0.06561851501464844,
            0.1684969961643219,
            0.0009766500443220139,
            -0.06591027230024338,
            0.03952978178858757,
            0.13323675096035004,
            0.0454585999250412,
            -0.3355151116847992,
            -0.055169809609651566,
            0.2161327600479126,
            0.04343346506357193,
            0.42073148488998413,
            0.04753728210926056,
            0.22432784736156464,
            -0.06965621560811996,
            -0.16228100657463074,
            -0.08159189671278,
            -0.18344911932945251,
            -0.03065638802945614,
            -0.27134087681770325,
            -0.0042723543010652065,
            -0.14738382399082184,
            0.0915718749165535,
            0.28034040331840515,
            -0.047382902354002,
            -0.08938942104578018,
            0.08496299386024475,
            -0.002440192038193345,
            0.07781338691711426,
            0.08943147957324982,
            0.038811977952718735,
            -0.19968165457248688,
            0.15165168046951294,
            0.05345400795340538,
            0.18067504465579987,
            0.11255240440368652,
            -0.0014541612472385168,
            -0.009364567697048187,
            0.05236583203077316,
            -0.0394560806453228,
            0.05203080549836159,
            0.04796868935227394,
            -0.01102199126034975,
            0.3047097623348236,
            -0.005102085880935192,
            0.03103371523320675,
            -0.25629860162734985,
            0.29160377383232117,
            0.07010236382484436,
            0.02438683807849884,
            -0.05067691579461098,
            -0.24222342669963837,
            0.010212001390755177,
            -0.04324199631810188,
            -0.5876189470291138,
            0.013898908160626888,
            0.060055192559957504,
            0.11214027553796768,
            0.25434768199920654,
            -0.06817512959241867,
            0.44524499773979187,
            -0.2827166020870209,
            -0.13750781118869781,
            0.21989542245864868,
            -0.10893590748310089,
            -0.10079432278871536,
            -0.026567431166768074,
            -0.28884759545326233,
            -0.1250697821378708,
            0.12099859118461609,
            -0.19746437668800354,
            0.2630032002925873,
            -0.03701065108180046,
            0.10097812116146088,
            -0.020112546160817146,
            -0.055504899471998215,
            0.07526083290576935,
            -0.06573078781366348,
            0.24661119282245636,
            0.1276780068874359,
            0.21896715462207794,
            -0.0826704204082489,
            0.16884014010429382,
            -0.0019418264273554087,
            0.13726089894771576,
            0.20239052176475525,
            -0.12422369420528412,
            0.06306824833154678,
            0.22183679044246674,
            -0.0563281886279583,
            0.24036572873592377,
            0.0897967591881752,
            0.2791093587875366,
            0.01630895771086216,
            -0.1514030247926712,
            -0.16617777943611145,
            0.41725343465805054,
            0.12162669003009796,
            0.071509949862957,
            0.057979337871074677,
            -0.22109925746917725,
            0.049189064651727676,
            -0.16716396808624268,
            -0.04358267784118652,
            -0.013707841746509075,
            -0.0439288429915905,
            0.20981863141059875,
            -0.6673503518104553,
            -0.09304914623498917,
            -0.17587707936763763,
            -0.1005142405629158,
            0.11059606820344925,
            0.3548731207847595,
            -0.129341721534729,
            0.28543516993522644,
            0.2965761125087738,
            -0.03619885444641113,
            -0.061513498425483704,
            -0.3325210511684418,
            0.22372932732105255,
            -0.015809811651706696,
            0.05384775623679161,
            -0.06263747066259384,
            0.04257052764296532,
            0.10702463239431381,
            -0.01928226463496685,
            0.22170308232307434,
            -0.08107370883226395,
            0.028083348646759987,
            0.1645762026309967,
            -0.2110191285610199,
            0.03346262499690056,
            -0.14293476939201355,
            -0.2787453830242157,
            -0.12313053011894226,
            -0.19518151879310608,
            -0.08913679420948029,
            0.0819414034485817,
            -0.7656967043876648,
            0.021503929048776627,
            0.050228092819452286,
            -0.11004400253295898,
            0.02022586390376091,
            0.3047707974910736,
            0.21799351274967194,
            0.2452811747789383,
            0.07224974036216736,
            -0.239711731672287,
            -0.47495773434638977,
            0.03618673235177994,
            -0.19357602298259735,
            -0.012958703562617302,
            -0.5791642069816589,
            -0.16058146953582764,
            0.1893707513809204,
            0.16333283483982086,
            0.021878834813833237,
            -0.21657699346542358,
            -0.11363581568002701,
            -0.5938481688499451,
            0.009086322970688343,
            -0.1403258740901947,
            0.06510522216558456,
            0.10346873849630356,
            0.09471724182367325,
            -0.10376191139221191,
            -0.15968823432922363,
            0.06047101318836212,
            0.05168028548359871,
            -0.3115692138671875,
            0.024334369227290154,
            -0.18575286865234375,
            -0.2784433960914612,
            0.1202155128121376,
            0.1610087901353836,
            -0.5943834185600281,
            -0.307714581489563,
            -0.1450965702533722,
            -0.680600643157959,
            -0.06075946241617203,
            -0.08383843302726746,
            0.1620122790336609,
            -0.11208175867795944,
            -0.12845759093761444,
            0.035931941121816635,
            -0.23292295634746552,
            0.06763393431901932,
            0.14449958503246307,
            0.007866269908845425,
            -0.06147215887904167,
            0.10254564881324768,
            -0.09931419044733047,
            0.15087689459323883,
            0.3471611440181732,
            -0.06332235038280487,
            -0.01505011785775423,
            0.26761022210121155,
            0.10795854032039642,
            -0.19680720567703247,
            -0.08158227056264877,
            0.12666188180446625,
            -0.28473329544067383,
            -0.22252774238586426,
            -0.05577874183654785,
            -0.024034744128584862,
            -0.22112880647182465,
            0.15799109637737274,
            0.0802994966506958,
            -0.007212395779788494,
            0.12400685250759125,
            0.10510540753602982,
            0.0013471858110278845,
            0.0073364111594855785,
            -0.016142496839165688,
            -0.09569426625967026,
            0.3956086039543152,
            -0.09961194545030594,
            0.1623854786157608,
            0.4472191333770752,
            0.009479955770075321,
            -0.04120859503746033,
            0.09244170784950256,
            -0.21161602437496185,
            -0.13360744714736938,
            -0.12413649260997772,
            -0.07178705930709839,
            0.08089607208967209,
            -0.13238368928432465,
            -0.333853542804718,
            -0.1346943974494934,
            -0.2117212861776352,
            -0.03831867128610611,
            -0.07438807189464569,
            -0.004846191965043545,
            -0.02710818126797676,
            -0.02961663343012333,
            0.07616525888442993,
            -0.12136487662792206,
            -0.26865074038505554,
            -0.19233737885951996,
            -0.16385015845298767,
            -0.11058588325977325,
            -0.14832769334316254,
            0.14526382088661194,
            -0.07096114009618759,
            0.058591000735759735,
            -0.10403668880462646,
            -0.14666974544525146,
            0.011438320390880108,
            -0.2666795551776886,
            -0.047859206795692444,
            -0.1977844387292862,
            0.08053702116012573,
            0.1197517067193985,
            -0.3179166615009308,
            -0.6689152717590332,
            -0.18378673493862152,
            0.10824529081583023,
            0.15935157239437103,
            -0.009649952873587608,
            -0.23993845283985138,
            -0.10629010945558548,
            0.13567881286144257,
            -0.1155172735452652,
            -0.007025108672678471,
            -0.13731880486011505,
            0.15222123265266418,
            -0.007502879481762648,
            0.0010993506293743849,
            0.006281828507781029,
            -0.09596236050128937,
            0.08415857702493668,
            0.24771982431411743,
            -0.19845342636108398,
            -0.2244340479373932,
            0.13368095457553864,
            -0.13348931074142456,
            -0.09378281980752945,
            -0.41330617666244507,
            0.19167368113994598,
            -0.05425497144460678,
            0.10921288281679153,
            -0.011559130623936653,
            -0.2115997076034546,
            -0.01713302731513977,
            -0.15443038940429688,
            0.02528720162808895,
            -0.24289540946483612,
            -0.04408483952283859,
            0.0829368308186531,
            -0.10910806804895401,
            0.027066875249147415,
            0.09957444667816162,
            -0.20381173491477966,
            -0.11251864582300186,
            -0.050973180681467056,
            -0.18297772109508514,
            0.024637162685394287,
            -0.2289428412914276,
            0.12393227219581604,
            0.1319398283958435,
            -0.13714921474456787,
            -0.0998254343867302,
            -0.002528608776628971,
            0.08388526737689972,
            0.20608331263065338,
            0.04785255715250969,
            -0.07198845595121384,
            -0.16396652162075043,
            -0.2134317010641098,
            -0.2983403503894806,
            -0.12510792911052704,
            -0.440250426530838,
            -0.10360502451658249,
            -0.12710575759410858,
            0.016004586592316628,
            -0.18942834436893463,
            0.05153798684477806,
            0.16160450875759125,
            -0.5108979344367981,
            -0.029233524575829506,
            -0.2762046754360199,
            0.05934827774763107,
            -0.07604315131902695,
            -0.013936608098447323,
            -0.05302107706665993,
            0.03236306086182594,
            -0.01973217912018299,
            -0.09734734892845154,
            -0.23372648656368256,
            -0.09571905434131622,
            -0.1532813459634781,
            -0.04517064988613129,
            0.045660581439733505,
            -0.035623688250780106,
            0.12838096916675568,
            0.10466501861810684,
            -0.14702433347702026,
            0.11081095039844513,
            0.007985834032297134,
            -0.02939286082983017,
            0.18441055715084076,
            -0.0074144694954156876,
            0.16229254007339478,
            0.02385333739221096,
            0.0763569325208664,
            0.022405248135328293,
            -0.02051076665520668,
            -0.049188870936632156,
            -0.1961645483970642,
            0.14185012876987457,
            0.008014485239982605,
            0.06892698258161545,
            0.07511469721794128,
            -0.08230423182249069,
            0.09727085381746292,
            0.011944198049604893,
            0.12092926353216171,
            0.015108027495443821,
            -0.04506754130125046,
            0.027864335104823112,
            0.0057442206889390945,
            -0.2076394110918045,
            -0.15268857777118683,
            0.17495599389076233,
            0.013879217207431793,
            0.2370859980583191,
            0.03948056697845459,
            -0.1751856803894043,
            0.22797547280788422,
            -0.21323227882385254,
            -0.009230044670403004,
            -0.10890184342861176,
            -0.05297739803791046,
            0.056933265179395676,
            0.11064412444829941,
            0.03312235698103905,
            0.14350029826164246,
            -0.1151377335190773,
            0.13185085356235504,
            -0.13227421045303345,
            0.09937424212694168,
            0.07104630768299103,
            -0.04438534751534462,
            0.018963536247611046,
            -0.0030196558218449354,
            0.18261076509952545,
            -0.050815150141716,
            -0.15480656921863556,
            -0.20115625858306885,
            -0.357619047164917,
            -0.11754032969474792,
            -0.2289734184741974,
            -0.1353611946105957,
            -0.10649599134922028,
            0.05751791223883629,
            -0.13316506147384644,
            0.04097098857164383,
            -0.40561389923095703,
            -0.33257171511650085,
            0.023698875680565834,
            -0.016529059037566185,
            -0.22594016790390015,
            -0.15178808569908142,
            -0.11486462503671646,
            -0.38604605197906494,
            -0.21618957817554474,
            -0.05727324262261391,
            0.002185744931921363,
            -0.12285693734884262,
            -0.0273900106549263,
            0.045043833553791046,
            -0.04142371565103531,
            -0.11340963840484619,
            0.1331246793270111,
            0.05876660346984863,
            -0.2640974223613739,
            0.14023014903068542,
            0.1873256117105484,
            0.050117962062358856,
            0.077082060277462,
            0.15029679238796234,
            0.2668710947036743,
            -0.13222956657409668,
            -0.12118406593799591,
            -0.037689145654439926,
            0.053850263357162476,
            -0.41698703169822693,
            0.3936416506767273,
            -0.05584483593702316,
            1.5328705310821533,
            -0.10363201797008514,
            -0.4768500030040741,
            -0.23907190561294556,
            0.02814166434109211,
            -0.1336599588394165,
            -0.10597093403339386,
            0.12030228227376938,
            0.28246840834617615,
            0.26909181475639343,
            0.02689420059323311,
            0.1867784559726715,
            0.013584955595433712,
            -0.046234533190727234,
            -0.08804690837860107,
            0.4063934087753296,
            -0.22288884222507477,
            0.0006110328831709921,
            -0.18099933862686157,
            -0.050073593854904175,
            -0.034317657351493835,
            -0.3274664580821991,
            -0.1859641671180725,
            0.0810893326997757,
            0.9237638711929321,
            0.21735288202762604,
            0.22281107306480408,
            -0.16782693564891815,
            0.5170663595199585,
            -0.031041625887155533,
            0.006020309403538704,
            -0.13884654641151428,
            0.442580908536911,
            -0.15588690340518951,
            -0.1107194647192955,
            -0.04021385312080383,
            0.16541293263435364,
            -0.3746110200881958,
            -0.033989060670137405,
            0.04349502548575401,
            0.16283415257930756,
            -0.08740950375795364,
            0.25076824426651,
            -0.38596776127815247,
            -0.033810652792453766,
            -0.04486844316124916,
            0.17032775282859802,
            0.0551922470331192,
            0.4196609854698181,
            -0.10005711764097214,
            -0.1064000353217125,
            0.10370124131441116,
            -0.06793075799942017,
            0.04512735828757286,
            -0.2084011733531952,
            0.23812136054039001,
            0.12059185653924942,
            0.20724287629127502,
            -0.09411951899528503,
            -0.20995402336120605,
            0.11055656522512436,
            -0.35468152165412903,
            0.05413544923067093,
            0.401725172996521,
            0.2720399796962738,
            0.21911968290805817,
            0.16107642650604248,
            -0.4446885287761688,
            0.004721344448626041,
            -0.3369213044643402,
            -0.06353490054607391,
            0.003704896429553628,
            0.2189292460680008,
            0.4759489893913269,
            0.11985452473163605,
            -0.18332168459892273,
            -0.2182435542345047,
            -0.30388548970222473,
            -0.16781963407993317,
            0.004355043638497591,
            -0.21767395734786987,
            0.08689022064208984,
            -0.00454945582896471,
            0.2644551694393158,
            -0.05829419195652008,
            0.011834301985800266,
            -0.06624723225831985,
            0.11146986484527588,
            0.07146400213241577,
            -0.03918026387691498,
            -0.03388749063014984,
            -0.11612104624509811,
            -0.16606354713439941,
            0.07725291699171066,
            0.2725602388381958,
            0.19874101877212524,
            0.12671126425266266,
            0.38341066241264343,
            0.0433664433658123,
            -0.1638549417257309,
            0.05646851658821106,
            0.313052773475647,
            -0.16712649166584015,
            0.2850934863090515,
            -0.010389282368123531,
            -0.23947542905807495,
            0.051440298557281494,
            0.45603880286216736,
            0.3696581721305847,
            -0.134598970413208,
            0.23311929404735565,
            -0.06127704307436943,
            0.22682508826255798,
            -0.14108608663082123,
            -0.03961867094039917,
            0.07817510515451431,
            0.005234087351709604,
            0.013060740195214748,
            0.09419199824333191,
            -0.13831296563148499,
            1.109474778175354,
            -0.06112665310502052,
            0.07478858530521393,
            -0.15308687090873718,
            -0.1451835334300995,
            -0.4116194546222687,
            0.053081292659044266,
            -0.11785078793764114,
            0.25270089507102966,
            -0.09353023022413254,
            0.07406339794397354,
            0.21905450522899628,
            -0.001835983362980187,
            0.39748042821884155,
            -0.11491424590349197,
            0.003300323151051998,
            -0.004701086785644293,
            0.43465656042099,
            0.14820058643817902,
            -0.1234520673751831,
            -0.0686286985874176,
            -0.0625586211681366,
            0.0688062384724617,
            0.17644448578357697,
            -0.10853620618581772,
            0.35466569662094116,
            0.08827482908964157,
            -0.40533262491226196,
            0.06711797416210175,
            -0.1354011446237564,
            0.3847605586051941,
            0.08048345893621445,
            0.23794321715831757,
            0.17829349637031555,
            0.09974100440740585,
            0.25115495920181274,
            0.17108643054962158,
            -0.0245249941945076,
            -0.19921720027923584,
            0.04371797665953636,
            1.5204510688781738,
            -0.10695220530033112,
            -0.2849046587944031,
            0.352717787027359,
            0.2343832403421402,
            0.017272619530558586,
            -0.06483688205480576,
            -0.22698846459388733,
            0.6245985627174377,
            -0.28114044666290283,
            -0.2380039244890213,
            -0.20676179230213165,
            -0.09900303930044174,
            -0.10250075906515121,
            -0.0994381308555603,
            0.30339571833610535,
            0.04438512399792671,
            0.3543129563331604,
            0.04233646020293236,
            -0.1791607141494751,
            0.08721548318862915,
            -0.069268137216568,
            0.015828117728233337,
            0.30905526876449585,
            0.6033875346183777,
            0.4732205271720886,
            0.4098413288593292,
            0.03024173714220524,
            0.947533130645752,
            -0.06875470280647278,
            -0.010601414367556572,
            -0.0828285813331604,
            0.058078277856111526,
            -0.09811332821846008,
            -0.17695273458957672,
            -0.26951754093170166,
            -0.10186802595853806,
            0.16598372161388397,
            0.14107199013233185,
            -0.08150885254144669,
            0.49141624569892883,
            -0.10842177271842957,
            0.24214890599250793,
            0.29985979199409485,
            0.15394525229930878,
            0.42045003175735474,
            -0.14847679436206818,
            0.012643682770431042,
            -0.051401861011981964,
            0.4676571786403656,
            -0.13842317461967468,
            -0.1126522347331047,
            -0.17344938218593597,
            -0.09947008639574051,
            -0.11001480370759964,
            0.17240121960639954,
            0.18662500381469727,
            0.21785174310207367,
            0.015546438284218311,
            0.20893140137195587,
            -0.034008875489234924,
            -0.3174442648887634,
            0.025064872577786446,
            0.16220194101333618,
            -0.1519203633069992,
            0.0481477826833725,
            0.1717357486486435,
            -0.16608530282974243,
            0.42688310146331787,
            0.31201115250587463,
            -0.07699967920780182,
            -0.2128608077764511,
            -0.27178436517715454,
            -0.17822013795375824,
            0.08492064476013184,
            0.1312563717365265,
            0.12422382086515427,
            0.08766689151525497,
            0.027587929740548134,
            -0.047080375254154205,
            0.28856411576271057,
            0.0784376785159111,
            -0.007481818087399006,
            -0.015232006087899208,
            0.1586437076330185,
            0.09813189506530762,
            -0.0793437734246254,
            0.3575437068939209,
            -0.06875789165496826,
            0.026191938668489456,
            -0.14344565570354462,
            -0.15580369532108307,
            0.035348884761333466,
            -0.037822600454092026,
            0.0846652016043663,
            -0.03665797412395477,
            -0.23212364315986633,
            -0.47081807255744934,
            0.09047488123178482,
            0.08137593418359756,
            -0.19824892282485962,
            0.19206243753433228,
            -0.16186004877090454,
            0.03898381069302559,
            0.48400798439979553,
            0.0013269921764731407,
            0.07834421843290329,
            0.07845068722963333,
            -0.32405591011047363,
            0.11708056181669235,
            0.8978615403175354,
            0.19195787608623505,
            0.18861770629882812,
            0.24881693720817566,
            -0.10706373304128647,
            0.28291773796081543,
            0.11220907419919968,
            0.09625282138586044,
            -0.01655854843556881,
            0.2849324643611908,
            -0.16185571253299713,
            0.040922798216342926,
            0.15724804997444153,
            0.03128434717655182,
            0.01608874648809433,
            0.046498753130435944,
            -0.03134183958172798,
            0.023517737165093422,
            0.35490643978118896,
            0.09393767267465591,
            -0.05737577751278877,
            0.11090352386236191,
            0.05286024883389473,
            0.05401312932372093,
            -0.047148894518613815,
            0.35554906725883484,
            0.09613461792469025,
            0.3013952970504761,
            0.0256651621311903,
            0.2866842746734619,
            0.304107129573822,
            0.02924315631389618,
            -0.3711509108543396,
            0.43264323472976685,
            0.20803214609622955,
            0.41549792885780334,
            0.8085755109786987,
            -0.20204952359199524,
            -0.02420218288898468,
            0.13539572060108185,
            0.054615117609500885,
            -0.08337230235338211,
            0.15493051707744598,
            0.3649834990501404,
            -0.15832920372486115,
            0.2952231466770172,
            -0.11655382812023163,
            0.12475885450839996,
            0.042782146483659744,
            -0.13053326308727264,
            0.21170184016227722,
            -0.004023332614451647,
            -0.38089245557785034,
            0.286626398563385,
            0.10597787797451019,
            0.08095119893550873,
            0.12023670971393585,
            0.1276407688856125,
            0.5573683381080627,
            -0.3681561052799225,
            -0.12682600319385529,
            0.09855677932500839,
            0.15551044046878815,
            0.13183259963989258,
            0.07518940418958664,
            0.14568504691123962,
            0.03716758266091347,
            0.39439642429351807,
            0.2394583821296692,
            -0.25815004110336304,
            0.0760202556848526,
            0.05995398759841919,
            0.2013683170080185,
            0.09427995979785919,
            0.09348287433385849,
            0.2071705013513565,
            0.22641661763191223,
            0.3563293516635895,
            0.16217362880706787,
            0.07459193468093872,
            -0.15520018339157104,
            -0.02975614182651043,
            -0.1265478879213333,
            -0.08106551319360733,
            -0.04252580553293228,
            -0.07007572799921036,
            -0.05355500429868698,
            0.14974069595336914,
            0.37145689129829407,
            0.018422292545437813,
            0.10008914023637772,
            0.05690302699804306,
            0.510260283946991,
            0.27677831053733826,
            0.04740028455853462,
            -0.0005615694681182504,
            0.01722068153321743,
            0.2764895558357239,
            0.05526702105998993,
            0.7001256346702576,
            -0.05039071664214134,
            0.03692122921347618,
            0.12528398633003235,
            -0.038802146911621094,
            0.017077554017305374,
            -0.03932136297225952,
            0.10938092321157455,
            -0.06699861586093903,
            -0.10871416330337524,
            0.16237051784992218,
            0.09302151203155518,
            0.10979321599006653,
            -0.0007193719502538443,
            -0.013003687374293804,
            -0.05141386762261391,
            -0.03505894914269447,
            0.08308477699756622,
            0.14704909920692444,
            -0.04170272871851921,
            -0.15954409539699554,
            0.10460078716278076,
            -0.29524627327919006,
            0.14187051355838776,
            0.11269762367010117,
            -0.17268890142440796,
            0.08228956907987595,
            -0.019950153306126595,
            0.11619018018245697,
            -0.021428894251585007,
            0.0855938196182251,
            -0.02249968610703945,
            -0.13035689294338226,
            -0.02373695559799671,
            -0.1573185920715332,
            -0.050705235451459885,
            0.24607011675834656,
            0.08741358667612076,
            0.058208808302879333,
            0.08561868220567703,
            0.12423962354660034,
            0.169425830245018,
            -0.04346295818686485,
            -0.021437333896756172,
            0.14722678065299988,
            -0.14842309057712555,
            -0.010968961752951145,
            -0.27957016229629517,
            -0.08504414558410645,
            0.18208129703998566,
            -0.0898282527923584,
            0.14692743122577667,
            -0.09846042841672897,
            0.15275292098522186,
            0.062482595443725586,
            -0.19002339243888855,
            -0.15753188729286194,
            -0.030767733231186867,
            -0.23564450442790985,
            0.09296225756406784,
            0.024037480354309082,
            0.03763541206717491,
            -0.08844621479511261,
            0.08073252439498901,
            0.37740039825439453,
            -0.014391463249921799,
            0.30122360587120056,
            -0.11289260536432266,
            0.09581822901964188,
            -0.03230167180299759,
            -0.021177401766180992,
            0.33676281571388245,
            -0.060106318444013596,
            0.2770707309246063,
            0.20136626064777374,
            -0.07823866605758667,
            0.20305751264095306,
            -0.10755839198827744,
            0.20704758167266846,
            0.456111341714859,
            0.2720302939414978,
            -0.003072114195674658,
            0.151509627699852,
            0.15555688738822937,
            -0.07362395524978638,
            0.055879078805446625,
            0.12796294689178467,
            0.18434752523899078,
            0.09720787405967712,
            0.00408907700330019,
            0.3298041820526123,
            0.263074666261673,
            -0.022149115800857544,
            0.034181252121925354,
            0.22689399123191833,
            0.12009690701961517,
            0.5418154001235962,
            0.283412367105484,
            0.1813541203737259,
            0.04913602024316788,
            -0.08922815322875977,
            -0.1765766739845276,
            -0.0484493263065815,
            0.12308774143457413,
            -0.17315608263015747,
            0.08337439596652985,
            -0.03735357150435448,
            0.027393866330385208,
            0.32032689452171326,
            0.27693796157836914,
            -0.13276933133602142,
            -0.4290928542613983,
            -0.017185885459184647,
            0.18565495312213898,
            -0.07841088622808456,
            -0.36228635907173157,
            0.1026243343949318,
            0.05018036812543869,
            -0.11773432791233063,
            -0.33994632959365845,
            0.3175075948238373,
            0.1760072261095047,
            0.10761698335409164,
            0.013852475211024284,
            0.11110683530569077,
            -0.12926839292049408,
            -0.5128321647644043,
            0.18401212990283966,
            -0.3468262255191803,
            -0.12325992435216904,
            0.20852646231651306,
            0.03981269150972366,
            0.11655391752719879,
            -0.1451297104358673,
            -0.1229172945022583,
            0.15786635875701904,
            -0.3817065954208374,
            -0.36518868803977966,
            0.01786119118332863,
            -0.7257451415061951,
            -0.20446956157684326,
            0.027964098379015923,
            -0.014744620770215988,
            0.12479173392057419,
            0.17774590849876404,
            0.059615448117256165,
            0.21642641723155975,
            -0.2838326096534729,
            0.19002851843833923,
            -0.1755196750164032,
            -0.03436937555670738,
            -0.12240847200155258,
            -0.04647196829319,
            -0.3977068066596985,
            0.04783366620540619,
            -0.18376410007476807,
            0.016513731330633163,
            0.36628085374832153,
            -0.3916044235229492,
            -0.3410056233406067,
            -0.47579362988471985,
            0.02488398738205433,
            -0.15243548154830933,
            -0.1860254853963852,
            -0.043409328907728195,
            -0.15550582110881805,
            -0.023924002423882484,
            -0.04204436019062996,
            0.23317423462867737,
            0.24791046977043152,
            -0.14168080687522888,
            0.12713904678821564,
            0.021218962967395782,
            0.07192625850439072,
            -0.21563252806663513,
            -0.20543664693832397,
            0.1427527815103531,
            -0.019475802779197693,
            0.11436429619789124,
            0.38200944662094116,
            0.03703732788562775,
            -0.08808094263076782,
            0.1311325579881668,
            0.0875423327088356,
            -0.18168756365776062,
            0.13411760330200195,
            0.18150915205478668,
            -0.01666334830224514,
            0.1510084718465805,
            0.0024601430632174015,
            -0.03091385029256344,
            -0.047074735164642334,
            -0.06482812017202377,
            -0.09949222952127457,
            -0.017695022746920586,
            -0.02643885649740696,
            -0.03893943503499031,
            -0.03782309591770172,
            0.12239263951778412,
            0.1898297518491745,
            -0.07101904600858688,
            0.1704409122467041,
            0.06422201544046402,
            -0.03150949254631996,
            -0.1844022572040558,
            0.08076030015945435,
            0.19094416499137878,
            -0.022259945049881935,
            -0.14914265275001526,
            0.12477470189332962,
            0.038220517337322235,
            -0.0763031616806984,
            0.06325289607048035,
            0.02459612861275673,
            -0.012449423782527447,
            0.0564691387116909,
            0.059050559997558594,
            -0.22082257270812988,
            -0.09573971480131149,
            -0.21592828631401062,
            0.09026099741458893,
            -0.17388872802257538,
            0.23064330220222473,
            0.06709058582782745,
            -0.3624517619609833,
            0.1326916366815567,
            -0.2444370687007904,
            -0.15124420821666718,
            0.029017984867095947,
            -0.25700822472572327,
            -0.08682917803525925,
            -0.7812286019325256,
            0.0625702291727066,
            -0.40417909622192383,
            0.2437172383069992,
            0.07775700837373734,
            0.1835542470216751,
            0.27822208404541016,
            -0.06095883622765541,
            -0.4206971824169159,
            -0.24461032450199127,
            -0.07583871483802795,
            0.3846436142921448,
            -0.17462939023971558,
            -0.0077551803551614285,
            -0.038056857883930206,
            -0.4447828233242035,
            -0.05055627226829529,
            -0.237651064991951,
            -0.12150386720895767,
            -0.02105903811752796,
            -0.09422387182712555,
            0.15529470145702362,
            0.10749714076519012,
            -0.15817998349666595,
            0.03086460940539837,
            0.061645086854696274,
            -0.434312105178833,
            0.1170664131641388,
            -0.3004525303840637,
            0.19424235820770264,
            0.4770328998565674,
            -0.18207915127277374,
            0.08279814571142197,
            -0.18780890107154846,
            -0.5028475522994995,
            0.0056721181608736515,
            0.28927451372146606,
            0.3725566267967224,
            -0.16626381874084473,
            0.007770100608468056,
            0.3146106004714966,
            -0.37613216042518616,
            -0.42114558815956116,
            0.07484479248523712,
            -0.12181181460618973,
            0.07030460983514786,
            -0.06947237998247147,
            -0.2337053120136261,
            0.6856462955474854,
            -0.5780664682388306,
            -0.07137015461921692,
            -0.3204544484615326,
            -0.027478771284222603,
            -0.22356489300727844,
            0.18907636404037476,
            0.194928377866745,
            0.14113827049732208,
            0.31636562943458557,
            0.12196598201990128,
            -0.1969052255153656,
            0.023715520277619362,
            -0.05918925628066063,
            -0.15606172382831573,
            0.25091108679771423,
            0.4641369581222534,
            0.2826462984085083,
            0.5437568426132202,
            0.21165965497493744,
            1.1606885194778442,
            -0.17459656298160553,
            -0.04886893928050995,
            0.033150266855955124,
            -0.1334187090396881,
            -0.2174946814775467,
            -0.16312146186828613,
            -0.1311645805835724,
            0.12160460650920868,
            0.2672908306121826,
            -0.191672220826149,
            -0.06337827444076538,
            0.0037497724406421185,
            0.04647979140281677,
            0.1861315816640854,
            0.0956774577498436,
            -0.15549950301647186,
            0.13887929916381836,
            -0.14697174727916718,
            -0.06082037836313248,
            -0.012819336727261543,
            0.1951502114534378,
            -0.19028432667255402,
            -0.22940464317798615,
            -0.040074288845062256,
            -0.38853126764297485,
            -0.057528868317604065,
            0.08987030386924744,
            0.1299883872270584,
            0.12436608225107193,
            -0.0014415985206142068,
            0.13350960612297058,
            -0.037905991077423096,
            -0.27143967151641846,
            -0.33249735832214355,
            0.21815131604671478,
            -0.27038511633872986,
            0.0784931406378746,
            0.4857838451862335,
            -0.31293877959251404,
            0.5178727507591248,
            0.3707450330257416,
            -0.005547941196709871,
            -0.04614855721592903,
            0.02203552983701229,
            -0.08356329053640366,
            0.08529581874608994,
            0.05541504919528961,
            0.2645992636680603,
            0.2009633630514145,
            0.1101156547665596,
            0.01396628562361002,
            0.4482458233833313,
            0.07125779986381531,
            -0.0467328242957592,
            0.039915282279253006,
            0.11507425457239151,
            0.29475295543670654,
            0.006373298354446888,
            0.28038132190704346,
            -0.17046743631362915,
            -0.15062092244625092,
            0.26699551939964294,
            0.08113308995962143,
            0.06135188788175583,
            0.16615355014801025,
            -0.3296445906162262,
            0.22886870801448822,
            -0.21154727041721344,
            -0.3524910509586334,
            0.17326608300209045,
            0.26280075311660767,
            -0.29391223192214966,
            -0.010977726429700851,
            -0.005726506933569908,
            -0.09292692691087723,
            0.6335991024971008,
            0.32380276918411255,
            0.24801215529441833,
            -0.06958580017089844,
            -0.3577605187892914,
            0.017880558967590332,
            0.8032811880111694,
            -0.1603640615940094,
            -0.4272054135799408,
            -0.188694566488266,
            -0.1756577044725418,
            -0.04415798932313919,
            0.3200463652610779,
            -0.32374945282936096,
            -0.20467080175876617,
            0.17172178626060486,
            0.4172799587249756,
            -0.06931550800800323,
            -0.05145874619483948,
            -0.1008685752749443,
            -0.2156805396080017,
            -0.07783043384552002,
            -0.4603155553340912,
            -0.04908556491136551,
            0.002204708755016327,
            0.3547738194465637,
            -0.16901789605617523,
            -0.26320379972457886,
            0.12210698425769806,
            -0.3700394034385681,
            0.09490194171667099,
            0.34259212017059326,
            -0.3334035277366638,
            -0.06722672283649445,
            -0.1417027860879898,
            0.06997852772474289,
            0.1880362182855606,
            -0.12140028923749924,
            -0.20944292843341827,
            0.23568251729011536,
            0.010756692849099636,
            0.3629303276538849,
            1.0212376117706299,
            -0.38227030634880066,
            -0.3323158025741577,
            0.11304769665002823,
            -0.08738946914672852,
            0.0015582259511575103,
            -0.17832791805267334,
            0.1192433089017868,
            -0.04809008538722992,
            -0.2904694676399231,
            0.5736070871353149,
            1.878122091293335,
            0.018545376136898994,
            0.35035523772239685,
            -0.13028472661972046,
            -0.5020396709442139,
            0.06042539328336716,
            0.3270326554775238,
            -0.28673848509788513,
            0.21618850529193878,
            0.20472760498523712,
            -0.0749787837266922,
            -0.21884450316429138,
            -0.842459499835968,
            -0.15810807049274445,
            -0.12188895046710968,
            -0.10154920816421509,
            -0.37508028745651245,
            -0.07934631407260895,
            -0.09414892643690109,
            0.1767130345106125,
            -0.016860488802194595,
            -0.5298678278923035,
            -0.10944462567567825,
            -0.4117664396762848,
            -0.10161378234624863,
            -0.3884051442146301,
            0.5438373684883118,
            -0.4879591763019562,
            -0.748380720615387,
            0.22847552597522736,
            -0.261900931596756,
            1.0129226446151733,
            -0.09094668924808502,
            -0.2603270411491394,
            -0.03307588770985603,
            -0.294269859790802,
            -0.018071426078677177,
            -0.026282917708158493,
            -0.13975690305233002,
            0.5177023410797119,
            1.193064570426941,
            -0.08556882292032242,
            0.6005896925926208,
            0.2061876803636551,
            -0.13561296463012695,
            -0.0986887589097023,
            0.2924036383628845,
            -0.11934821307659149,
            0.0859181135892868,
            -0.03223814070224762,
            -0.1810440570116043,
            -0.13028600811958313,
            -0.46132078766822815,
            -0.24054433405399323,
            -0.8004074692726135,
            -0.19827474653720856,
            -0.41969063878059387,
            -0.07061107456684113,
            -0.16043071448802948,
            -0.08297934383153915,
            0.10178834944963455,
            -0.34920158982276917,
            0.26502525806427,
            -0.5233122706413269,
            -0.1581776887178421,
            -0.11790148913860321,
            0.23806266486644745,
            -1.2837352752685547,
            -0.24373012781143188,
            0.5376430153846741,
            -0.03692390024662018,
            1.9029302597045898,
            -0.044126562774181366,
            0.08184985816478729,
            -0.01880263350903988,
            -0.6327170133590698,
            -0.5982034802436829,
            -0.004151888657361269,
            -0.10901246964931488,
            0.14458492398262024,
            0.726308286190033,
            0.28507179021835327,
            -0.020908597856760025,
            0.20191054046154022,
            -0.336597740650177,
            -0.6816163063049316,
            -0.1678483933210373,
            0.3850415349006653,
            0.11458595097064972,
            -0.3232894837856293,
            0.5383245944976807,
            -0.8561955690383911,
            -0.6694372296333313,
            -0.05094395577907562,
            -0.45301365852355957,
            -0.12909270823001862,
            -0.33699071407318115,
            -0.2661525309085846,
            -0.0262855626642704,
            -0.05645487830042839,
            -2.6386265754699707,
            -0.130730539560318,
            0.27172771096229553,
            -0.6867996454238892,
            0.15001261234283447,
            -0.1722286343574524,
            -0.2176521122455597,
            2.001208782196045,
            0.9461131691932678,
            0.15507924556732178,
            -0.36257532238960266,
            -3.2331888675689697,
            -0.2682880759239197,
            -0.17406241595745087,
            -0.09396219253540039,
            -0.8298328518867493,
            -0.014903735369443893,
            0.03781454637646675,
            -0.30869439244270325,
            0.8573420643806458,
            -0.4404942989349365,
            -0.6989102959632874,
            0.6262408494949341,
            -1.2668170928955078,
            -0.43658602237701416,
            -0.5735027194023132,
            -0.15457187592983246,
            -0.3164304494857788,
            -0.4341452419757843,
            -0.23753777146339417,
            0.03830711171030998,
            -0.8850113153457642,
            -0.4202618896961212,
            -0.5801999568939209,
            -0.7121764421463013,
            -0.4698576331138611,
            -0.4175822138786316,
            -0.5616897940635681,
            -0.47997549176216125,
            -0.7919436097145081,
            -0.24451379477977753,
            -0.5872911214828491,
            -0.16205506026744843,
            -0.2037017047405243,
            -0.03419060632586479,
            -0.4109656512737274,
            0.4015454947948456,
            0.31354984641075134,
            -0.48940038681030273,
            0.26788437366485596,
            -0.18219175934791565,
            -0.5990045666694641,
            0.015405750833451748,
            -0.007132359780371189,
            0.082547627389431,
            0.0033171619288623333,
            -0.20782142877578735,
            0.10610834509134293,
            -0.06478150188922882,
            -0.0347345694899559,
            -0.1535019874572754,
            0.11048910766839981,
            0.06272485107183456,
            0.09475478529930115,
            0.19927629828453064,
            0.2676221430301666,
            0.38488563895225525,
            0.10490590333938599,
            0.10018125921487808,
            -0.008267300203442574,
            0.049135684967041016,
            0.1927729994058609,
            -0.2965017259120941,
            -0.01885431632399559,
            0.2731115221977234,
            0.019955070689320564,
            -0.07706265151500702,
            -0.0644521564245224,
            -0.16317130625247955,
            -0.06154390051960945,
            -0.4323674440383911,
            0.08220047503709793,
            0.2769024074077606,
            0.1098034530878067,
            0.04605771228671074,
            -0.04605115205049515,
            0.08773975819349289,
            -0.28944650292396545,
            0.24854619801044464,
            0.17119117081165314,
            0.16843530535697937,
            0.46832501888275146,
            0.09378724545240402,
            0.11883039772510529,
            -0.10893899947404861,
            -0.05552428588271141,
            0.07180261611938477,
            0.0026670419611036777,
            0.037078797817230225,
            0.026689931750297546,
            -0.007691626902669668,
            0.040750548243522644,
            -0.09057614207267761,
            -0.08160252124071121,
            0.3522823750972748,
            0.13353902101516724,
            0.2424270063638687,
            0.07465057075023651,
            0.17462609708309174,
            0.07725980877876282,
            0.046425625681877136,
            0.21037214994430542,
            0.14770051836967468,
            0.21798983216285706,
            -0.0021509393118321896,
            0.11327937245368958,
            -0.04566732794046402,
            0.13510529696941376,
            0.2024255245923996,
            -0.08223933726549149,
            -0.026356099173426628,
            0.10524514317512512,
            0.3116110861301422,
            -0.19407561421394348,
            -0.06055876240134239,
            0.020952442660927773,
            0.08223796635866165,
            0.16257275640964508,
            0.23602621257305145,
            0.1626562774181366,
            -0.10434019565582275,
            0.43393808603286743,
            0.15296275913715363,
            -0.0013031072448939085,
            -0.031624987721443176,
            0.23168177902698517,
            0.28762727975845337,
            -0.11201302707195282,
            -0.1006942167878151,
            -0.17122969031333923,
            -0.062473002821207047,
            0.05982048064470291,
            -0.013891622424125671,
            0.1528921276330948,
            0.031150227412581444,
            0.06051269918680191,
            -0.16707545518875122,
            0.04711674153804779,
            -0.2746826708316803,
            0.17646324634552002,
            -0.06325948983430862,
            -0.15570951998233795,
            0.05595298483967781,
            -0.10808777064085007,
            -0.0060963984578847885,
            0.06448432058095932,
            0.10699809342622757,
            0.003105768235400319,
            0.1851510852575302,
            -0.0655357614159584,
            0.226143017411232,
            0.13054503500461578,
            -0.17042088508605957,
            0.17213915288448334,
            -0.14146484434604645,
            -0.1860560178756714,
            0.06216612085700035,
            -0.250662237405777,
            0.09444713592529297,
            0.26885586977005005,
            -0.24613624811172485,
            0.008380359038710594,
            -0.19894224405288696,
            -0.07606739550828934,
            -0.12627939879894257,
            -0.2484925538301468,
            -0.03191434592008591,
            0.10050590336322784,
            0.062432192265987396,
            0.011354601010680199,
            -0.24033991992473602,
            -0.05352327600121498,
            0.12993332743644714,
            0.06276731193065643,
            0.5942996144294739,
            0.12720566987991333,
            0.02805905230343342,
            -0.02662975713610649,
            -0.15958285331726074,
            -0.004460070747882128,
            -0.11692629754543304,
            -0.010519137606024742,
            0.4069713354110718,
            -0.07327903062105179,
            -0.26086559891700745,
            -0.026124995201826096,
            -0.02699953131377697,
            -0.039105430245399475,
            -0.1592862606048584,
            -0.027127737179398537,
            0.003647166071459651,
            0.17589473724365234,
            0.0615326464176178,
            0.10238770395517349,
            0.08292929828166962,
            0.19733142852783203,
            -0.18742959201335907,
            0.02482871524989605,
            -0.023282768204808235,
            0.4467739462852478,
            -0.2111138254404068,
            -0.05519977584481239,
            0.16279849410057068,
            0.19884249567985535,
            -0.05347224324941635,
            0.333914577960968,
            -0.40274325013160706,
            -0.057425372302532196,
            -0.1577107310295105,
            0.1927836388349533,
            0.27071115374565125,
            0.2903681993484497,
            0.30591368675231934,
            -0.11858628690242767,
            0.32421955466270447,
            -0.17068737745285034,
            0.1825992912054062,
            -0.2892269194126129,
            0.5618370771408081,
            -0.29508867859840393,
            0.1816643476486206,
            -0.1544039100408554,
            0.09634068608283997,
            0.4112145006656647,
            0.0917215645313263,
            0.44965118169784546,
            0.06920554488897324,
            0.17022544145584106,
            0.15104568004608154,
            0.6383163332939148,
            0.038015373051166534,
            0.027950244024395943,
            0.2223263531923294,
            -0.0670359805226326,
            0.0068457345478236675,
            -0.03160623461008072,
            0.20980215072631836,
            -0.1487482190132141,
            0.06093667447566986,
            0.09637850522994995,
            -0.09537704288959503,
            0.012880931608378887,
            0.04045138135552406,
            0.5674915313720703,
            0.0165143720805645,
            0.2869339883327484,
            -0.08864697068929672,
            -0.20287993550300598,
            0.22338759899139404,
            0.11196661740541458,
            0.45630943775177,
            -0.2869633734226227,
            0.3876761198043823,
            -0.1882953941822052,
            0.2797592282295227,
            0.03200552240014076,
            0.23751001060009003,
            -0.44690197706222534,
            0.14256571233272552,
            -0.32293418049812317,
            -0.19168923795223236,
            0.33970609307289124,
            0.16904599964618683,
            0.309431791305542,
            -0.062386736273765564,
            0.4599064588546753,
            0.08483990281820297,
            0.495068222284317,
            0.5414431095123291,
            0.585792601108551,
            0.04536917060613632,
            0.23842690885066986,
            -0.17478881776332855,
            0.16468562185764313,
            -0.0018167857779189944,
            0.04078429564833641,
            0.2891208827495575,
            -0.093815878033638,
            0.011215277016162872,
            0.3414855897426605,
            0.026172522455453873,
            0.3081684112548828,
            -0.08826089650392532,
            -0.46538758277893066,
            0.14616884291172028,
            0.20674869418144226,
            0.0783458799123764,
            0.17967794835567474,
            -0.11817079782485962,
            0.22811755537986755,
            0.38439270853996277,
            0.07395864278078079,
            0.4773463308811188,
            0.2596450448036194,
            0.21145182847976685,
            0.2976197302341461,
            -0.12383721768856049,
            -0.08502078801393509,
            -0.19817914068698883,
            0.31467223167419434,
            0.003584213787689805,
            0.4203338623046875,
            -0.09665102511644363,
            0.27560004591941833,
            -0.20711742341518402,
            0.21217948198318481,
            0.2059699147939682,
            -0.34568536281585693,
            0.4030326008796692,
            -0.1425194889307022,
            -0.34290510416030884,
            0.15066364407539368,
            -0.568754255771637,
            -0.04421001300215721,
            0.1651304066181183,
            0.34514692425727844,
            0.1916382759809494,
            0.10900910943746567,
            0.09743071347475052,
            0.3656858205795288,
            -0.18389979004859924,
            -0.08830749988555908,
            -0.0013546410482376814,
            0.3404074013233185,
            -0.21783457696437836,
            0.24622385203838348,
            -0.2923937439918518,
            -0.12508617341518402,
            0.15035422146320343,
            0.11879778653383255,
            -0.23387160897254944,
            -0.10534071922302246,
            0.11292217671871185,
            0.620154619216919,
            0.29791125655174255,
            0.0027188656385987997,
            -0.3509044647216797,
            -0.26688382029533386,
            -0.020979784429073334,
            -0.2628399729728699,
            -0.09193264693021774,
            -0.2846815288066864,
            0.3039475679397583,
            0.017090782523155212,
            -0.19581376016139984,
            0.10916998982429504,
            0.3623018264770508,
            0.14828114211559296,
            0.08660930395126343,
            0.4320794343948364,
            -0.12741009891033173,
            0.17089632153511047,
            -0.005747882649302483,
            0.11090806126594543,
            -0.18035398423671722,
            0.08204703778028488,
            -0.01621284894645214,
            -0.024960145354270935,
            -0.06420934945344925,
            0.3374122977256775,
            -0.3140105903148651,
            0.15316422283649445,
            -0.018819663673639297,
            -0.36781033873558044,
            0.06626270711421967,
            -0.1050119400024414,
            -0.30182090401649475,
            0.08401977270841599,
            -0.07751177996397018,
            0.07650377601385117,
            -0.1641657054424286,
            0.10726916044950485,
            -0.07031996548175812,
            -0.1726461499929428,
            0.16452278196811676,
            0.22432327270507812,
            0.00749012129381299,
            -0.06568726897239685,
            -0.04176751896739006,
            -0.1816965937614441,
            0.1439058780670166,
            -0.4163844883441925,
            0.32576730847358704,
            -0.11437125504016876,
            0.05703062191605568,
            -0.20156826078891754,
            -0.033567458391189575,
            -0.09810816496610641,
            0.012769035063683987,
            -0.08071567118167877,
            -0.41342031955718994,
            -0.21320970356464386,
            0.05981767177581787,
            -0.1774628460407257,
            -0.021589625626802444,
            0.10445332527160645,
            0.019370345398783684,
            -0.3402857482433319,
            -0.3287554085254669,
            -0.1450323462486267,
            -0.2870367169380188,
            -0.10792897641658783,
            -0.1284148097038269,
            -0.06267140060663223,
            0.05283202975988388,
            -0.02613271214067936,
            0.11811129748821259,
            0.12772679328918457,
            0.0502488948404789,
            -0.11694435775279999,
            0.1400715559720993,
            -0.29329395294189453,
            0.024088088423013687,
            -0.12987835705280304,
            0.00906446110457182,
            -0.4278206527233124,
            0.0629139095544815,
            0.07462549954652786,
            0.0264529287815094,
            -0.14940179884433746,
            -0.11253467947244644,
            0.003348561702296138,
            -0.5100339651107788,
            0.1551242470741272,
            -0.19221539795398712,
            -0.029981771484017372,
            -0.1577540785074234,
            -0.08983700722455978,
            0.04212630167603493,
            0.06653402000665665,
            -0.15684962272644043,
            -0.1296273171901703,
            -0.36683550477027893,
            -0.125560462474823,
            0.03969567269086838,
            0.018001651391386986,
            -0.08291181921958923,
            0.0672697126865387,
            0.0683286115527153,
            0.0553198978304863,
            -0.13973356783390045,
            0.20697180926799774,
            0.01931576058268547,
            0.18260927498340607,
            0.13870270550251007,
            -0.08400321006774902,
            0.20079405605793,
            0.14936792850494385,
            -0.15184397995471954,
            -0.1889665126800537,
            -0.16349360346794128,
            -0.00038423630758188665,
            0.05041464418172836,
            0.11559029668569565,
            0.1305227130651474,
            0.14459261298179626,
            0.2833590805530548,
            -0.08287002891302109,
            -0.15081177651882172,
            0.26228177547454834,
            0.14797377586364746,
            -0.17261211574077606,
            -0.09409018605947495,
            -0.0071375612169504166,
            -0.19405487179756165,
            -0.04461313411593437,
            -0.04722297936677933,
            0.19482272863388062,
            -0.13584545254707336,
            0.23333130776882172,
            -0.16050800681114197,
            -0.25045183300971985,
            -0.08861400187015533,
            -0.19474461674690247,
            0.23267723619937897,
            0.11090733110904694,
            -0.04497116804122925,
            -0.010077605955302715,
            -0.08176855742931366,
            0.051041703671216965,
            0.055306773632764816,
            0.08577501028776169,
            0.004304193425923586,
            -0.26119115948677063,
            -0.020696010440587997,
            -0.13657569885253906,
            -0.3041653633117676,
            0.04739287495613098,
            -0.13360436260700226,
            0.010649232193827629,
            -0.18724893033504486,
            -0.1247003972530365,
            -0.2973461151123047,
            -0.23230783641338348,
            0.08109923452138901,
            -0.24043221771717072,
            -0.029384560883045197,
            -0.0742613896727562,
            -0.11413978785276413,
            -0.13714884221553802,
            -0.07525339722633362,
            -0.4386034905910492,
            -0.20843257009983063,
            -0.12491701543331146,
            0.018066223710775375,
            -0.30886372923851013,
            0.10854561626911163,
            0.040369268506765366,
            -0.07582172006368637,
            -0.06885822862386703,
            -0.04058266803622246,
            -0.011697457171976566,
            -0.33487480878829956,
            -0.24315956234931946,
            0.04520793631672859,
            -0.12200804054737091,
            -0.13516956567764282,
            -0.11274050921201706,
            -0.12282051891088486,
            -0.10601914674043655,
            -0.13764533400535583,
            -0.14585112035274506,
            -0.012567156925797462,
            0.23551324009895325,
            -0.0387871190905571,
            0.34602344036102295,
            0.08150490373373032,
            -0.22569461166858673,
            0.20286257565021515,
            0.0951174721121788,
            0.04611214995384216,
            0.1040729284286499,
            0.061082784086465836,
            0.26041609048843384,
            -0.061964601278305054,
            -0.27272629737854004,
            0.12664879858493805,
            -0.03510649502277374,
            0.6386480927467346,
            -0.1948142945766449,
            0.02044525370001793,
            0.5082789063453674,
            -0.0862526148557663,
            -0.251376748085022,
            -0.1835344433784485,
            -0.07828199118375778,
            0.07651911675930023,
            -0.04913724213838577,
            0.14489123225212097,
            0.08065396547317505,
            0.2688952684402466,
            0.19202865660190582,
            -0.1426704376935959,
            0.006946146953850985,
            0.1214265450835228,
            0.028000544756650925,
            0.10333296656608582,
            0.2443319857120514,
            0.42804914712905884,
            0.20704276859760284,
            0.25337865948677063,
            0.539577305316925,
            0.06875047087669373,
            0.11516844481229782,
            0.026615411043167114,
            0.030896104872226715,
            0.057674095034599304,
            -0.2199169546365738,
            0.09051914513111115,
            -0.05903163552284241,
            0.10632640868425369,
            0.35299161076545715,
            0.06732732802629471,
            0.16470012068748474,
            -0.2699733078479767,
            0.3623090386390686,
            0.35590288043022156,
            0.054969046264886856,
            0.6071558594703674,
            -0.084292471408844,
            0.10325454920530319,
            0.08079151064157486,
            0.5408987998962402,
            0.03378676623106003,
            0.0009119967580772936,
            -0.0077384766191244125,
            0.04943385720252991,
            -0.029915140941739082,
            -0.024706725031137466,
            0.12153375893831253,
            -0.023165790364146233,
            -0.053070154041051865,
            0.35398197174072266,
            0.14600704610347748,
            -0.13365796208381653,
            -0.15695564448833466,
            0.191985622048378,
            -0.12151577323675156,
            0.16277410089969635,
            0.17159207165241241,
            -0.00013724529708269984,
            0.4409043788909912,
            0.014487138018012047,
            0.06789548695087433,
            -0.23794689774513245,
            -0.221532940864563,
            0.0816514864563942,
            0.11892182379961014,
            0.11351989209651947,
            0.026081131771206856,
            0.11954060196876526,
            -0.2677139341831207,
            0.13489465415477753,
            -0.12225370109081268,
            0.0949263870716095,
            0.03557060658931732,
            -0.1847269982099533,
            -0.16247393190860748,
            0.23731917142868042,
            0.29228076338768005,
            -0.03910525515675545,
            0.10326925665140152,
            0.101729616522789,
            -0.12118617445230484,
            0.03340768814086914,
            -0.10268210619688034,
            0.1738308221101761,
            0.0987926498055458,
            -0.024006590247154236,
            -0.05085388943552971,
            -0.14416639506816864,
            -0.07724826037883759,
            0.0809575542807579,
            -0.005749701522290707,
            -0.08226250112056732,
            -0.2750230133533478,
            0.24666200578212738,
            0.0912238210439682,
            -0.17447863519191742,
            -0.12621141970157623,
            0.1790136694908142,
            -0.11271817237138748,
            -0.039508748799562454,
            0.12887221574783325,
            0.05000210553407669,
            0.1769389808177948,
            0.2247353494167328,
            -0.007562513463199139,
            0.393853098154068,
            0.11254262924194336,
            0.02464229054749012,
            0.040954675525426865,
            0.032205045223236084,
            0.5344369411468506,
            0.03456241637468338,
            0.5181032419204712,
            -0.15567025542259216,
            -0.05167671665549278,
            0.13387513160705566,
            -0.22364307940006256,
            -0.017284255474805832,
            0.3084811270236969,
            0.5513875484466553,
            0.10640329122543335,
            0.028215767815709114,
            0.07509059458971024,
            -0.02451835572719574,
            0.024193527176976204,
            0.1776314526796341,
            0.009552864357829094,
            0.3969033658504486,
            0.18428513407707214,
            0.21705226600170135,
            0.3111126124858856,
            -0.1503515988588333,
            -0.0033048484474420547,
            0.2503184378147125,
            0.15656864643096924,
            0.8158029317855835,
            0.14934279024600983,
            -0.007653557695448399,
            -0.052075907588005066,
            -0.009813490323722363,
            0.08808809518814087,
            0.08365795761346817,
            0.11656612157821655,
            0.34940749406814575,
            0.027629395946860313,
            0.07893373817205429,
            0.09232954680919647,
            0.1630783975124359,
            -0.1632985919713974,
            0.1351405829191208,
            0.03386543691158295,
            0.0023429288994520903,
            -0.3246806859970093,
            0.32443150877952576,
            0.22505448758602142,
            0.07643017172813416,
            0.2357109934091568,
            -0.02422432042658329,
            0.40885236859321594,
            -0.5253159999847412,
            -0.07678181678056717,
            -0.051311347633600235,
            0.10272044688463211,
            -0.02738599292933941,
            0.19042162597179413,
            0.044736508280038834,
            0.0888853594660759,
            0.4643852412700653,
            0.05721988156437874,
            -0.24615901708602905,
            0.27574506402015686,
            0.2499774843454361,
            0.23133225739002228,
            0.04910553991794586,
            0.2512570917606354,
            0.07215916365385056,
            0.10158371180295944,
            0.07731097936630249,
            0.21230366826057434,
            -0.05320470407605171,
            -0.032549649477005005,
            -0.1314237415790558,
            0.11604626476764679,
            -0.26854071021080017,
            -0.04510807245969772,
            -0.110923171043396,
            0.10701760649681091,
            0.18063466250896454,
            0.3805071711540222,
            0.19029000401496887,
            -0.05600718408823013,
            -0.10671568661928177,
            0.42753541469573975,
            0.1668582409620285,
            -0.08727766573429108,
            0.11351098120212555,
            -0.02750108763575554,
            0.17224723100662231,
            -0.022111129015684128,
            0.669151246547699,
            0.041404012590646744,
            0.02783760242164135,
            -0.07925904542207718,
            0.14476579427719116,
            0.18544213473796844,
            -0.06475301831960678,
            0.14400622248649597,
            -0.029565490782260895,
            -0.08049231022596359,
            0.3676143288612366,
            0.12772542238235474,
            0.034322019666433334,
            -0.10407432168722153,
            -0.040373753756284714,
            -0.012407626956701279,
            0.12566879391670227,
            0.031834717839956284,
            0.19672489166259766,
            -0.04292269051074982,
            -0.2725151479244232,
            -0.07980070263147354,
            -0.29587191343307495,
            0.06512757390737534,
            -0.10010969638824463,
            -0.06973719596862793,
            0.07658784091472626,
            -0.054220959544181824,
            0.008425876498222351,
            -0.13255152106285095,
            -0.10825394839048386,
            -0.030615372583270073,
            0.0338653065264225,
            -0.07655372470617294,
            -0.24505402147769928,
            -0.03398269787430763,
            0.02926497533917427,
            -0.21168400347232819,
            -0.11702942848205566,
            0.26394200325012207,
            -0.06874953955411911,
            -0.020152077078819275,
            0.15045419335365295,
            0.12218804657459259,
            0.1868717223405838,
            -0.12307996302843094,
            0.0565347857773304,
            -0.28392699360847473,
            0.02550339139997959,
            0.0341816209256649,
            -0.08661190420389175,
            0.05535988509654999,
            -0.01115911453962326,
            -0.027223505079746246,
            0.17423298954963684,
            -0.14320436120033264,
            -0.22594068944454193,
            -0.11012788116931915,
            -0.10390932112932205,
            -0.09113550186157227,
            0.1505187749862671,
            0.24158230423927307,
            -0.08347653597593307,
            0.2526646852493286,
            0.14896099269390106,
            -0.050350040197372437,
            0.09743643552064896,
            0.16650299727916718,
            0.06343166530132294,
            0.20931720733642578,
            0.3150995373725891,
            0.1879446655511856,
            -0.06609375774860382,
            0.24908818304538727,
            -0.031294479966163635,
            -0.0689045712351799,
            0.11575523763895035,
            -0.09170743823051453,
            0.1694227159023285,
            0.38204944133758545,
            0.3557436764240265,
            0.105625219643116,
            0.044974979013204575,
            0.18459166586399078,
            0.11528168618679047,
            0.026983529329299927,
            0.3617028594017029,
            0.13704198598861694,
            0.0973297655582428,
            -0.040012605488300323,
            0.3016617000102997,
            0.3747881054878235,
            0.14309339225292206,
            -0.047622326761484146,
            0.09508688002824783,
            0.08514136075973511,
            0.2413700670003891,
            0.25992926955223083,
            -0.07169671356678009,
            0.1301003247499466,
            -0.11634710431098938,
            -0.28758320212364197,
            -0.12312915921211243,
            -0.05743902549147606,
            -0.25786978006362915,
            -0.0029553452041000128,
            -0.11902130395174026,
            0.09989528357982635,
            -0.03189262002706528,
            0.13109928369522095,
            -0.10993663221597672,
            -0.4792654812335968,
            0.16664282977581024,
            0.11079040914773941,
            -0.017737088724970818,
            -0.1791558861732483,
            0.15313619375228882,
            -0.12561734020709991,
            0.17248636484146118,
            -0.30897101759910583,
            0.275746613740921,
            -0.0575517900288105,
            0.07728223502635956,
            -0.011474329978227615,
            -0.048590678721666336,
            -0.007973841391503811,
            -0.3385531008243561,
            -0.024717146530747414,
            -0.44088226556777954,
            -0.024715982377529144,
            0.026143861934542656,
            0.010286370292305946,
            0.06600587069988251,
            0.07973846793174744,
            -0.03453056141734123,
            -0.37739232182502747,
            -0.15005998313426971,
            -0.22981664538383484,
            0.01602855511009693,
            0.10208485275506973,
            -0.07572552561759949,
            -0.09615590423345566,
            -0.16896909475326538,
            -0.1122811883687973,
            0.120539590716362,
            -0.06753720343112946,
            0.1571250855922699,
            0.01739518716931343,
            -0.08090807497501373,
            -0.3116488754749298,
            -0.25488123297691345,
            -0.28410401940345764,
            0.009394335560500622,
            -0.3523559272289276,
            -0.12370798736810684,
            -0.048090267926454544,
            -0.18177272379398346,
            -0.08951018750667572,
            -0.08202838152647018,
            0.1112096905708313,
            -0.6843444108963013,
            -0.07460832595825195,
            -0.2584517002105713,
            -0.1994418054819107,
            0.016430603340268135,
            0.008969111368060112,
            -0.1874338835477829,
            -0.031222743913531303,
            -0.0028044336941093206,
            -0.05528254061937332,
            -0.10028404742479324,
            -0.08686289936304092,
            -0.20326769351959229,
