{
    "preamp": {
        "linWeight": [
            -0.19424396753311157,
            -0.08562313765287399,
            -0.041369300335645676,
            -0.4500051438808441,
            0.02785359136760235,
            -0.4501381814479828,
            -0.41449177265167236,
            0.2281825989484787,
            -0.345079243183136,
            0.2779352068901062,
            0.31686100363731384,
            0.6584497094154358,
            0.18536926805973053,
            0.21067872643470764,
            -0.8598819971084595,
            0.2809353768825531,
            -0.4544637203216553,
            -0.04585440456867218,
            0.31513553857803345,
            0.026281367987394333,
            -0.40136784315109253,
            -0.14097072184085846,
            -0.06609182059764862,
            -0.04627254232764244,
            0.03340023756027222,
            0.32277560234069824,
            1.0839742422103882,
            -1.356261968612671,
            -0.5874909162521362,
            -0.4948577880859375,
            0.5769898295402527,
            0.007549969479441643,
            0.22056487202644348,
            -0.05366384610533714,
            -0.05937821790575981,
            0.3221527636051178,
            0.09023775160312653,
            -0.6321011781692505,
            -0.2520084083080292,
            0.20193925499916077
        ],
        "linBias": [
            -0.13197802007198334
        ],
        "recWeightInput": [
            0.3457896113395691,
            0.37727123498916626,
            1.3642023801803589,
            0.030095165595412254,
            -0.855753481388092,
            -1.366627812385559,
            0.4181860685348511,
            0.5729610323905945,
            0.1347343921661377,
            -0.07174868881702423,
            2.01347017288208,
            0.07823227345943451,
            -0.5019412040710449,
            -0.3622785806655884,
            -0.05075566843152046,
            0.10137812793254852,
            -0.114658422768116,
            1.4618289470672607,
            -0.35287854075431824,
            0.2751346230506897,
            0.16407187283039093,
            -1.0281974077224731,
            -0.0002125774190062657,
            1.2042996883392334,
            1.4671345949172974,
            0.281704843044281,
            -0.0003627508704084903,
            0.21937237679958344,
            -0.17840014398097992,
            0.05600399896502495,
            -0.24716706573963165,
            0.278558611869812,
            -0.4321329891681671,
            0.34058335423469543,
            -0.5427693724632263,
            0.39553582668304443,
            0.14622128009796143,
            -0.014462057501077652,
            0.08350653201341629,
            -0.8224664330482483,
            0.03220789134502411,
            0.7386621236801147,
            1.8282674551010132,
            0.6919992566108704,
            -0.563421368598938,
            -1.5137748718261719,
            0.19831010699272156,
            0.2963568866252899,
            0.28099027276039124,
            -0.20527048408985138,
            1.2344131469726562,
            -1.1510695219039917,
            -0.89543616771698,
            -0.10144052654504776,
            -0.41977331042289734,
            0.1876017302274704,
            0.3512348532676697,
            0.4294629693031311,
            0.40605559945106506,
            0.5922084450721741,
            0.30434927344322205,
            -0.6715344190597534,
            -0.21650439500808716,
            0.804604709148407,
            1.319967269897461,
            0.652472198009491,
            -0.2700679302215576,
            -0.15202610194683075,
            -0.6356000304222107,
            -0.5596920847892761,
            -0.1229173019528389,
            0.6101952791213989,
            -0.6272650361061096,
            0.3864647448062897,
            -0.9827824831008911,
            0.27358242869377136,
            -0.02800762467086315,
            -0.17063283920288086,
            0.19628801941871643,
            -1.210667371749878,
            0.7214879393577576,
            0.3637215495109558,
            -3.9267263412475586,
            2.6252496242523193,
            -0.09512195736169815,
            1.1539150476455688,
            0.9974458813667297,
            -0.2975841462612152,
            1.7225788831710815,
            -0.6907119750976562,
            -0.6786777377128601,
            2.019047260284424,
            0.35665363073349,
            -0.44226816296577454,
            -0.39984259009361267,
            0.3512897789478302,
            1.021451711654663,
            -1.6537383794784546,
            -1.3425668478012085,
            -0.133734792470932,
            -1.5157694816589355,
            -1.5067435503005981,
            0.5866602063179016,
            -0.6950910091400146,
            -1.5971672534942627,
            0.5757095217704773,
            -0.20102398097515106,
            0.3120308518409729,
            0.6039643287658691,
            -0.4201715886592865,
            -0.08270948380231857,
            0.5577521920204163,
            0.6698534488677979,
            0.2234049290418625,
            -0.22844970226287842,
            0.23580169677734375,
            -0.41101551055908203,
            0.6040950417518616,
            0.8436532020568848,
            -0.7963843941688538,
            0.23641487956047058,
            -0.03713569417595863,
            0.026035308837890625,
            -0.8826830387115479,
            -0.8657318353652954,
            -2.9202308654785156,
            -0.1462702453136444,
            -0.048032473772764206,
            -0.03153056651353836,
            0.0796922892332077,
            1.9100674390792847,
            -0.2268361747264862,
            -1.0873621702194214,
            0.264949768781662,
            -0.5381037592887878,
            0.1137663796544075,
            -0.28247523307800293,
            1.5814450979232788,
            1.8486446142196655,
            0.7171541452407837,
            -0.9810555577278137,
            -0.5635570883750916,
            -0.2808898389339447,
            0.4662947654724121,
            1.748939037322998,
            0.15282244980335236,
            -0.6778905391693115,
            0.9104681015014648,
            -1.2596477270126343,
            -0.19147241115570068,
            -0.034994225949048996,
            0.7400714755058289,
            -0.7867435812950134,
            0.7813500165939331,
            -0.41901564598083496,
            0.013107573613524437,
            -0.1866990029811859,
            0.3713792860507965,
            -0.07759334146976471,
            -1.3769408464431763
        ],
        "recWeightHidden": [
            -0.1303502768278122,
            0.10892748087644577,
            0.5409989356994629,
            0.248338982462883,
            0.23254774510860443,
            0.28634166717529297,
            -0.2142210751771927,
            -0.11297495663166046,
            0.2183668315410614,
            0.18640679121017456,
            0.4935688078403473,
            0.17706532776355743,
            -0.13501936197280884,
            0.02673090435564518,
            -0.21789009869098663,
            0.1759953498840332,
            -0.38354912400245667,
            0.025176510214805603,
            -0.3771892189979553,
            -0.034836042672395706,
            0.19027860462665558,
            0.06987491995096207,
            -0.09991028159856796,
            0.4185289442539215,
            0.0709768533706665,
            0.2580989897251129,
            -0.4766372740268707,
            0.4270091950893402,
            -0.42563721537590027,
            -0.3817523121833801,
            0.4670257270336151,
            -0.1665199100971222,
            -0.2789948880672455,
            0.10347995162010193,
            0.05989959463477135,
            -0.5230639576911926,
            -0.2734230160713196,
            0.38380688428878784,
            -0.13723139464855194,
            -0.020835822448134422,
            0.219809427857399,
            0.5399321913719177,
            0.15252557396888733,
            -0.09998958557844162,
            0.26953259110450745,
            0.16946013271808624,
            0.30070215463638306,
            0.10515157878398895,
            0.0740119069814682,
            0.29509636759757996,
            0.102048359811306,
            0.15982021391391754,
            -0.052086103707551956,
            -0.06549008190631866,
            -0.2426091432571411,
            0.2514147162437439,
            0.25459110736846924,
            -0.7890828847885132,
            -0.38077014684677124,
            0.23499903082847595,
            -0.44470489025115967,
            0.03712882474064827,
            0.1273585557937622,
            -0.03271498531103134,
            0.05673431232571602,
            -0.19419224560260773,
            0.37913450598716736,
            0.465431272983551,
            0.3994111120700836,
            0.2998369634151459,
            0.2338491678237915,
            0.6720628142356873,
            -0.35372495651245117,
            0.1693122386932373,
            0.17228582501411438,
            0.49423661828041077,
            0.045258693397045135,
            0.26337262988090515,
            -0.0536031574010849,
            0.13145709037780762,
            -0.1484033465385437,
            -0.14575549960136414,
            0.004428277723491192,
            -0.23342642188072205,
            0.5194133520126343,
            -0.21098774671554565,
            0.18151479959487915,
            0.2516387104988098,
            0.030071964487433434,
            0.2176334261894226,
            0.056972164660692215,
            0.004595255013555288,
            0.06957335770130157,
            -0.05942974239587784,
            0.0569675974547863,
            -0.20746850967407227,
            -0.1357373297214508,
            0.38527753949165344,
            -0.02567877806723118,
            -0.09836505353450775,
            0.006847599986940622,
            -0.0019608743023127317,
            0.14728191494941711,
            -0.2219192534685135,
            0.008783538825809956,
            0.16125375032424927,
            0.07859673351049423,
            0.18492679297924042,
            0.30498582124710083,
            -0.06209038943052292,
            0.2573743462562561,
            0.23603954911231995,
            0.11397872120141983,
            0.0333210825920105,
            0.169093057513237,
            -0.20333977043628693,
            0.02064201794564724,
            0.012872511520981789,
            -0.017286010086536407,
            -0.045170072466135025,
            -0.018839174881577492,
            0.3450484871864319,
            -0.411443293094635,
            -0.42203855514526367,
            -0.09055841714143753,
            0.388635516166687,
            0.25401756167411804,
            0.253137469291687,
            0.30217358469963074,
            0.5813426375389099,
            0.4724021553993225,
            0.8876213431358337,
            -0.5928658246994019,
            -0.1615040898323059,
            -0.23401600122451782,
            0.18484126031398773,
            0.06302978098392487,
            0.12066992372274399,
            -0.3803481459617615,
            -0.04957462474703789,
            0.16651877760887146,
            -0.1280442476272583,
            -0.2951147258281708,
            -0.4413291811943054,
            0.055395495146512985,
            0.08441349864006042,
            -0.026946963742375374,
            0.572914183139801,
            0.07852410525083542,
            0.04165953770279884,
            0.8523051738739014,
            0.17762625217437744,
            -0.46311160922050476,
            0.016632670536637306,
            -0.11561735719442368,
            0.5859452486038208,
            -0.1480347365140915,
            0.34975528717041016,
            -0.03114492818713188,
            -0.18109120428562164,
            0.00843721628189087,
            0.14356344938278198,
            -0.38271239399909973,
            -0.17129477858543396,
            0.11943481862545013,
            -0.28406867384910583,
            -0.23476053774356842,
            -0.07631739974021912,
            -0.9042126536369324,
            -0.1746659129858017,
            -0.005714455619454384,
            0.6288253664970398,
            -0.19487790763378143,
            0.14609532058238983,
            -0.24441194534301758,
            0.5668689012527466,
            -0.0842248871922493,
            -0.8678922653198242,
            -0.31948161125183105,
            -0.08908293396234512,
            -1.858022928237915,
            0.08888435363769531,
            -0.23669157922267914,
            0.5116403102874756,
            -0.21457788348197937,
            1.0411646366119385,
            0.28691014647483826,
            0.28227776288986206,
            0.4131307303905487,
            0.13920645415782928,
            -1.2900090217590332,
            0.06635792553424835,
            -0.22701728343963623,
            0.1629355400800705,
            0.08223586529493332,
            0.39534512162208557,
            -0.03699023276567459,
            0.08304546773433685,
            0.1557544618844986,
            -0.17533300817012787,
            0.13413190841674805,
            -0.13980962336063385,
            -0.05245094746351242,
            -0.18098802864551544,
            0.043278079479932785,
            -0.07087527960538864,
            -0.15832188725471497,
            -0.26928943395614624,
            -0.5803456902503967,
            -0.3223974108695984,
            -0.38423964381217957,
            -0.02968384325504303,
            -0.005625216756016016,
            -0.02590794488787651,
            -0.003068310907110572,
            0.15828938782215118,
            -0.7621351480484009,
            -0.49681809544563293,
            -0.07806936651468277,
            -0.3698469400405884,
            1.0095610618591309,
            -0.05969530716538429,
            -0.3353331983089447,
            0.09393437951803207,
            -0.2976681888103485,
            0.06537461280822754,
            -0.4964804947376251,
            0.4435705542564392,
            -0.4368562400341034,
            -0.533150851726532,
            -0.1910221129655838,
            -0.2664596140384674,
            -0.46583864092826843,
            0.1247088760137558,
            -0.00532869528979063,
            -0.20919688045978546,
            -0.09711263328790665,
            -0.14073434472084045,
            -0.11497800797224045,
            0.06267264485359192,
            0.48999685049057007,
            0.028326094150543213,
            -0.015099749900400639,
            -0.024861659854650497,
            -0.24977841973304749,
            0.44816672801971436,
            0.10156303644180298,
            0.21506087481975555,
            0.2150220274925232,
            -0.37663766741752625,
            -0.23928850889205933,
            0.20338590443134308,
            -0.03367674723267555,
            -0.2909364402294159,
            -0.0149781983345747,
            -0.3014509677886963,
            -0.06190592050552368,
            -0.07043849676847458,
            -0.12694668769836426,
            0.018697911873459816,
            0.06792079657316208,
            -0.06893450021743774,
            0.22713209688663483,
            0.027054844424128532,
            0.15225081145763397,
            0.1592157632112503,
            0.056157246232032776,
            0.20712922513484955,
            -0.17057277262210846,
            -0.13899020850658417,
            0.4454300105571747,
            -0.12928621470928192,
            0.1912357360124588,
            0.09312180429697037,
            0.49475741386413574,
            0.1349714994430542,
            -0.07439971715211868,
            -0.08670971542596817,
            -0.15342392027378082,
            -0.2542950212955475,
            0.04562567546963692,
            0.050873249769210815,
            0.12446095794439316,
            0.33487316966056824,
            0.36572104692459106,
            0.28064873814582825,
            -0.23659315705299377,
            -0.007663863245397806,
            -1.4593623876571655,
            -0.2570427656173706,
            -0.4823785722255707,
            0.15590666234493256,
            0.21812236309051514,
            0.14740613102912903,
            0.027212439104914665,
            0.15126802027225494,
            -0.48838624358177185,
            -0.4771624207496643,
            -0.5255178213119507,
            0.1335541307926178,
            -0.8711609840393066,
            0.10496719181537628,
            -0.18306128680706024,
            0.15687087178230286,
            -0.24092043936252594,
            0.7992776036262512,
            -0.4155775308609009,
            -0.6822307109832764,
            0.123306505382061,
            0.10252834111452103,
            -1.0309581756591797,
            -0.4225453734397888,
            -0.4100649058818817,
            0.3081384599208832,
            -0.28474950790405273,
            -0.08921349048614502,
            0.21182192862033844,
            0.0181915070861578,
            -0.0026308908127248287,
            0.06736849993467331,
            0.08950071036815643,
            0.3941250443458557,
            -0.04278955236077309,
            -0.9446653723716736,
            -0.16668790578842163,
            -0.4976422190666199,
            0.13916097581386566,
            -0.35255327820777893,
            -0.5898515582084656,
            0.2772716283798218,
            -0.5394064784049988,
            1.1029140949249268,
            -0.1482260674238205,
            0.09131539613008499,
            -0.0865168422460556,
            0.03917771577835083,
            0.21154281497001648,
            -1.5600433349609375,
            -0.4107911288738251,
            0.07950686663389206,
            -0.19504407048225403,
            0.292206346988678,
            0.31818801164627075,
            -0.6395537257194519,
            -0.36593255400657654,
            -0.5206049084663391,
            -0.05430339649319649,
            0.37694910168647766,
            0.19301147758960724,
            0.05234495550394058,
            -0.34197700023651123,
            -0.014493475668132305,
            0.7738549113273621,
            0.3074643611907959,
            0.25477728247642517,
            0.2761093080043793,
            -0.1798933893442154,
            -0.2807283103466034,
            0.08346813172101974,
            0.04553179070353508,
            -0.36763995885849,
            0.1955019235610962,
            0.15728294849395752,
            -0.5420542359352112,
            -0.1154048964381218,
            -0.2006188929080963,
            -0.19555632770061493,
            -0.36766353249549866,
            -0.354900598526001,
            0.1654716581106186,
            -0.39236289262771606,
            1.0360428094863892,
            0.04752952232956886,
            0.16828298568725586,
            -0.07973915338516235,
            -0.061498917639255524,
            -0.03706422820687294,
            -0.5581783652305603,
            -0.4673733115196228,
            -0.03254888579249382,
            -0.18875598907470703,
            -0.0014722880441695452,
            -0.1212872788310051,
            -0.3666684329509735,
            -0.17811162769794464,
            0.6390832662582397,
            -0.4582297205924988,
            0.17862410843372345,
            -0.2881811857223511,
            -0.392107754945755,
            -0.31132772564888,
            -0.47840046882629395,
            0.659390926361084,
            0.16160082817077637,
            0.0799965187907219,
            -0.6883456707000732,
            -0.3908134400844574,
            0.3177507817745209,
            -0.035700004547834396,
            0.22815625369548798,
            -0.3038922846317291,
            -0.16470462083816528,
            -0.3219626247882843,
            -0.5514795780181885,
            -0.2186170518398285,
            0.25070300698280334,
            -0.14259862899780273,
            -0.14428208768367767,
            -0.9003665447235107,
            0.2596808969974518,
            0.45640867948532104,
            -0.5954504013061523,
            -0.10587320476770401,
            -0.15205220878124237,
            0.1641669124364853,
            0.047517597675323486,
            -0.32780125737190247,
            0.921759843826294,
            0.6182652711868286,
            0.23671308159828186,
            1.151474952697754,
            0.2342844009399414,
            0.04869407042860985,
            0.43361127376556396,
            0.3196293115615845,
            -0.5685503482818604,
            0.010632222518324852,
            -0.2738589644432068,
            -0.17239254713058472,
            0.04763933643698692,
            -0.6165040135383606,
            -0.1818777620792389,
            -0.7740092277526855,
            -0.18032029271125793,
            -0.1722702980041504,
            0.3545950949192047,
            -0.11524584144353867,
            -0.5946363806724548,
            -0.24962788820266724,
            -0.23299109935760498,
            -0.3575223386287689,
            0.6842918395996094,
            -0.5731878876686096,
            -2.2309799194335938,
            0.1214083582162857,
            -0.20587167143821716,
            0.10926786065101624,
            -0.31446704268455505,
            -0.17977949976921082,
            -0.05398714914917946,
            -0.5143331289291382,
            -0.20048698782920837,
            0.37260425090789795,
            0.19989559054374695,
            0.3707962930202484,
            0.04217446967959404,
            0.14696632325649261,
            -1.6642423868179321,
            -0.675142228603363,
            -0.17310288548469543,
            -0.5645919442176819,
            0.38883689045906067,
            0.21883846819400787,
            -0.599998414516449,
            -0.28631266951560974,
            -0.015798384323716164,
            -0.7249945402145386,
            -0.5459612607955933,
            0.11990950256586075,
            -0.38324373960494995,
            -0.7996066808700562,
            -0.20647560060024261,
            0.7810664772987366,
            0.14411191642284393,
            0.0036293482407927513,
            -0.6779394149780273,
            0.15084685385227203,
            0.04676437750458717,
            -0.12023001164197922,
            0.31570422649383545,
            -0.4392952620983124,
            -0.28649553656578064,
            -0.5885118246078491,
            -0.21071773767471313,
            0.33045366406440735,
            0.3297255337238312,
            -0.22811593115329742,
            -0.3519458472728729,
            -0.0388619527220726,
            -0.08720684796571732,
            0.6598390340805054,
            -1.053923487663269,
            -0.3465104401111603,
            0.36664101481437683,
            -0.2826993465423584,
            -0.05692308023571968,
            -0.1814984530210495,
            -0.01081909704953432,
            -0.0817747414112091,
            0.08775929361581802,
            -1.4316761493682861,
            -0.1855054795742035,
            -0.34861937165260315,
            1.1554713249206543,
            -0.4615340530872345,
            -0.2604523003101349,
            -0.10160448402166367,
            -0.14784981310367584,
            -0.6278277039527893,
            -0.3386961817741394,
            0.11281371861696243,
            -0.5613422989845276,
            -0.37341833114624023,
            0.18339113891124725,
            0.25082826614379883,
            0.1930161416530609,
            -0.07206176966428757,
            0.5973902940750122,
            -0.13838215172290802,
            -0.38294023275375366,
            0.07398685812950134,
            -0.10898458957672119,
            -0.24075409770011902,
            0.002724794438108802,
            0.11512421071529388,
            0.1635437309741974,
            0.24796892702579498,
            -0.22593681514263153,
            -0.5985510945320129,
            -0.05748601630330086,
            0.33294427394866943,
            -0.7849181294441223,
            0.10585318505764008,
            0.22917014360427856,
            -0.332428902387619,
            0.24350117146968842,
            0.29527825117111206,
            -0.4418218433856964,
            -0.657148540019989,
            0.4250125288963318,
            -0.3765357434749603,
            0.12052713334560394,
            0.13646471500396729,
            0.6640642285346985,
            -0.25812602043151855,
            -1.024317741394043,
            0.6315056085586548,
            0.19316217303276062,
            0.02687285654246807,
            0.506970226764679,
            0.5560538172721863,
            0.3155010938644409,
            -0.3439074456691742,
            0.12609176337718964,
            0.4859006404876709,
            0.6051542162895203,
            -0.1467498391866684,
            -0.1845385879278183,
            0.03584747761487961,
            -0.266475647687912,
            0.5325437188148499,
            0.5706400275230408,
            0.10256639122962952,
            -0.1236390769481659,
            0.21664896607398987,
            -0.852302610874176,
            0.280559241771698,
            0.027181843295693398,
            0.9751654863357544,
            -0.31553736329078674,
            -0.686352014541626,
            0.7609779834747314,
            0.11989607661962509,
            0.10127852112054825,
            -0.05250642076134682,
            0.043762799352407455,
            -0.03302862495183945,
            0.09988865256309509,
            -0.9133782386779785,
            0.33041512966156006,
            -0.7529070973396301,
            0.09144263714551926,
            0.019677668809890747,
            -0.8082374930381775,
            -0.39954182505607605,
            0.715303897857666,
            0.11358141899108887,
            1.03126859664917,
            0.28576329350471497,
            -0.1620110422372818,
            1.056275486946106,
            0.27637922763824463,
            0.22765645384788513,
            0.5750489234924316,
            0.4022504687309265,
            -0.6696239709854126,
            -0.05371827632188797,
            0.5239163637161255,
            0.2660831809043884,
            -0.12827767431735992,
            -0.169041708111763,
            -0.5062333941459656,
            0.276378333568573,
            0.9970482587814331,
            -0.06803859025239944,
            0.24097737669944763,
            -0.2656492292881012,
            -0.295479953289032,
            -0.4618012309074402,
            0.16135598719120026,
            0.6114996075630188,
            0.1280093938112259,
            -0.36871474981307983,
            0.04856211692094803,
            -0.5339394211769104,
            -0.013311726041138172,
            -0.18732409179210663,
            0.3146136999130249,
            0.316430926322937,
            0.128525048494339,
            -0.8612059354782104,
            0.021124739199876785,
            -0.23273923993110657,
            0.015467985533177853,
            0.2287725955247879,
            -0.2922840714454651,
            0.2763673663139343,
            1.2548826932907104,
            -0.10590460151433945,
            0.06629421561956406,
            0.5416645407676697,
            -0.005999974440783262,
            -0.624103844165802,
            -0.02663431130349636,
            0.34672683477401733,
            1.165795087814331,
            -0.13121642172336578,
            0.07454396039247513,
            0.0031620569061487913,
            -0.333950400352478,
            0.0032746107317507267,
            -0.03373117372393608,
            0.2918385863304138,
            0.6758254766464233,
            -0.005682151298969984,
            0.08572135865688324,
            -0.26202335953712463,
            -0.12806476652622223,
            0.11700496822595596,
            -0.04195374250411987,
            0.010961247608065605,
            0.3131401240825653,
            -0.24188487231731415,
            0.06565690785646439,
            0.31858715415000916,
            0.0746191218495369,
            -0.13042230904102325,
            0.36640745401382446,
            0.370107501745224,
            0.012496938928961754,
            0.3580588102340698,
            0.01102469116449356,
            -0.08431538194417953,
            0.49302828311920166,
            0.01532172504812479,
            0.2571520209312439,
            -0.5441192388534546,
            0.09818535298109055,
            -0.3698563575744629,
            -0.4310518205165863,
            0.12186655402183533,
            -0.30136850476264954,
            -0.007230810821056366,
            -0.0016514924354851246,
            -0.3211238384246826,
            -0.37592607736587524,
            -0.19924364984035492,
            0.10608109831809998,
            -0.1810084581375122,
            0.004631844814866781,
            0.20341432094573975,
            0.09979749470949173,
            -0.09717990458011627,
            0.050936341285705566,
            -0.025094151496887207,
            -0.10167419165372849,
            0.3551581799983978,
            0.32756105065345764,
            0.0442679338157177,
            -0.14019159972667694,
            -0.1342894732952118,
            -0.09870919585227966,
            0.12244941294193268,
            -0.03055550716817379,
            -0.01280303206294775,
            0.22858117520809174,
            -0.07137449830770493,
            -0.4654839336872101,
            0.1686074435710907,
            0.14347299933433533,
            0.10813344269990921,
            -0.10057732462882996,
            -0.13297243416309357,
            0.2181917279958725,
            -0.11627785116434097,
            -0.36236974596977234,
            0.2622331380844116,
            0.011221852153539658,
            0.340926855802536,
            0.6111646890640259,
            -0.39098456501960754,
            0.36598116159439087,
            -0.035748813301324844,
            0.078437939286232,
            -0.025184396654367447,
            0.2786879241466522,
            0.1852247565984726,
            -0.03791657090187073,
            -0.10317885130643845,
            0.053398098796606064,
            -0.009043724276125431,
            -0.015127084217965603,
            0.15729357302188873,
            0.018657853826880455,
            -0.3505050539970398,
            -0.014098519459366798,
            0.14093253016471863,
            0.3058416545391083,
            -0.01612718589603901,
            0.05046476423740387,
            -0.12398640066385269,
            -0.20625239610671997,
            -0.13725396990776062,
            0.02628052420914173,
            0.3756665885448456,
            -0.07650083303451538,
            0.10413581877946854,
            0.0724971815943718,
            0.057218655943870544,
            0.2919379472732544,
            0.15021638572216034,
            0.27445557713508606,
            0.056018728762865067,
            -0.011271403171122074,
            0.0611695721745491,
            0.00021783096599392593,
            -0.14230965077877045,
            0.10998618602752686,
            -0.001484903390519321,
            0.0695691630244255,
            -0.023226967081427574,
            -0.03741075098514557,
            0.12379713356494904,
            0.1302454173564911,
            0.09792843461036682,
            0.06254211813211441,
            0.16865086555480957,
            -0.1501455307006836,
            0.07684404402971268,
            -0.022270964458584785,
            0.015292646363377571,
            0.16666153073310852,
            0.412626713514328,
            0.9807472229003906,
            -0.20890776813030243,
            0.17311187088489532,
            0.2089301496744156,
            0.28945407271385193,
            0.42945998907089233,
            0.4900536835193634,
            0.255980521440506,
            0.2502075731754303,
            0.0022822252940386534,
            0.22328008711338043,
            0.20120829343795776,
            0.1891632080078125,
            -0.2714628577232361,
            0.366412490606308,
            0.022927705198526382,
            0.07267154008150101,
            0.5428577661514282,
            -0.01497279666364193,
            -0.17274124920368195,
            0.42633694410324097,
            0.14761628210544586,
            0.4288412034511566,
            0.03837953880429268,
            0.2941916286945343,
            0.11107846349477768,
            0.1181395873427391,
            -0.24431830644607544,
            -0.1022443026304245,
            -0.15352340042591095,
            0.008041951805353165,
            -0.24227593839168549,
            0.3258272111415863,
            0.20081333816051483,
            0.15080928802490234,
            -0.14214804768562317,
            0.017830336466431618,
            0.11699200421571732,
            0.2025226503610611,
            -0.2729814350605011,
            -1.2687013149261475,
            -0.14465147256851196,
            -0.06730277091264725,
            0.16048291325569153,
            0.0833549052476883,
            -0.38608577847480774,
            0.2128136307001114,
            -0.3620409667491913,
            -0.3043489158153534,
            0.23094700276851654,
            -0.20552730560302734,
            -0.16217786073684692,
            0.045388299971818924,
            0.2671930193901062,
            -0.23036272823810577,
            -0.30705153942108154,
            0.2827889323234558,
            -0.5490455031394958,
            0.07560278475284576,
            0.16661889851093292,
            -0.40048468112945557,
            0.06315980851650238,
            -0.2872767448425293,
            0.35453224182128906,
            -0.32768481969833374,
            0.6099152565002441,
            0.49331939220428467,
            -0.2596799433231354,
            0.5073153972625732,
            0.21433711051940918,
            -0.036147020757198334,
            0.07421400398015976,
            0.21849043667316437,
            0.2060675323009491,
            -0.5027744770050049,
            0.01527690514922142,
            -0.14637811481952667,
            -0.2244693636894226,
            0.025784781202673912,
            0.06412582844495773,
            0.08635896444320679,
            0.0333872064948082,
            0.25979191064834595,
            -0.41211339831352234,
            -0.2451397180557251,
            0.08003261685371399,
            -0.03851841762661934,
            -0.1577541083097458,
            -0.003649237798526883,
            -0.22577065229415894,
            -0.12211281061172485,
            -0.033967822790145874,
            -0.16353173553943634,
            -0.17808105051517487,
            0.43636584281921387,
            0.0007234850199893117,
            -0.043370794504880905,
            -0.04830920323729515,
            -0.006880654953420162,
            -0.05410681664943695,
            0.030635584145784378,
            0.10174286365509033,
            0.11563833802938461,
            -0.4157123565673828,
            -0.1174289733171463,
            -0.1733468919992447,
            -0.6720064282417297,
            0.3292752206325531,
            -0.17495885491371155,
            0.08780864626169205,
            -0.08415327221155167,
            -0.14197900891304016,
            -0.5580301880836487,
            -0.22496607899665833,
            -0.11354082822799683,
            -0.14079773426055908,
            -0.07932014018297195,
            0.05836084857583046,
            0.03637717291712761,
            0.021875588223338127,
            0.24360062181949615,
            -0.14447914063930511,
            -0.2715299129486084,
            0.15927691757678986,
            -0.070480115711689,
            0.11125126481056213,
            -0.045002248138189316,
            0.20998282730579376,
            0.25320538878440857,
            -0.049543820321559906,
            0.22228260338306427,
            -0.26454511284828186,
            -0.02646777592599392,
            -0.1573362648487091,
            -0.38124313950538635,
            0.14104875922203064,
            -0.03986082971096039,
            -0.3386894762516022,
            -0.21494196355342865,
            0.1844901293516159,
            -0.06044504791498184,
            -0.020656922832131386,
            0.03526918962597847,
            0.2085852473974228,
            -0.10588893294334412,
            0.13226230442523956,
            0.05666366592049599,
            0.2671297490596771,
            0.11603628098964691,
            -0.019453372806310654,
            -0.06679628044366837,
            -0.011614536866545677,
            0.043021928519010544,
            -0.1331859529018402,
            0.2508763074874878,
            -0.09070128947496414,
            -0.23710450530052185,
            -0.04248325899243355,
            0.014045614749193192,
            -0.27679625153541565,
            -1.3742318153381348,
            0.02306557074189186,
            -0.3235889673233032,
            -0.39787134528160095,
            -0.1995042860507965,
            -0.1879819929599762,
            -0.47571101784706116,
            -0.1457175761461258,
            -0.703158974647522,
            -0.12026470899581909,
            -0.2903878390789032,
            -0.1025586798787117,
            -0.01586802303791046,
            -0.09154237806797028,
            -0.29674607515335083,
            -0.14405640959739685,
            0.0950620099902153,
            -1.0131433010101318,
            0.09941530227661133,
            0.20918840169906616,
            -0.020469222217798233,
            0.015647003427147865,
            -0.6024497747421265,
            -0.16200579702854156,
            -0.25245246291160583,
            0.10996277630329132,
            -0.307010293006897,
            -0.41067931056022644,
            0.21383371949195862,
            0.13827188313007355,
            0.007680146489292383,
            0.011408377438783646,
            -0.2037302553653717,
            -0.1684788167476654,
            -0.4183620810508728,
            0.13834603130817413,
            -0.11451925337314606,
            0.04522151127457619,
            -0.3389376997947693,
            -1.3214545249938965,
            -0.20450787246227264,
            -0.5180549621582031,
            0.13521580398082733,
            -0.23775449395179749,
            -0.45079466700553894,
            -0.6594707369804382,
            -0.30313417315483093,
            0.6388996243476868,
            1.0731011629104614,
            -0.19138328731060028,
            -0.12701453268527985,
            0.714795708656311,
            0.3686544895172119,
            -0.20507660508155823,
            -0.22215859591960907,
            -0.8809947967529297,
            0.05794721096754074,
            0.4727410674095154,
            -0.05333302170038223,
            -0.10502924770116806,
            0.055386997759342194,
            -0.2946721911430359,
            -0.8312429189682007,
            -0.3497130572795868,
            0.850047767162323,
            0.0902087539434433,
            0.27068525552749634,
            -0.3887576162815094,
            0.07787679880857468,
            0.1423032432794571,
            -0.12302442640066147,
            -0.4461902976036072,
            0.1688927859067917,
            -0.09513946622610092,
            0.21553875505924225,
            -0.07383423298597336,
            0.10378795117139816,
            -0.05254746228456497,
            0.01703251339495182,
            -0.8595665693283081,
            -1.0637238025665283,
            -0.16236037015914917,
            -0.0691758543252945,
            0.3767857849597931,
            -0.5212842226028442,
            0.11029118299484253,
            -0.3453689515590668,
            -0.041940029710531235,
            -0.1313394457101822,
            -0.5850836038589478,
            0.08059723675251007,
            0.7517730593681335,
            0.1857135146856308,
            0.04198361188173294,
            -0.05761178210377693,
            0.36618924140930176,
            -0.14856821298599243,
            0.5749198198318481,
            -0.009770217351615429,
            -0.0014421828091144562,
            0.017327619716525078,
            0.07960908859968185,
            -0.19440551102161407,
            -0.4932768642902374,
            0.4515124559402466,
            0.17747819423675537,
            0.24868974089622498,
            0.2975665330886841,
            0.4336242973804474,
            0.05129103735089302,
            0.13987885415554047,
            -0.8049143552780151,
            -0.2513304352760315,
            -0.2688688039779663,
            0.42358922958374023,
            -0.13245829939842224,
            -0.06733986735343933,
            0.008408363908529282,
            0.2684651017189026,
            0.4326384663581848,
            -0.3782053589820862,
            0.2634710669517517,
            0.21468199789524078,
            -0.21729567646980286,
            -0.2153385877609253,
            -0.07323265820741653,
            0.000607668305747211,
            -0.11019270867109299,
            -0.4431205093860626,
            0.38110655546188354,
            -1.2508771419525146,
            0.19528307020664215,
            -0.4701744616031647,
            -0.0984300747513771,
            0.4334995448589325,
            -0.09931503236293793,
            -0.11292029172182083,
            0.40516218543052673,
            0.34836745262145996,
            0.28044411540031433,
            0.08161021769046783,
            -0.010919738560914993,
            0.1560956835746765,
            -0.22243879735469818,
            0.2451230138540268,
            -0.26242706179618835,
            -0.004416682291775942,
            0.3212894797325134,
            -0.10746984928846359,
            -0.31008684635162354,
            -0.09094798564910889,
            0.06482706218957901,
            0.013462863862514496,
            -0.13584397733211517,
            -0.03552437201142311,
            -0.0379030704498291,
            -0.15192849934101105,
            -0.105584055185318,
            -0.2328140288591385,
            -1.5766100883483887,
            -2.166330337524414,
            0.09511377662420273,
            0.5497702956199646,
            -0.1772191822528839,
            -0.16486656665802002,
            -0.8599852919578552,
            -0.45700785517692566,
            0.19959983229637146,
            0.24707458913326263,
            -0.5722669363021851,
            -0.2608044445514679,
            -0.018304383382201195,
            0.04687964916229248,
            0.11411392688751221,
            -0.4308207929134369,
            -0.895637571811676,
            -0.17707914113998413,
            -1.2458490133285522,
            -0.027788681909441948,
            0.05669080838561058,
            -0.42099621891975403,
            -0.038550399243831635,
            -0.2499270886182785,
            0.6262226700782776,
            0.6259139180183411,
            0.04988699406385422,
            0.11715472489595413,
            0.3926658034324646,
            0.4480692446231842,
            -0.019469764083623886,
            0.036165397614240646,
            -0.08160261064767838,
            0.2767467498779297,
            -0.27523142099380493,
            0.11803531646728516,
            -0.01704922877252102,
            0.0212992075830698,
            -0.21097122132778168,
            -0.09051592648029327,
            0.6348303556442261,
            0.3259753882884979,
            0.09193830192089081,
            0.24024851620197296,
            -0.3928603529930115,
            -0.4129409193992615,
            0.09448765218257904,
            0.2814594507217407,
            -0.21658796072006226,
            -0.725594162940979,
            -0.0728706419467926,
            0.2998916208744049,
            0.003270098241046071,
            0.012444732710719109,
            -0.23960797488689423,
            0.4586108326911926,
            0.2320498824119568,
            0.08234015852212906,
            0.05877730995416641,
            0.15106342732906342,
            -0.0498177707195282,
            -0.2250053584575653,
            0.04039622098207474,
            -0.29502174258232117,
            -0.2867138385772705,
            -0.13617579638957977,
            -0.41054320335388184,
            -0.3231353759765625,
            -0.3092879056930542,
            -0.10244376957416534,
            -0.11110986769199371,
            0.06790895015001297,
            -0.2115451991558075,
            -0.5810027718544006,
            0.15501128137111664,
            0.1323499083518982,
            -0.10182909667491913,
            -0.0017696921713650227,
            0.12996788322925568,
            0.15454556047916412,
            0.20300999283790588,
            0.08288154006004333,
            0.21325595676898956,
            0.03764072433114052,
            0.22187502682209015,
            -0.1533161848783493,
            0.08690474927425385,
            0.20738717913627625,
            -0.359234482049942,
            -0.08708273619413376,
            -0.031709007918834686,
            0.3216039538383484,
            -0.13440446555614471,
            0.28847774863243103,
            0.30449745059013367,
            -0.14655669033527374,
            -0.4033772945404053,
            0.19982117414474487,
            -0.24087411165237427,
            0.2172568291425705,
            0.01435944065451622,
            -0.18566688895225525,
            0.17631685733795166,
            -0.2621024250984192,
            0.38840943574905396,
            -0.02416098676621914,
            0.1718028485774994,
            0.37880316376686096,
            -0.5984798669815063,
            0.36514246463775635,
            0.012630918994545937,
            0.12139307707548141,
            -0.0023567723110318184,
            0.5430901050567627,
            0.24200481176376343,
            0.07549751549959183,
            -0.11103703826665878,
            -0.08297140896320343,
            0.01696508191525936,
            -0.268489807844162,
            0.07911806553602219,
            0.04851999506354332,
            0.06881125271320343,
            -0.2794140577316284,
            -0.2984151840209961,
            0.27122029662132263,
            -0.29599690437316895,
            0.4675031006336212,
            0.14495821297168732,
            0.005433176644146442,
            -0.18956956267356873,
            -0.14989030361175537,
            0.19971373677253723,
            -0.33522090315818787,
            0.04200208932161331,
            0.06649662554264069,
            0.4732431471347809,
            0.21637624502182007,
            0.21239158511161804,
            0.2595672011375427,
            0.010474402457475662,
            -0.11397681385278702,
            0.14079904556274414,
            -0.1384868323802948,
            -0.03203226625919342,
            -0.13958418369293213,
            0.12192098796367645,
            0.07183414697647095,
            -0.43330439925193787,
            -0.07535076886415482,
            0.09752926230430603,
            -0.3408666253089905,
            0.052046071738004684,
            -0.04923238232731819,
            0.3888899087905884,
            -0.2371709942817688,
            -0.02602989785373211,
            0.2317572832107544,
            -0.17687736451625824,
            0.09581363946199417,
            0.24778340756893158,
            0.0809118002653122,
            0.06307564675807953,
            0.13802921772003174,
            0.3155050277709961,
            -0.10008128732442856,
            0.44792085886001587,
            0.4185832738876343,
            -0.29157111048698425,
            -0.07890807092189789,
            -0.23075427114963531,
            0.15687087178230286,
            -0.021035512909293175,
            0.16356699168682098,
            -0.016258487477898598,
            0.09852130711078644,
            0.1783798187971115,
            0.3384833037853241,
            0.2336731255054474,
            -0.07735440135002136,
            0.04380107298493385,
            -0.19612263143062592,
            -0.0016292324289679527,
            -0.25770124793052673,
            0.29002517461776733,
            0.03247985616326332,
            0.06380797922611237,
            0.21573469042778015,
            -0.19855636358261108,
            0.26136937737464905,
            0.02195117436349392,
            0.1654815673828125,
            -0.10944364964962006,
            0.2422255277633667,
            0.25378715991973877,
            0.30248844623565674,
            -0.15341080725193024,
            -0.21462221443653107,
            -0.17249922454357147,
            0.26768192648887634,
            -0.016337065026164055,
            0.6194368600845337,
            0.28497636318206787,
            0.36295023560523987,
            -0.1903819441795349,
            0.23965293169021606,
            -0.3447597026824951,
            -0.37388765811920166,
            0.20454038679599762,
            1.2503784894943237,
            0.12934672832489014,
            -0.11608323454856873,
            0.6802276372909546,
            0.030510997399687767,
            0.45964235067367554,
            -0.2716183066368103,
            -0.22113174200057983,
            0.1679580956697464,
            -0.1724945604801178,
            0.028517751023173332,
            -0.5562318563461304,
            0.058248575776815414,
            -0.27590951323509216,
            2.0015182495117188,
            0.05487443134188652,
            2.614637613296509,
            0.005397378001362085,
            0.3990151882171631,
            -0.44267600774765015,
            0.30960994958877563,
            -0.12432025372982025,
            -0.03724699467420578,
            -0.6901565194129944,
            0.06967154890298843,
            0.024569712579250336,
            0.37073639035224915,
            0.45335009694099426,
            0.10679955780506134,
            0.07012501358985901,
            0.012768724001944065,
            -0.30971190333366394,
            -0.08583058416843414,
            0.009178221225738525,
            0.13022461533546448,
            0.14880435168743134,
            0.3358367085456848,
            -0.08998538553714752,
            -0.6236981153488159,
            -0.03243161737918854,
            -1.477437973022461,
            0.08903350681066513,
            -0.1540546715259552,
            0.6514560580253601,
            -0.05588793382048607,
            -0.16004471480846405,
            0.13680778443813324,
            0.7077949643135071,
            -0.10165701061487198,
            0.7076689004898071,
            -0.00036286708200350404,
            -0.24131135642528534,
            0.6418098211288452,
            -0.08595824241638184,
            -0.42291876673698425,
            0.23166175186634064,
            0.4266783595085144,
            0.13617703318595886,
            -0.04671555757522583,
            0.3065318763256073,
            0.364051878452301,
            -0.24884814023971558,
            0.3736380934715271,
            -0.5499028563499451,
            0.5854146480560303,
            0.06827159970998764,
            -0.11780185252428055,
            0.4490499198436737,
            -0.011323154903948307,
            0.22227372229099274,
            -0.284510999917984,
            -0.03161190077662468,
            -0.005990280769765377,
            0.0029402009677141905,
            -0.24949795007705688,
            -0.12678313255310059,
            0.23197290301322937,
            -0.12817686796188354,
            -0.030653635039925575,
            -0.15247318148612976,
            0.19671088457107544,
            0.07646895945072174,
            0.3038017153739929,
            -0.03160249814391136,
            -0.012063923291862011,
            -0.2179512083530426,
            0.32401424646377563,
            -1.1324745416641235,
            0.035623978823423386,
            -0.3701331913471222,
            0.19212497770786285,
            0.2835177779197693,
            -0.32994505763053894,
            0.09210013598203659,
            1.1596723794937134,
            -0.1982964128255844,
            2.0368025302886963,
            -0.06499957293272018,
            -0.43863821029663086,
            -0.05496468394994736,
            0.23974506556987762,
            0.4873698353767395,
            0.28340333700180054,
            -0.03605152666568756,
            -0.2207854986190796,
            0.001493426039814949,
            -0.16271600127220154,
            0.19640976190567017,
            -0.17751622200012207,
            0.37232860922813416,
            -0.22008726000785828,
            0.020836330950260162,
            0.08678831160068512,
            0.09122875332832336,
            0.3359338641166687,
            0.261165052652359,
            0.2930666506290436,
            -0.33751991391181946,
            -0.0885423868894577,
            -0.038924992084503174,
            0.3035304844379425,
            -0.41086336970329285,
            -0.08201998472213745,
            -0.1543024778366089,
            -0.0014718767488375306,
            0.2010207325220108,
            0.2536444365978241,
            0.020910335704684258,
            0.08796222507953644,
            0.24517546594142914,
            0.16396339237689972,
            -0.434394896030426,
            -0.5145490169525146,
            -0.5771142244338989,
            0.3997201919555664,
            -0.02700716257095337,
            -0.05621391907334328,
            0.1650659143924713,
            -0.006425713654607534,
            1.099686861038208,
            0.1415129005908966,
            -0.2587614059448242,
            0.41163164377212524,
            -0.677288830280304,
            -0.1893365979194641,
            -0.22109469771385193,
            0.31982895731925964,
            0.02048005722463131,
            0.0935782641172409,
            -0.05271224305033684,
            0.027165742591023445,
            0.911079466342926,
            0.5457245707511902,
            0.10042212158441544,
            0.18180307745933533,
            -0.3312416672706604,
            -0.1311454027891159,
            0.8465826511383057,
            0.08457789570093155,
            0.22139815986156464,
            -0.7339943647384644,
            0.012545989826321602,
            0.2896396815776825,
            0.03223918005824089,
            -0.10134544223546982,
            -0.23807139694690704,
            0.625533401966095,
            1.4212722778320312,
            -0.0873991996049881,
            1.0405772924423218,
            0.14455443620681763,
            -0.06045607104897499,
            -0.07467657327651978,
            0.18310001492500305,
            -0.20238852500915527,
            -0.488418310880661,
            -0.29082903265953064,
            -0.4212157428264618,
            -0.7088598608970642,
            0.13883531093597412,
            -0.40288209915161133,
            -0.1204909011721611,
            0.06687577813863754,
            -0.21641480922698975,
            -0.555520236492157,
            -0.04847460240125656,
            0.2499862164258957,
            -0.1456516534090042,
            0.11630847305059433,
            0.26257002353668213,
            0.3049050569534302,
            0.2381918579339981,
            0.34479641914367676,
            0.10884540528059006,
            0.10547876358032227,
            0.2611635625362396,
            0.30961453914642334,
            -0.058819763362407684,
            0.12234249711036682,
            -0.04801531881093979,
            -0.25634151697158813,
            0.3063696324825287,
            0.31968966126441956,
            0.11648879200220108,
            0.053175341337919235,
            0.24456390738487244,
            -0.08953022956848145,
            0.5478829145431519,
            0.15608620643615723,
            -0.02662835642695427,
            -0.091203473508358,
            0.08615569025278091,
            0.03513539955019951,
            0.04145698994398117,
            -0.08778057247400284,
            0.5687107443809509,
            -0.22796295583248138,
            0.6549378633499146,
            0.7944214940071106,
            -0.30988478660583496,
            0.5376448035240173,
            -0.15413792431354523,
            0.14454391598701477,
            -0.04633054509758949,
            0.6567642688751221,
            0.27810579538345337,
            0.0363524854183197,
            -0.24979454278945923,
            -0.09651622921228409,
            0.12731945514678955,
            -0.00608111172914505,
            -0.17604368925094604,
            0.18746165931224823,
            0.2998332977294922,
            -0.1339266449213028,
            -0.1635703146457672,
            0.1415809690952301,
            -0.40262436866760254,
            0.19269658625125885,
            -0.21016624569892883,
            0.03435608744621277,
            -0.31645888090133667,
            -0.06689110398292542,
            0.24245652556419373,
            0.018317002803087234,
            -0.0975257009267807,
            -0.30318763852119446,
            0.17182184755802155,
            0.10775985568761826,
            0.2992476522922516,
            0.23682096600532532,
            -0.024658987298607826,
            -0.05239097401499748,
            0.1255420744419098,
            -0.09477919340133667,
            0.015263592824339867,
            -0.060671061277389526,
            0.07431930303573608,
            0.09035435318946838,
            -0.16764725744724274,
            -0.006164710968732834,
            -0.09785982221364975,
            0.03587225452065468,
            -0.07694318145513535,
            0.06354024261236191,
            0.16025395691394806,
            -0.08860978484153748,
            -0.0162904504686594,
            0.06370271742343903,
            0.2832912802696228,
            0.308860182762146,
            0.5274962782859802,
            0.6899540424346924,
            -0.021973194554448128,
            -0.05659705772995949,
            0.4110504686832428,
            0.21388006210327148,
            1.1369576454162598,
            0.4329449236392975,
            0.19762440025806427,
            -0.6102111339569092,
            -0.051271598786115646,
            0.014086983166635036,
            0.01663682796061039,
            0.1459447294473648,
            0.027003638446331024,
            0.39986658096313477,
            0.6918238997459412,
            -0.01589895784854889,
            1.3279128074645996,
            -0.2093297392129898,
            -0.093071848154068,
            0.47613006830215454,
            0.04826807603240013,
            0.25619837641716003,
            0.14923645555973053,
            0.200144425034523,
            0.24377140402793884,
            0.23809103667736053,
            0.46301382780075073,
            0.13078032433986664,
            -0.22360536456108093,
            0.1533118337392807,
            0.04347401112318039,
            0.29972612857818604,
            0.12453248351812363,
            0.16042886674404144,
            -0.17316974699497223,
            -0.1274542659521103,
            0.22688254714012146,
            0.18366895616054535,
            -0.09776516258716583,
            -0.8751966953277588,
            0.007360011804848909,
            -0.1655532568693161,
            0.22341658174991608,
            0.21148337423801422,
            -0.33584287762641907,
            0.26414933800697327,
            -0.41323238611221313,
            -0.7120468616485596,
            0.1589002162218094,
            -0.1772950291633606,
            -0.07244798541069031,
            -0.06197929382324219,
            0.11768938601016998,
            -0.6863300204277039,
            0.12835289537906647,
            0.054738130420446396,
            0.5417180061340332,
            0.001829529763199389,
            0.202970951795578,
            -0.8766574859619141,
            -0.11374424397945404,
            -1.205515742301941,
            0.26168057322502136,
            -1.2315311431884766,
            0.5181671977043152,
            0.36996063590049744,
            -0.09101231396198273,
            -0.0850435271859169,
            0.4615787863731384,
            0.034107696264982224,
            0.16813360154628754,
            0.191171795129776,
            0.27527478337287903,
            -0.4385950267314911,
            -0.014317598193883896,
            0.17986303567886353,
            -0.16442176699638367,
            0.2657124698162079,
            -0.00726995337754488,
            0.0947062149643898,
            0.1026458889245987,
            0.2447698712348938,
            -0.0961526408791542,
            -0.17843857407569885,
            -0.3939859867095947,
            0.30817750096321106,
            0.04127136990427971,
            0.5467912554740906,
            -0.5256603956222534,
            0.05625525861978531,
            -0.17758958041667938,
            -0.015017797239124775,
            0.07195007055997849,
            0.7110973000526428,
            -0.07263055443763733,
            -0.07208067178726196,
            -0.09262370318174362,
            0.14334967732429504,
            -0.04574713110923767,
            -0.22841493785381317,
            0.06905046850442886,
            0.2939249277114868,
            -0.04405795410275459,
            -0.18883758783340454,
            -0.09209582954645157,
            -0.6191312670707703,
            0.21653974056243896,
            -0.6139844655990601,
            0.5011322498321533,
            0.15070007741451263,
            -0.10122407972812653,
            -0.328410804271698,
            0.13651064038276672,
            0.23981565237045288,
            -0.025299184024333954,
            0.17846456170082092,
            -0.3444315791130066,
            -0.2500469982624054,
            -0.07979536056518555,
            -0.012727785855531693,
            0.28384166955947876,
            -0.007491053082048893,
            -0.038972578942775726,
            0.03076886758208275,
            -0.25007617473602295,
            0.2811310887336731,
            -0.0416221097111702,
            -0.21974197030067444,
            -0.04393506795167923,
            0.010397892445325851,
            -0.43050122261047363,
            -0.15696823596954346,
            -0.05675303190946579,
            -0.16620813310146332,
            0.20942135155200958,
            -0.09498659521341324,
            0.3134414851665497,
            0.1569797843694687,
            -0.020733674988150597,
            0.2643511891365051,
            0.07451359182596207,
            -0.42023730278015137,
            0.0688820332288742,
            -0.5720877647399902,
            0.026217550039291382,
            0.0804881602525711,
            -0.18091343343257904,
            -0.2676323652267456,
            -0.6157914996147156,
            -0.06571471691131592,
            0.008837348781526089,
            -0.00817800872027874,
            0.017559485509991646,
            -0.23281821608543396,
            -0.005014071706682444,
            0.07567854225635529,
            0.034223560243844986,
            0.20344704389572144,
            -0.07445476204156876,
            -0.5097201466560364,
            0.2678714990615845,
            -0.1732875555753708,
            -0.4394342303276062,
            -0.23325712978839874,
            0.18334679305553436,
            0.08129533380270004,
            -0.13310573995113373,
            -2.382091760635376,
            -0.03560200333595276,
            0.061677541583776474,
            0.10448597371578217,
            -0.09118334203958511,
            0.4815540611743927,
            -0.7687172889709473,
            -0.14459602534770966,
            -0.13216827809810638,
            -0.09634172916412354,
            0.04425489529967308,
            0.1998279094696045,
            0.006905787158757448,
            0.08986843377351761,
            -0.2590344250202179,
            -0.008757131174206734,
            -0.22693505883216858,
            0.023672573268413544,
            -0.13765619695186615,
            -1.201480507850647,
            -0.12142311036586761,
            0.4635183811187744,
            -0.06040934845805168,
            0.3160882592201233,
            -0.21186570823192596,
            -0.201190784573555,
            -0.21151916682720184,
            -0.013586129993200302,
            -0.016090666875243187,
            -0.026450837031006813,
            0.2763828933238983,
            -1.0870684385299683,
            1.286195993423462,
            -0.15984010696411133,
            -0.30555960536003113,
            0.42245379090309143,
            0.40914374589920044,
            -1.568491816520691,
            -0.46633097529411316,
            0.6763680577278137,
            0.23587094247341156,
            0.2831510305404663,
            -0.05862664803862572,
            -0.30206918716430664,
            -0.1842639297246933,
            0.5280787944793701,
            -1.0109453201293945,
            -0.4174506664276123,
            0.11912137269973755,
            -1.356520175933838,
            -0.00495339697226882,
            0.12471924722194672,
            1.5982047319412231,
            -0.4547503590583801,
            0.771050214767456,
            0.1865788847208023,
            1.5846971273422241,
            0.37798601388931274,
            0.5097327828407288,
            1.0402370691299438,
            0.6474716067314148,
            0.15778473019599915,
            0.06493020802736282,
            -0.007324535399675369,
            0.946905255317688,
            0.5657845735549927,
            0.6089867949485779,
            0.21457169950008392,
            0.17299306392669678,
            -0.06401536613702774,
            0.21993926167488098,
            -0.16078752279281616,
            0.12213573604822159,
            0.09752479195594788,
            0.5001482367515564,
            -0.3038738965988159,
            -0.15686020255088806,
            -0.31107407808303833,
            -0.7690455913543701,
            0.2475576400756836,
            -1.1524657011032104,
            -0.44969627261161804,
            0.21243825554847717,
            -0.23621201515197754,
            -0.3101206421852112,
            -0.08300790935754776,
            0.03406023234128952,
            -0.6763013601303101,
            0.03893628343939781,
            -0.36763864755630493,
            0.12358521670103073,
            -0.20353388786315918,
            0.5565012693405151,
            -0.19428858160972595,
            -0.8368228077888489,
            0.1644759327173233,
            0.616301953792572,
            -0.44256898760795593,
            -0.379839152097702,
            1.6514989137649536,
            -0.3220641016960144,
            0.21299520134925842,
            -0.1704283356666565,
            -0.18905740976333618,
            0.011927899904549122,
            0.556027889251709,
            0.3139587342739105,
            0.04480571672320366,
            -0.05413653329014778,
            0.3466852605342865,
            -0.07414470613002777,
            0.04545352980494499,
            -0.07302634418010712,
            0.7409253716468811,
            -0.6738601922988892,
            0.2135532945394516,
            0.18245796859264374,
            0.23420214653015137,
            -0.24899613857269287,
            -0.07802512496709824,
            -0.026980433613061905,
            0.26824966073036194,
            0.3771086037158966,
            -0.4780353903770447,
            0.26479530334472656,
            -0.3840380012989044,
            0.2181365191936493,
            -0.16843539476394653,
            0.0885409563779831,
            -0.2710203528404236,
            -0.2616511583328247,
            -0.10725720971822739,
            -0.8017149567604065,
            -0.17872752249240875,
            0.4602810740470886,
            0.06896989047527313,
            1.1764992475509644,
            0.15997031331062317,
            -0.07649511098861694,
            0.40218937397003174,
            0.0894976332783699,
            0.5194367170333862,
            0.15369883179664612,
            0.017043624073266983,
            -0.4542272686958313,
            0.21199433505535126,
            0.46594399213790894,
            0.42978188395500183,
            0.23139290511608124,
            0.045046113431453705,
            -0.005849843379110098,
            0.20121674239635468,
            0.05912354215979576,
            0.3010672926902771,
            -0.19959814846515656,
            0.28943464159965515,
            0.10991650819778442,
            -2.2862138748168945,
            -0.12074290215969086,
            0.5532660484313965,
            -1.1029598712921143,
            -0.43897348642349243,
            0.12117879092693329,
            -0.6619699597358704,
            0.11117341369390488,
            0.4492827355861664,
            -0.8724870085716248,
            0.14682811498641968,
            0.3734312057495117,
            -0.9508923888206482,
            0.20085947215557098,
            -0.07849626988172531,
            -0.11550625413656235,
            -0.5386158227920532,
            0.6903162002563477,
            -0.585407555103302,
            1.0458934307098389,
            -0.39298132061958313,
            -0.140163391828537,
            0.007188485469669104,
            0.12001451849937439,
            0.24623969197273254,
            0.10286501795053482,
            -0.019807204604148865,
            0.2870897352695465,
            0.19229817390441895,
            0.7977775931358337,
            -0.09329511970281601,
            -0.03339441865682602,
            -0.1422690451145172,
            -0.4809364378452301,
            0.3974369168281555,
            0.24868328869342804,
            0.1479295939207077,
            0.30692657828330994,
            0.18841099739074707,
            -0.029819408431649208,
            0.5550273060798645,
            -0.7025150060653687,
            0.5064669251441956,
            0.08306090533733368,
            0.4088643193244934,
            -0.2444869577884674,
            0.06428773701190948,
            0.05110713094472885,
            0.07514297217130661,
            -0.23289765417575836,
            0.35895735025405884,
            -0.2638072669506073,
            0.4656810462474823,
            -0.0005059996037743986,
            -0.19359654188156128,
            1.058698058128357,
            0.7281463146209717,
            -0.038419101387262344,
            0.163481667637825,
            1.3739062547683716,
            0.4150211811065674,
            -0.19430169463157654,
            -0.4777075946331024,
            -0.37925463914871216,
            0.08918778598308563,
            0.13343068957328796,
            -0.4724890887737274,
            -0.3124638795852661,
            0.2274465262889862,
            -0.06970538944005966,
            -0.22209788858890533,
            0.5303753018379211,
            -0.5925318598747253,
            -0.6997153759002686,
            0.4209831655025482,
            0.8184760212898254,
            0.3219285309314728,
            0.26737430691719055,
            -0.7392330169677734,
            0.10176387429237366,
            0.999254584312439,
            -0.32433807849884033,
            0.27877742052078247,
            0.25281989574432373,
            -0.1275029331445694,
            -0.6127578020095825,
            -0.0819648951292038,
            -0.10271123051643372,
            0.19036002457141876,
            -0.584216833114624,
            0.04417979344725609,
            -0.28567013144493103,
            -0.023689638823270798,
            -0.07220417261123657,
            -0.4034464955329895,
            0.3709146976470947,
            0.2560413181781769,
            -0.024062233045697212,
            -0.23882290720939636,
            0.07012203335762024,
            0.002617412246763706,
            -0.3967789113521576,
            -0.7440786361694336,
            -0.9806401133537292,
            -0.26287636160850525,
            0.07574190944433212,
            -0.8089625835418701,
            -0.35817933082580566,
            -0.12063905596733093,
            -0.2746586501598358,
            -0.40511614084243774,
            0.16539429128170013,
            0.10832268744707108,
            0.04792707785964012,
            -0.08485546708106995,
            -0.31778696179389954,
            0.34256452322006226,
            0.23365578055381775,
            0.008057689294219017,
            0.14991602301597595,
            -0.3665739595890045,
            -0.5402434468269348,
            -0.01677483133971691,
            -0.6327167749404907,
            -0.014683308079838753,
            0.4738951623439789,
            0.5484841465950012,
            -0.1009182408452034,
            0.36039701104164124,
            0.4021499752998352,
            0.16463729739189148,
            -0.6384045481681824,
            0.06086629629135132,
            -0.617179274559021,
            -0.054022178053855896,
            0.3465205132961273,
            0.1096300408244133,
            0.10028723627328873,
            0.07693350315093994,
            -0.01126230787485838,
            -0.2668469250202179,
            0.07508137077093124,
            0.06912818551063538,
            -0.005014244932681322,
            0.061875298619270325,
            0.14371506869792938,
            -0.0021564115304499865,
            -0.1769745945930481,
            -0.03406501188874245,
            -0.3699946105480194,
            0.003449016250669956,
            0.9752280116081238,
            -0.3464711010456085,
            -0.3858541250228882,
            0.45282575488090515,
            -0.703149139881134,
            0.1281200349330902,
            0.3692227005958557,
            0.4739205539226532,
            0.06556103378534317,
            0.5027011036872864,
            0.19240503013134003,
            -0.25808608531951904,
            0.8256546258926392,
            -0.11954452842473984,
            0.011286812834441662,
            -0.009759160690009594,
            -0.24293601512908936,
            -0.22906818985939026,
            -0.945910632610321,
            0.37130120396614075,
            0.037928782403469086,
            0.3304438889026642,
            0.20186847448349,
            -0.3613698482513428,
            0.2525502145290375,
            0.4380246102809906,
            -0.29906871914863586,
            -0.31229138374328613,
            0.010506059974431992,
            -1.7304739952087402,
            -0.5620787739753723,
            -0.006385321728885174,
            -0.29106104373931885,
            -0.5071271657943726,
            0.2636394202709198,
            0.03955890238285065,
            -1.163771390914917,
            0.08282860368490219,
            -0.5192198157310486,
            -0.27246007323265076,
            0.049089815467596054,
            -0.10785958170890808,
            0.1239316463470459,
            0.1832309067249298,
            -0.5509130954742432,
            -0.10283514112234116,
            -0.1695902943611145,
            0.27459412813186646,
            0.29457685351371765,
            -0.1968579739332199,
            0.1879044771194458,
            -0.23064081370830536,
            -0.3496750593185425,
            0.35012462735176086,
            -0.22128531336784363,
            -0.0757233276963234,
            0.08713304251432419,
            0.10171539336442947,
            -0.5643820762634277,
            -0.3232378363609314,
            -0.10952166467905045,
            -0.08036301285028458,
            0.0791889950633049,
            0.19622506201267242,
            -0.16385219991207123,
            0.13720758259296417,
            0.17293037474155426,
            0.4520229697227478,
            -0.04618237167596817,
            0.25122931599617004,
            0.35812512040138245,
            -0.19560857117176056,
            0.42197006940841675,
            0.05974136292934418,
            -0.14753860235214233,
            0.0710499957203865,
            0.36956602334976196,
            0.2799435257911682,
            -0.1567671000957489,
            0.03632137179374695,
            0.11937321722507477,
            -0.25704145431518555,
            -0.14569298923015594,
            0.28821033239364624,
            0.33233222365379333,
            0.0777936577796936,
            0.2711944580078125,
            -0.5925090909004211,
            -0.3084326684474945,
            -0.04551874101161957,
            0.07805027067661285,
            0.12236025929450989,
            0.321789413690567,
            -0.17302019894123077,
            -0.08148051798343658,
            -0.2516821026802063,
            -0.06894039362668991,
            0.06908538937568665,
            0.23093663156032562,
            -0.10559047013521194,
            0.04031795263290405,
            -0.19972270727157593,
            0.02238454297184944,
            -0.18760082125663757,
            0.06573070585727692,
            -0.0423734113574028,
            0.42885759472846985,
            -0.19424355030059814,
            0.022062217816710472,
            -0.4470580518245697,
            -0.8004865050315857,
            0.1030636578798294,
            -0.684711754322052,
            -0.05002604052424431,
            0.09326007217168808,
            0.031137920916080475,
            -0.3513610363006592,
            -0.00021652987925335765,
            0.14701901376247406,
            -0.05565092712640762,
            0.15145830810070038,
            -0.2075740098953247,
            0.07663300633430481,
            0.0768851637840271,
            -0.03935065492987633,
            -0.0010202480480074883,
            0.06916014850139618,
            -0.12223684042692184,
            0.007821849547326565,
            -0.1329067200422287,
            -0.017592543736100197,
            0.1831952929496765,
            -0.07316303998231888,
            0.21605627238750458,
            0.008478089235723019,
            -0.14035746455192566,
            0.16390317678451538,
            -0.24735556542873383,
            0.25153663754463196,
            0.002068023895844817,
            -0.2579071819782257,
            0.13140535354614258,
            -0.168439581990242,
            -0.1472184807062149,
            0.20241735875606537,
            0.06261901557445526,
            0.03559132292866707,
            0.08619374781847,
            0.06383924186229706,
            -0.034208137542009354,
            -0.05883456766605377,
            0.05084171146154404,
            0.1600194275379181,
            0.08060576021671295,
            0.03765026852488518,
            0.17463235557079315,
            -0.135210320353508,
            -0.1065569594502449,
            -0.19298984110355377,
            -0.1568315029144287,
            0.07438554614782333,
            -0.0888497605919838,
            -0.03678424283862114,
            -0.261833518743515,
            -1.049161434173584,
            0.07583942264318466,
            -0.08815423399209976,
            -0.5699981451034546,
            -0.2692284882068634,
            -0.22733566164970398,
            -0.13281972706317902,
            -0.2488819807767868,
            -0.5938660502433777,
            -0.00546390563249588,
            -0.02243037149310112,
            -0.22941958904266357,
            -0.21155473589897156,
            0.019158368930220604,
            -0.6804608702659607,
            0.006947237998247147,
            -0.10742798447608948,
            -0.38104191422462463,
            -0.06211413815617561,
            0.1538061648607254,
            -0.22969678044319153,
            0.16109804809093475,
            0.014483227394521236,
            0.010809787549078465,
            -0.3759342133998871,
            -0.19087885320186615,
            -0.3245273530483246,
            -0.6301084756851196,
            -0.06258117407560349,
            0.029593810439109802,
            0.14611849188804626,
            0.2748052179813385,
            -0.42133066058158875,
            0.041088663041591644,
            0.014778914861381054,
            0.08405936509370804,
            -0.2037680298089981,
            -0.17004165053367615,
            -0.20212888717651367,
            0.43763843178749084,
            0.10209033638238907,
            -0.04894127696752548,
            0.4224139451980591,
            -0.3630993962287903,
            -0.03472475707530975,
            0.7105834484100342,
            0.2675628662109375,
            -0.13786685466766357,
            -0.19359058141708374,
            0.12883436679840088,
            -0.13872946798801422,
            0.005005595274269581,
            -0.09855057299137115,
            -0.36236706376075745,
            0.42952027916908264,
            0.255687952041626,
            0.05114595592021942,
            0.13585849106311798,
            0.33678120374679565,
            -0.006984013598412275,
            -0.6953529119491577,
            0.2514989674091339,
            -0.6514922976493835,
            -0.18888702988624573,
            -0.6259735822677612,
            -0.543394923210144,
            -0.5699285268783569,
            0.11164350062608719,
            -0.6399880647659302,
            -0.025718050077557564,
            -0.02021123096346855,
            0.2383624017238617,
            -0.6680413484573364,
            -0.04612208902835846,
            -0.42583274841308594,
            -0.15541522204875946,
            0.07874107360839844,
            -0.02343311347067356,
            -0.13228195905685425,
            0.15763145685195923,
            -0.4134460687637329,
            -0.03963831812143326,
            0.12425190955400467,
            0.20786131918430328,
            0.08417249470949173,
            0.28627458214759827,
            0.2883450984954834,
            -0.32597336173057556,
            -0.2560980021953583,
            0.15657243132591248,
            -0.16707226634025574,
            -0.35918912291526794,
            0.1336233913898468,
            0.35681623220443726,
            -0.5139098167419434,
            0.1006772592663765,
            0.24842742085456848,
            -0.16054922342300415,
            0.055274847894907,
            0.055182427167892456,
            -0.2577655017375946,
            -0.09348834306001663,
            -0.1998116821050644,
            0.2946662902832031,
            -0.36787113547325134,
            0.5243844389915466,
            0.3893791437149048,
            -0.7395541071891785,
            0.1970379799604416,
            -0.01575722172856331,
            0.2342434525489807,
            0.12628497183322906,
            0.4179837107658386,
            -0.0766296312212944,
            -0.4413650333881378,
            -0.1347372829914093,
            0.2575271427631378,
            0.10013996064662933,
            0.04130399227142334,
            0.026527537032961845,
            0.03372133895754814,
            0.07953216880559921,
            -0.07616136223077774,
            -0.19685862958431244,
            -0.021177049726247787,
            0.05301297456026077,
            0.1346377432346344,
            0.10682128369808197,
            -0.2701126039028168,
            -0.025047607719898224,
            -0.015252044424414635,
            0.28948840498924255,
            -0.28367018699645996,
            0.03105010837316513,
            -0.011966771446168423,
            0.13190187513828278,
            0.07267539203166962,
            -0.016706855967640877,
            0.24446672201156616,
            -0.15822768211364746,
            0.10381509363651276,
            -0.1083870455622673,
            0.05396056920289993,
            -0.10065430402755737,
            -0.27632302045822144,
            0.08459852635860443,
            -0.01464870385825634,
            0.0038838740438222885,
            0.017645686864852905,
            -0.07768657058477402,
            -0.21060076355934143,
            -0.12989772856235504,
            0.0901828184723854,
            0.20063434541225433,
            -0.14357145130634308,
            0.017039118334650993,
            -0.02079908549785614,
            -0.11158929020166397,
            -0.07189645618200302,
            0.518906831741333,
            -0.18095482885837555,
            -0.1579008549451828,
            0.13193541765213013,
            -0.1255139857530594,
            0.06383068114519119,
            0.48914799094200134,
            0.3452271819114685,
            -0.2936912775039673,
            -1.1530838012695312,
            -0.05407432094216347,
            -0.04430949687957764,
            0.0019514820305630565,
            0.02289929799735546,
            -0.0190146304666996,
            0.26831769943237305,
            -0.002268889220431447,
            0.22021952271461487,
            0.13490787148475647,
            0.19543875753879547,
            -0.29290348291397095,
            -0.2874833643436432,
            0.1691630780696869,
            -0.7560121417045593,
            0.20476184785366058,
            -0.5815516710281372,
            0.2566673457622528,
            -0.193709135055542,
            0.1978619545698166,
            0.03254525735974312,
            0.1170971617102623,
            0.09970460087060928,
            -0.09977768361568451,
            0.027504639700055122,
            -0.005230679642409086,
            -0.45831090211868286,
            -0.035159800201654434,
            0.3698168992996216,
            0.011276858858764172,
            -0.014549611136317253,
            -0.648584246635437,
            -0.6801899671554565,
            -0.26301419734954834,
            -0.20849929749965668,
            0.326629102230072,
            -0.07167878746986389,
            -0.16037225723266602,
            -0.17124246060848236,
            -0.2238684743642807,
            -0.3010011315345764,
            -0.29840555787086487,
            -0.12365338206291199,
            -0.33774980902671814,
            0.1674908995628357,
            0.20284369587898254,
            -0.5690474510192871,
            -0.28011658787727356,
            -0.11027555167675018,
            -1.388179898262024,
            -0.012460126541554928,
            0.05747853219509125,
            0.5382945537567139,
            -0.1401713490486145,
            0.14616966247558594,
            0.2723068594932556,
            0.2946673333644867,
            0.2986434996128082,
            0.45863035321235657,
            -0.24602431058883667,
            0.24609066545963287,
            0.1378542184829712,
            -0.04373781383037567,
            0.08956220000982285,
            0.34884417057037354,
            -0.054372597485780716,
            -0.25758254528045654,
            -0.06981752812862396,
            0.10487767308950424,
            -0.06381168961524963,
            -0.19687971472740173,
            -0.11599484086036682,
            -0.2379007488489151,
            -0.08722447603940964,
            -0.08602249622344971,
            -0.12732695043087006,
            -0.437470018863678,
            -0.20644868910312653,
            -0.24699167907238007,
            0.013448107987642288,
            -0.05709129571914673,
            0.0960763469338417,
            -0.061219993978738785,
            -0.2523781359195709,
            -0.16334109008312225,
            -0.4750288426876068,
            -0.008524749428033829,
            0.11740467697381973,
            -0.06782305985689163,
            -0.19365054368972778,
            -0.04768889397382736,
            -0.03855486586689949,
            0.0714748352766037,
            -0.1488361805677414,
            0.20844078063964844,
            -0.41678982973098755,
            0.04951775446534157,
            -0.3142664134502411,
            -0.5566242337226868,
            0.011660662479698658,
            -0.647243320941925,
            0.027174215763807297,
            -0.12161356210708618,
            0.17420579493045807,
            -0.23554791510105133,
            -0.23050381243228912,
            -0.004997842013835907,
            -0.08816229552030563,
            0.0673946887254715,
            -0.09605654329061508,
            0.20907394587993622,
            -0.11895795166492462,
            -0.09561667591333389,
            -0.37477612495422363,
            0.20499007403850555,
            0.09113933145999908,
            -0.16457368433475494,
            0.10715046525001526,
            -0.25121867656707764,
            -0.07628569006919861,
            0.2123207300901413,
            0.0839524120092392,
            0.279607892036438,
            -0.48014864325523376,
            0.16658471524715424,
            0.19520235061645508,
            0.05157425254583359,
            0.049433834850788116,
            -0.12910135090351105,
            -0.1496066004037857,
            -0.2682524621486664,
            -0.1280723512172699,
            0.02863442152738571,
            0.043763842433691025,
            0.07460270076990128,
            0.11893989890813828,
            0.1099223792552948,
            0.037969689816236496,
            -0.07062368094921112,
            -0.018977513536810875,
            0.1491393744945526,
            -0.1266452819108963,
            0.21864286065101624,
            -0.07215330749750137,
            0.102934829890728,
            -0.13190405070781708,
            -0.10771139711141586,
            0.0427250936627388,
            -0.03217167779803276,
            -0.1501324474811554,
            0.04706570878624916,
            0.22738441824913025,
            0.0019895797595381737,
            0.038512732833623886,
            -0.22040946781635284,
            -0.25271254777908325,
            -0.24451488256454468,
            -0.336438924074173,
            -0.3472960889339447,
            -0.017681118100881577,
            -0.6162490248680115,
            0.03383541852235794,
            -0.022036613896489143,
            -0.20193606615066528,
            -0.22250056266784668,
            -0.17244593799114227,
            -0.39776456356048584,
            0.038900092244148254,
            -0.07029751688241959,
            -0.781653106212616,
            -0.0012305171694606543,
            0.019839752465486526,
            0.07658296823501587,
            -0.08019372820854187,
            0.2691423296928406,
            -0.17219389975070953,
            0.22162947058677673,
            -0.1689927577972412,
            -0.34891799092292786,
            -0.5341227650642395,
            -0.25036799907684326,
            0.017269929870963097,
            -0.12482182681560516,
            0.06716524064540863,
            -0.24030275642871857,
            -0.170366108417511,
            -0.05213204026222229,
            0.004173587542027235,
            0.0008587923948653042,
            0.4241737127304077,
            0.23016156256198883,
            0.3312688171863556,
            -0.08889064937829971,
            -0.3022140860557556,
            -0.7134243249893188,
            -0.02188248373568058,
            -0.33947625756263733,
            0.16374529898166656,
            -0.4968869090080261,
            0.24606379866600037,
            0.12631730735301971,
            -0.40274566411972046,
            -0.11404291540384293,
            -0.13098807632923126,
            0.22787252068519592,
            0.0957077220082283,
            -0.2730156183242798,
            0.7827421426773071,
            -0.0577007494866848,
            -0.023297080770134926,
            0.03262500464916229,
            0.12019260972738266,
            0.14138776063919067,
            0.5270522236824036,
            -0.4918875992298126,
            0.16762010753154755,
            0.7018230557441711,
            -0.14834921061992645,
            -0.3124663829803467,
            0.9822795987129211,
            0.18452098965644836,
            -0.4938693344593048,
            0.2827264368534088,
            0.31791648268699646,
            -0.08869421482086182,
            -0.7277877926826477,
            -0.13918223977088928,
            -0.2605747878551483,
            0.1043025478720665,
            0.48510828614234924,
            0.26692962646484375,
            0.2816537618637085,
            0.10421400517225266,
            -0.11042344570159912,
            0.4483427405357361,
            0.19913047552108765,
            -0.2211643010377884,
            0.32044175267219543,
            -0.4555777311325073,
            0.4015214145183563,
            -0.11843109130859375,
            -0.4946814179420471,
            -0.10371396690607071,
            -0.4198698103427887,
            -0.16352777183055878,
            -0.2960842549800873,
            -1.111720085144043,
            0.7168205380439758,
            0.017171893268823624,
            0.06493738293647766,
            0.06775586307048798,
            0.3446071445941925,
            0.3038572072982788,
            0.6545605659484863,
            -0.8637071847915649,
            -0.1871357411146164,
            0.16343209147453308,
            -0.11912636458873749,
            -0.3705155551433563,
            -0.018378054723143578,
            0.21530179679393768,
            -0.3545706570148468,
            0.34981539845466614,
            0.6143866181373596,
            0.04811633378267288,
            -0.573205292224884,
            0.40936824679374695,
            -0.26579412817955017,
            0.250687837600708,
            0.24067695438861847,
            0.11893186718225479,
            0.27042582631111145,
            -0.07452473789453506,
            0.4656200408935547,
            -0.47933685779571533,
            0.20894163846969604,
            -0.012900079600512981,
            0.4466480612754822,
            -0.3554224669933319,
            -0.24384646117687225,
            0.31451791524887085,
            0.25436994433403015,
            0.5953615307807922,
            0.12046240270137787,
            -0.20768560469150543,
            -0.1465032994747162,
            0.2495771050453186,
            -0.26270055770874023,
            -0.15421786904335022,
            -0.20136317610740662,
            -0.08039264380931854,
            0.021270135417580605,
            -0.6204819679260254,
            -0.5743851065635681,
            -0.14107173681259155,
            -0.006529160309582949,
            0.2590353786945343,
            0.30246835947036743,
            -0.10262072831392288,
            0.23083364963531494,
            0.18419799208641052,
            0.3800097107887268,
            0.12197324633598328,
            0.18976739048957825,
            -0.003697967156767845,
            -0.36406761407852173,
            0.22532187402248383,
            -0.41291889548301697,
            -0.26507312059402466,
            -0.09598986804485321,
            0.41358864307403564,
            0.12592674791812897,
            0.2839958667755127,
            0.19471141695976257,
            -0.4981835186481476,
            0.15098446607589722,
            -0.3619416356086731,
            0.2652810215950012,
            -0.053419481962919235,
            0.10581688582897186,
            0.8836507797241211,
            -0.8393007516860962,
            0.027650218456983566,
            -0.04771046340465546,
            0.2641427516937256,
            -0.5491554737091064,
            0.07253085821866989,
            0.723375678062439,
            0.26501139998435974,
            0.07790114730596542,
            -0.05868973210453987,
            0.20735310018062592,
            0.21891731023788452,
            0.74982750415802,
            -0.2012656331062317,
            -0.04497971013188362,
            0.36061331629753113,
            -0.26991212368011475,
            -0.11411374807357788,
            1.2544578313827515,
            -0.18840521574020386,
            -0.8895519971847534,
            0.0701557844877243,
            0.37293511629104614,
            -0.23514722287654877,
            0.060675833374261856,
            -0.1805286705493927,
            -0.4787716567516327,
            -0.012745695188641548,
            -0.22768634557724,
            0.25247618556022644,
            -0.0033750487491488457,
            -0.6691650152206421,
            -0.014463454484939575,
            -0.6477913856506348,
            0.11742328107357025,
            0.2681680917739868,
            -0.20769523084163666,
            0.15743057429790497,
            -0.49328580498695374,
            0.049167435616254807,
            0.21108752489089966,
            -0.1280057430267334,
            -0.20193609595298767,
            0.16255494952201843,
            -0.13324111700057983,
            -0.14106066524982452,
            -0.19971789419651031,
            0.00853407010436058,
            -0.02158520370721817,
            0.012044365517795086,
            0.018671566620469093,
            -0.0824238583445549,
            0.16818489134311676,
            0.6729421615600586,
            0.4342251121997833,
            0.6229724287986755,
            0.372448205947876,
            0.29598596692085266,
            -0.12370304018259048,
            0.3269011974334717,
            0.02049604058265686,
            -0.14451231062412262,
            -0.14474822580814362,
            0.010254164226353168,
            0.49969059228897095,
            -0.47259238362312317,
            0.18707092106342316,
            -0.11036009341478348,
            -0.2762816548347473,
            -0.13437527418136597,
            0.4896014928817749,
            0.12974455952644348,
            -0.1446520984172821,
            -0.10297057777643204,
            -0.3245164453983307,
            -0.09065403044223785,
            0.11160799860954285,
            0.217405766248703,
            -0.43183276057243347,
            -0.2086942195892334,
            -0.2265300452709198,
            -0.03261267766356468,
            0.24665789306163788,
            -0.1659068912267685,
            -0.23979856073856354,
            0.495513379573822,
            0.6620863080024719,
            -0.14330865442752838,
            0.10859666764736176,
            0.0074924807995557785,
            0.04654950276017189,
            0.0866020992398262,
            0.07807781547307968,
            0.9945620894432068,
            -0.361572802066803,
            0.3006177544593811,
            -0.30668753385543823,
            -0.5230497717857361,
            -0.2649044692516327,
            -0.2880849838256836,
            0.020129600539803505,
            -0.10445109754800797,
            -0.19412551820278168,
            -0.3188025653362274,
            0.025516297668218613,
            -0.05493197590112686,
            -0.0509427934885025,
            0.14151640236377716,
            -0.24801641702651978,
            -0.04138559848070145,
            -0.21649250388145447,
            -0.06846175342798233,
            -0.06518024951219559,
            0.47121497988700867,
            0.031382303684949875,
            0.10521677881479263,
            -0.5828559398651123,
